FANN_FLO_2.1
num_layers=3
learning_rate=0.001000
connection_rate=1.000000
network_type=0
learning_momentum=0.000000
training_algorithm=2
train_error_function=1
train_stop_function=0
cascade_output_change_fraction=0.010000
quickprop_decay=-0.000100
quickprop_mu=1.750000
rprop_increase_factor=1.200000
rprop_decrease_factor=0.500000
rprop_delta_min=0.000000
rprop_delta_max=50.000000
rprop_delta_zero=0.100000
cascade_output_stagnation_epochs=12
cascade_candidate_change_fraction=0.010000
cascade_candidate_stagnation_epochs=12
cascade_max_out_epochs=150
cascade_min_out_epochs=50
cascade_max_cand_epochs=150
cascade_min_cand_epochs=50
cascade_num_candidate_groups=2
bit_fail_limit=3.49999994039535522461e-01
cascade_candidate_limit=1.00000000000000000000e+03
cascade_weight_multiplier=4.00000005960464477539e-01
cascade_activation_functions_count=10
cascade_activation_functions=3 5 7 8 10 11 14 15 16 17 
cascade_activation_steepnesses_count=4
cascade_activation_steepnesses=2.50000000000000000000e-01 5.00000000000000000000e-01 7.50000000000000000000e-01 1.00000000000000000000e+00 
layer_sizes=35 257 5 
scale_included=0
neurons (num_inputs, activation_function, activation_steepness)=(0, 0, 0.00000000000000000000e+00) (0, 0, 0.00000000000000000000e+00) (0, 0, 0.00000000000000000000e+00) (0, 0, 0.00000000000000000000e+00) (0, 0, 0.00000000000000000000e+00) (0, 0, 0.00000000000000000000e+00) (0, 0, 0.00000000000000000000e+00) (0, 0, 0.00000000000000000000e+00) (0, 0, 0.00000000000000000000e+00) (0, 0, 0.00000000000000000000e+00) (0, 0, 0.00000000000000000000e+00) (0, 0, 0.00000000000000000000e+00) (0, 0, 0.00000000000000000000e+00) (0, 0, 0.00000000000000000000e+00) (0, 0, 0.00000000000000000000e+00) (0, 0, 0.00000000000000000000e+00) (0, 0, 0.00000000000000000000e+00) (0, 0, 0.00000000000000000000e+00) (0, 0, 0.00000000000000000000e+00) (0, 0, 0.00000000000000000000e+00) (0, 0, 0.00000000000000000000e+00) (0, 0, 0.00000000000000000000e+00) (0, 0, 0.00000000000000000000e+00) (0, 0, 0.00000000000000000000e+00) (0, 0, 0.00000000000000000000e+00) (0, 0, 0.00000000000000000000e+00) (0, 0, 0.00000000000000000000e+00) (0, 0, 0.00000000000000000000e+00) (0, 0, 0.00000000000000000000e+00) (0, 0, 0.00000000000000000000e+00) (0, 0, 0.00000000000000000000e+00) (0, 0, 0.00000000000000000000e+00) (0, 0, 0.00000000000000000000e+00) (0, 0, 0.00000000000000000000e+00) (0, 0, 0.00000000000000000000e+00) (35, 3, 5.00000000000000000000e-01) (35, 3, 5.00000000000000000000e-01) (35, 3, 5.00000000000000000000e-01) (35, 3, 5.00000000000000000000e-01) (35, 3, 5.00000000000000000000e-01) (35, 3, 5.00000000000000000000e-01) (35, 3, 5.00000000000000000000e-01) (35, 3, 5.00000000000000000000e-01) (35, 3, 5.00000000000000000000e-01) (35, 3, 5.00000000000000000000e-01) (35, 3, 5.00000000000000000000e-01) (35, 3, 5.00000000000000000000e-01) (35, 3, 5.00000000000000000000e-01) (35, 3, 5.00000000000000000000e-01) (35, 3, 5.00000000000000000000e-01) (35, 3, 5.00000000000000000000e-01) (35, 3, 5.00000000000000000000e-01) (35, 3, 5.00000000000000000000e-01) (35, 3, 5.00000000000000000000e-01) (35, 3, 5.00000000000000000000e-01) (35, 3, 5.00000000000000000000e-01) (35, 3, 5.00000000000000000000e-01) (35, 3, 5.00000000000000000000e-01) (35, 3, 5.00000000000000000000e-01) (35, 3, 5.00000000000000000000e-01) (35, 3, 5.00000000000000000000e-01) (35, 3, 5.00000000000000000000e-01) (35, 3, 5.00000000000000000000e-01) (35, 3, 5.00000000000000000000e-01) (35, 3, 5.00000000000000000000e-01) (35, 3, 5.00000000000000000000e-01) (35, 3, 5.00000000000000000000e-01) (35, 3, 5.00000000000000000000e-01) (35, 3, 5.00000000000000000000e-01) (35, 3, 5.00000000000000000000e-01) (35, 3, 5.00000000000000000000e-01) (35, 3, 5.00000000000000000000e-01) (35, 3, 5.00000000000000000000e-01) (35, 3, 5.00000000000000000000e-01) (35, 3, 5.00000000000000000000e-01) (35, 3, 5.00000000000000000000e-01) (35, 3, 5.00000000000000000000e-01) (35, 3, 5.00000000000000000000e-01) (35, 3, 5.00000000000000000000e-01) (35, 3, 5.00000000000000000000e-01) (35, 3, 5.00000000000000000000e-01) (35, 3, 5.00000000000000000000e-01) (35, 3, 5.00000000000000000000e-01) (35, 3, 5.00000000000000000000e-01) (35, 3, 5.00000000000000000000e-01) (35, 3, 5.00000000000000000000e-01) (35, 3, 5.00000000000000000000e-01) (35, 3, 5.00000000000000000000e-01) (35, 3, 5.00000000000000000000e-01) (35, 3, 5.00000000000000000000e-01) (35, 3, 5.00000000000000000000e-01) (35, 3, 5.00000000000000000000e-01) (35, 3, 5.00000000000000000000e-01) (35, 3, 5.00000000000000000000e-01) (35, 3, 5.00000000000000000000e-01) (35, 3, 5.00000000000000000000e-01) (35, 3, 5.00000000000000000000e-01) (35, 3, 5.00000000000000000000e-01) (35, 3, 5.00000000000000000000e-01) (35, 3, 5.00000000000000000000e-01) (35, 3, 5.00000000000000000000e-01) (35, 3, 5.00000000000000000000e-01) (35, 3, 5.00000000000000000000e-01) (35, 3, 5.00000000000000000000e-01) (35, 3, 5.00000000000000000000e-01) (35, 3, 5.00000000000000000000e-01) (35, 3, 5.00000000000000000000e-01) (35, 3, 5.00000000000000000000e-01) (35, 3, 5.00000000000000000000e-01) (35, 3, 5.00000000000000000000e-01) (35, 3, 5.00000000000000000000e-01) (35, 3, 5.00000000000000000000e-01) (35, 3, 5.00000000000000000000e-01) (35, 3, 5.00000000000000000000e-01) (35, 3, 5.00000000000000000000e-01) (35, 3, 5.00000000000000000000e-01) (35, 3, 5.00000000000000000000e-01) (35, 3, 5.00000000000000000000e-01) (35, 3, 5.00000000000000000000e-01) (35, 3, 5.00000000000000000000e-01) (35, 3, 5.00000000000000000000e-01) (35, 3, 5.00000000000000000000e-01) (35, 3, 5.00000000000000000000e-01) (35, 3, 5.00000000000000000000e-01) (35, 3, 5.00000000000000000000e-01) (35, 3, 5.00000000000000000000e-01) (35, 3, 5.00000000000000000000e-01) (35, 3, 5.00000000000000000000e-01) (35, 3, 5.00000000000000000000e-01) (35, 3, 5.00000000000000000000e-01) (35, 3, 5.00000000000000000000e-01) (35, 3, 5.00000000000000000000e-01) (35, 3, 5.00000000000000000000e-01) (35, 3, 5.00000000000000000000e-01) (35, 3, 5.00000000000000000000e-01) (35, 3, 5.00000000000000000000e-01) (35, 3, 5.00000000000000000000e-01) (35, 3, 5.00000000000000000000e-01) (35, 3, 5.00000000000000000000e-01) (35, 3, 5.00000000000000000000e-01) (35, 3, 5.00000000000000000000e-01) (35, 3, 5.00000000000000000000e-01) (35, 3, 5.00000000000000000000e-01) (35, 3, 5.00000000000000000000e-01) (35, 3, 5.00000000000000000000e-01) (35, 3, 5.00000000000000000000e-01) (35, 3, 5.00000000000000000000e-01) (35, 3, 5.00000000000000000000e-01) (35, 3, 5.00000000000000000000e-01) (35, 3, 5.00000000000000000000e-01) (35, 3, 5.00000000000000000000e-01) (35, 3, 5.00000000000000000000e-01) (35, 3, 5.00000000000000000000e-01) (35, 3, 5.00000000000000000000e-01) (35, 3, 5.00000000000000000000e-01) (35, 3, 5.00000000000000000000e-01) (35, 3, 5.00000000000000000000e-01) (35, 3, 5.00000000000000000000e-01) (35, 3, 5.00000000000000000000e-01) (35, 3, 5.00000000000000000000e-01) (35, 3, 5.00000000000000000000e-01) (35, 3, 5.00000000000000000000e-01) (35, 3, 5.00000000000000000000e-01) (35, 3, 5.00000000000000000000e-01) (35, 3, 5.00000000000000000000e-01) (35, 3, 5.00000000000000000000e-01) (35, 3, 5.00000000000000000000e-01) (35, 3, 5.00000000000000000000e-01) (35, 3, 5.00000000000000000000e-01) (35, 3, 5.00000000000000000000e-01) (35, 3, 5.00000000000000000000e-01) (35, 3, 5.00000000000000000000e-01) (35, 3, 5.00000000000000000000e-01) (35, 3, 5.00000000000000000000e-01) (35, 3, 5.00000000000000000000e-01) (35, 3, 5.00000000000000000000e-01) (35, 3, 5.00000000000000000000e-01) (35, 3, 5.00000000000000000000e-01) (35, 3, 5.00000000000000000000e-01) (35, 3, 5.00000000000000000000e-01) (35, 3, 5.00000000000000000000e-01) (35, 3, 5.00000000000000000000e-01) (35, 3, 5.00000000000000000000e-01) (35, 3, 5.00000000000000000000e-01) (35, 3, 5.00000000000000000000e-01) (35, 3, 5.00000000000000000000e-01) (35, 3, 5.00000000000000000000e-01) (35, 3, 5.00000000000000000000e-01) (35, 3, 5.00000000000000000000e-01) (35, 3, 5.00000000000000000000e-01) (35, 3, 5.00000000000000000000e-01) (35, 3, 5.00000000000000000000e-01) (35, 3, 5.00000000000000000000e-01) (35, 3, 5.00000000000000000000e-01) (35, 3, 5.00000000000000000000e-01) (35, 3, 5.00000000000000000000e-01) (35, 3, 5.00000000000000000000e-01) (35, 3, 5.00000000000000000000e-01) (35, 3, 5.00000000000000000000e-01) (35, 3, 5.00000000000000000000e-01) (35, 3, 5.00000000000000000000e-01) (35, 3, 5.00000000000000000000e-01) (35, 3, 5.00000000000000000000e-01) (35, 3, 5.00000000000000000000e-01) (35, 3, 5.00000000000000000000e-01) (35, 3, 5.00000000000000000000e-01) (35, 3, 5.00000000000000000000e-01) (35, 3, 5.00000000000000000000e-01) (35, 3, 5.00000000000000000000e-01) (35, 3, 5.00000000000000000000e-01) (35, 3, 5.00000000000000000000e-01) (35, 3, 5.00000000000000000000e-01) (35, 3, 5.00000000000000000000e-01) (35, 3, 5.00000000000000000000e-01) (35, 3, 5.00000000000000000000e-01) (35, 3, 5.00000000000000000000e-01) (35, 3, 5.00000000000000000000e-01) (35, 3, 5.00000000000000000000e-01) (35, 3, 5.00000000000000000000e-01) (35, 3, 5.00000000000000000000e-01) (35, 3, 5.00000000000000000000e-01) (35, 3, 5.00000000000000000000e-01) (35, 3, 5.00000000000000000000e-01) (35, 3, 5.00000000000000000000e-01) (35, 3, 5.00000000000000000000e-01) (35, 3, 5.00000000000000000000e-01) (35, 3, 5.00000000000000000000e-01) (35, 3, 5.00000000000000000000e-01) (35, 3, 5.00000000000000000000e-01) (35, 3, 5.00000000000000000000e-01) (35, 3, 5.00000000000000000000e-01) (35, 3, 5.00000000000000000000e-01) (35, 3, 5.00000000000000000000e-01) (35, 3, 5.00000000000000000000e-01) (35, 3, 5.00000000000000000000e-01) (35, 3, 5.00000000000000000000e-01) (35, 3, 5.00000000000000000000e-01) (35, 3, 5.00000000000000000000e-01) (35, 3, 5.00000000000000000000e-01) (35, 3, 5.00000000000000000000e-01) (35, 3, 5.00000000000000000000e-01) (35, 3, 5.00000000000000000000e-01) (35, 3, 5.00000000000000000000e-01) (35, 3, 5.00000000000000000000e-01) (35, 3, 5.00000000000000000000e-01) (35, 3, 5.00000000000000000000e-01) (35, 3, 5.00000000000000000000e-01) (35, 3, 5.00000000000000000000e-01) (35, 3, 5.00000000000000000000e-01) (35, 3, 5.00000000000000000000e-01) (35, 3, 5.00000000000000000000e-01) (35, 3, 5.00000000000000000000e-01) (35, 3, 5.00000000000000000000e-01) (35, 3, 5.00000000000000000000e-01) (35, 3, 5.00000000000000000000e-01) (35, 3, 5.00000000000000000000e-01) (35, 3, 5.00000000000000000000e-01) (35, 3, 5.00000000000000000000e-01) (35, 3, 5.00000000000000000000e-01) (35, 3, 5.00000000000000000000e-01) (35, 3, 5.00000000000000000000e-01) (35, 3, 5.00000000000000000000e-01) (35, 3, 5.00000000000000000000e-01) (35, 3, 5.00000000000000000000e-01) (35, 3, 5.00000000000000000000e-01) (35, 3, 5.00000000000000000000e-01) (35, 3, 5.00000000000000000000e-01) (35, 3, 5.00000000000000000000e-01) (35, 3, 5.00000000000000000000e-01) (35, 3, 5.00000000000000000000e-01) (35, 3, 5.00000000000000000000e-01) (35, 3, 5.00000000000000000000e-01) (35, 3, 5.00000000000000000000e-01) (35, 3, 5.00000000000000000000e-01) (35, 3, 5.00000000000000000000e-01) (35, 3, 5.00000000000000000000e-01) (35, 3, 5.00000000000000000000e-01) (35, 3, 5.00000000000000000000e-01) (35, 3, 5.00000000000000000000e-01) (35, 3, 5.00000000000000000000e-01) (35, 3, 5.00000000000000000000e-01) (35, 3, 5.00000000000000000000e-01) (35, 3, 5.00000000000000000000e-01) (35, 3, 5.00000000000000000000e-01) (35, 3, 5.00000000000000000000e-01) (35, 3, 5.00000000000000000000e-01) (35, 3, 5.00000000000000000000e-01) (35, 3, 5.00000000000000000000e-01) (35, 3, 5.00000000000000000000e-01) (35, 3, 5.00000000000000000000e-01) (35, 3, 5.00000000000000000000e-01) (0, 3, 0.00000000000000000000e+00) (257, 3, 5.00000000000000000000e-01) (257, 3, 5.00000000000000000000e-01) (257, 3, 5.00000000000000000000e-01) (257, 3, 5.00000000000000000000e-01) (0, 3, 0.00000000000000000000e+00) 
connections (connected_to_neuron, weight)=(0, 1.00896990299224853516e+00) (1, 8.31686973571777343750e-01) (2, 2.50597707927227020264e-02) (3, -3.05534958839416503906e-01) (4, 2.26145442575216293335e-02) (5, 5.31557314097881317139e-02) (6, -1.48763999342918395996e-01) (7, 9.22329202294349670410e-02) (8, -3.05080771446228027344e-01) (9, -7.29323029518127441406e-01) (10, -1.18499517440795898438e+00) (11, -1.56780481338500976562e+00) (12, -1.13209271430969238281e+00) (13, 1.08396959304809570312e+00) (14, 6.08561813831329345703e-01) (15, -1.04142630100250244141e+00) (16, -2.00429722666740417480e-01) (17, 1.29130983352661132812e+00) (18, -7.69831299781799316406e-01) (19, 4.24251586198806762695e-01) (20, 9.59593474864959716797e-01) (21, 1.00756132602691650391e+00) (22, 1.95148444175720214844e+00) (23, 1.57265309244394302368e-02) (24, 2.28744279593229293823e-02) (25, 1.23781383037567138672e-01) (26, 3.70886683464050292969e-01) (27, 3.02252918481826782227e-01) (28, -2.71386325359344482422e-01) (29, 3.07092279195785522461e-01) (30, 2.03790330886840820312e+00) (31, 3.40489178895950317383e-01) (32, 2.52013634890317916870e-02) (33, 1.01989603042602539062e+00) (34, -3.50478863716125488281e+00) (0, 5.85557401180267333984e-01) (1, -1.05263516306877136230e-01) (2, 1.27714967727661132812e+00) (3, -8.03289711475372314453e-02) (4, 3.20513129234313964844e-01) (5, -5.45469462871551513672e-01) (6, -3.16175371408462524414e-01) (7, 1.36319470405578613281e+00) (8, 4.55621689558029174805e-01) (9, 9.88890409469604492188e-01) (10, 1.78932741284370422363e-01) (11, -4.65662740170955657959e-02) (12, 2.47742342948913574219e+00) (13, 2.14213520288467407227e-01) (14, -2.00767111778259277344e+00) (15, -3.01014065742492675781e-01) (16, 9.09210816025733947754e-02) (17, 2.13985219597816467285e-02) (18, -3.74127954244613647461e-01) (19, 2.19259524345397949219e+00) (20, 1.10352911055088043213e-01) (21, 8.51498544216156005859e-02) (22, 2.96330034732818603516e-01) (23, 1.01426553726196289062e+00) (24, 5.31163871288299560547e-01) (25, 5.06651401519775390625e-01) (26, -8.78912448883056640625e-01) (27, 1.55244266986846923828e+00) (28, 2.31410712003707885742e-01) (29, -9.82664763927459716797e-01) (30, 1.86919081211090087891e+00) (31, 1.21061849594116210938e+00) (32, 4.85093498229980468750e+00) (33, 6.95565998554229736328e-01) (34, -3.76553297042846679688e+00) (0, -9.26487624645233154297e-01) (1, 1.06609606742858886719e+00) (2, 2.49548864364624023438e+00) (3, 5.49137413501739501953e-01) (4, 4.42528963088989257812e-01) (5, 2.88103508949279785156e+00) (6, -1.79437267780303955078e+00) (7, -6.55893683433532714844e-02) (8, -1.71010792255401611328e+00) (9, 1.40840637683868408203e+00) (10, 1.86344373226165771484e+00) (11, 1.02862370014190673828e+00) (12, -3.45058202743530273438e+00) (13, 1.11204564571380615234e+00) (14, 2.78572589159011840820e-01) (15, -7.75514170527458190918e-02) (16, -1.37766107916831970215e-01) (17, 3.23141455650329589844e-01) (18, -1.03387701511383056641e+00) (19, -2.81784033775329589844e+00) (20, 6.97043704986572265625e+00) (21, 1.50295376777648925781e+00) (22, -1.66108608245849609375e+00) (23, 4.78965669870376586914e-01) (24, 1.60909950733184814453e-01) (25, 2.25244450569152832031e+00) (26, 1.41144931316375732422e+00) (27, -1.34787011146545410156e+00) (28, 6.69889497756958007812e+00) (29, -4.70233619213104248047e-01) (30, -1.29703772068023681641e+00) (31, 1.36654806137084960938e+00) (32, 9.26070660352706909180e-02) (33, 5.67734725773334503174e-02) (34, 4.93303596973419189453e-01) (0, 7.49877154827117919922e-01) (1, -1.28588128089904785156e+00) (2, 1.16713082790374755859e+00) (3, -9.42745566368103027344e-01) (4, 2.14295482635498046875e+00) (5, 1.03092885017395019531e+00) (6, -1.91618219017982482910e-01) (7, -4.88156557083129882812e-01) (8, -3.17221331596374511719e+00) (9, 3.01043844223022460938e+00) (10, 4.17268127202987670898e-01) (11, 1.58283925056457519531e+00) (12, -1.35044908523559570312e+00) (13, 8.43659043312072753906e-01) (14, 6.79809665679931640625e+00) (15, 6.72046005725860595703e-01) (16, 8.82214903831481933594e-01) (17, -2.70269840955734252930e-01) (18, -1.63731741905212402344e+00) (19, -4.12678432464599609375e+00) (20, -2.47000193595886230469e+00) (21, -5.30857264995574951172e-01) (22, 3.14286971092224121094e+00) (23, -2.40809097886085510254e-01) (24, -1.84873843193054199219e+00) (25, 7.35506439208984375000e+00) (26, -2.30742633342742919922e-01) (27, 1.38646519184112548828e+00) (28, 2.09493899345397949219e+00) (29, 3.79681229591369628906e+00) (30, 1.03323268890380859375e+00) (31, 4.31717729568481445312e+00) (32, 5.85882008075714111328e-01) (33, -3.26811373233795166016e-01) (34, 1.22223055362701416016e+00) (0, -2.90693545341491699219e+00) (1, 1.17050826549530029297e+00) (2, 1.19287025928497314453e+00) (3, 9.88739311695098876953e-01) (4, 3.91550272703170776367e-01) (5, -1.13663172721862792969e+00) (6, 2.72514402866363525391e-01) (7, 1.89268231391906738281e+00) (8, -1.80834472179412841797e+00) (9, -4.48659801483154296875e+00) (10, 5.63228487968444824219e-01) (11, 7.61452317237854003906e-01) (12, -1.32091009616851806641e+00) (13, 1.12134769558906555176e-01) (14, 2.11148276925086975098e-01) (15, -5.59141859412193298340e-02) (16, -2.81193912029266357422e-01) (17, 2.88313412666320800781e+00) (18, 2.40447497367858886719e+00) (19, -1.63863432407379150391e+00) (20, -5.46377480030059814453e-01) (21, 4.16492283344268798828e-01) (22, 2.76326036453247070312e+00) (23, -8.76539051532745361328e-01) (24, 5.23050308227539062500e-01) (25, 1.28138625621795654297e+00) (26, -9.02547061443328857422e-01) (27, 6.52344286441802978516e-01) (28, -2.21099996566772460938e+00) (29, 6.91290497779846191406e-01) (30, 1.58562526106834411621e-01) (31, 4.18904632329940795898e-01) (32, -3.10877728462219238281e+00) (33, 9.67557132244110107422e-01) (34, 3.22521269321441650391e-01) (0, -1.22521555423736572266e+00) (1, 8.63730669021606445312e-01) (2, 1.84122800827026367188e+00) (3, 6.32233977317810058594e-01) (4, 1.48751246929168701172e+00) (5, -3.21692681312561035156e+00) (6, 2.54395818710327148438e+00) (7, -4.20673191547393798828e-01) (8, 2.35078644752502441406e+00) (9, 1.16246187686920166016e+00) (10, 9.25326645374298095703e-01) (11, 1.11988759040832519531e+00) (12, 1.67266047000885009766e+00) (13, 3.79971218109130859375e+00) (14, -3.93861502408981323242e-01) (15, -7.76673927903175354004e-02) (16, 1.14804413169622421265e-02) (17, 1.42028307914733886719e+00) (18, 5.16769945621490478516e-01) (19, 5.25626204907894134521e-02) (20, 2.08697915077209472656e+00) (21, 1.87585487961769104004e-01) (22, -2.67585128545761108398e-01) (23, -3.16613405942916870117e-01) (24, -6.01473674178123474121e-02) (25, -9.74232494831085205078e-01) (26, -4.15657818317413330078e-01) (27, 9.57609117031097412109e-02) (28, -1.32367515563964843750e+00) (29, -2.25926566123962402344e+00) (30, 2.25572013854980468750e+00) (31, 5.02443052828311920166e-02) (32, 7.06297099590301513672e-01) (33, 1.67561262845993041992e-01) (34, 2.47568613849580287933e-03) (0, 9.56568181514739990234e-01) (1, 2.05965623259544372559e-01) (2, -6.75656139850616455078e-01) (3, 5.10096073150634765625e+00) (4, 1.25788545608520507812e+00) (5, 2.37158250808715820312e+00) (6, -4.09974813461303710938e-01) (7, 9.89760994911193847656e-01) (8, -2.10783839225769042969e+00) (9, 2.12204408645629882812e+00) (10, 2.30390524864196777344e+00) (11, 3.67364001274108886719e+00) (12, 4.42974376678466796875e+00) (13, -1.38972949981689453125e+00) (14, 3.51463437080383300781e+00) (15, 9.24193978309631347656e-01) (16, 1.20316910743713378906e+00) (17, -1.56011477112770080566e-01) (18, 7.82250344753265380859e-01) (19, -4.28493171930313110352e-01) (20, -4.20995086431503295898e-01) (21, 4.03309553861618041992e-01) (22, -2.89636671543121337891e-01) (23, -1.97183239459991455078e+00) (24, -1.27522170543670654297e+00) (25, -3.32182943820953369141e-01) (26, 5.71369230747222900391e-01) (27, 1.75317907333374023438e+00) (28, 2.17438960075378417969e+00) (29, 2.75071644783020019531e+00) (30, -5.52471756935119628906e-01) (31, 1.70107877254486083984e+00) (32, 4.19903659820556640625e+00) (33, 2.58914136886596679688e+00) (34, 1.08874395489692687988e-01) (0, -5.08548498153686523438e-01) (1, 1.14856109023094177246e-01) (2, 2.47508621215820312500e+00) (3, 4.64418411254882812500e-01) (4, -1.19163393974304199219e+00) (5, 3.46999019384384155273e-01) (6, -8.13433885574340820312e-01) (7, -1.17465816438198089600e-01) (8, 3.29748004674911499023e-01) (9, -1.06793951988220214844e+00) (10, -1.68034815788269042969e+00) (11, -5.71475863456726074219e-01) (12, -9.48595926165580749512e-02) (13, 2.63084292411804199219e+00) (14, 1.65399169921875000000e+00) (15, -7.84343898296356201172e-01) (16, 1.28712236881256103516e+00) (17, -3.18982243537902832031e+00) (18, 2.50377821922302246094e+00) (19, -2.56522846221923828125e+00) (20, 1.75629603862762451172e+00) (21, 2.91663985699415206909e-02) (22, 2.58154004812240600586e-01) (23, -2.02855920791625976562e+00) (24, -2.73842252790927886963e-02) (25, -1.05575060844421386719e+00) (26, 6.84820830821990966797e-01) (27, -1.06753087043762207031e+00) (28, 6.19292795658111572266e-01) (29, -1.81330502033233642578e+00) (30, 6.09952330589294433594e-01) (31, 7.79837131500244140625e-01) (32, 5.51779699325561523438e+00) (33, 7.16935873031616210938e-01) (34, -4.31777095794677734375e+00) (0, 1.01713669300079345703e+00) (1, -5.98095031455159187317e-03) (2, -2.07571673393249511719e+00) (3, -1.42465758323669433594e+00) (4, 8.15753841400146484375e+00) (5, 7.94455707073211669922e-01) (6, -2.02727961540222167969e+00) (7, 4.00729924440383911133e-01) (8, 3.24559497833251953125e+00) (9, -3.22761982679367065430e-01) (10, 1.76147556304931640625e+00) (11, 1.68931114673614501953e+00) (12, -2.67055004835128784180e-01) (13, 7.44412004947662353516e-01) (14, 1.99341654777526855469e+00) (15, 5.13395965099334716797e-01) (16, 4.29408073425292968750e-01) (17, 6.58243656158447265625e-01) (18, 7.64609193801879882812e+00) (19, 5.91081976890563964844e-01) (20, -8.01801562309265136719e-01) (21, 9.13791775703430175781e-01) (22, 8.02742242813110351562e-01) (23, -3.65897727012634277344e+00) (24, 2.00207519531250000000e+00) (25, 1.68579983711242675781e+00) (26, 6.66805580258369445801e-02) (27, 1.55623378232121467590e-02) (28, -2.45356106758117675781e+00) (29, -2.15787500143051147461e-01) (30, 5.38847351074218750000e+00) (31, 1.36302316188812255859e+00) (32, -2.72373020648956298828e-01) (33, 6.43705964088439941406e-01) (34, 2.27046579122543334961e-01) (0, -2.62652301788330078125e+00) (1, -9.86342906951904296875e-01) (2, 2.40196609497070312500e+00) (3, 2.91853618621826171875e+00) (4, 1.06589663028717041016e+00) (5, -7.21741139888763427734e-01) (6, 4.62156534194946289062e+00) (7, 5.31434565782546997070e-02) (8, -1.60149121284484863281e+00) (9, 9.92004156112670898438e-01) (10, 1.64087820053100585938e+00) (11, 7.20939934253692626953e-01) (12, 9.84513938426971435547e-01) (13, -1.59280312061309814453e+00) (14, -1.43102669715881347656e+00) (15, 1.33125376701354980469e+00) (16, 2.30466580390930175781e+00) (17, -2.02792901545763015747e-02) (18, 2.14948797225952148438e+00) (19, -4.08081436157226562500e+00) (20, 1.09665203094482421875e+00) (21, -6.11123025417327880859e-01) (22, -8.66564989089965820312e-01) (23, 8.96124422550201416016e-01) (24, -1.06602132320404052734e+00) (25, -3.64812111854553222656e+00) (26, 1.35504615306854248047e+00) (27, -2.05964848399162292480e-01) (28, 1.33081269264221191406e+00) (29, 2.65567332506179809570e-01) (30, 4.52520042657852172852e-01) (31, 8.23584258556365966797e-01) (32, 8.56384515762329101562e-01) (33, 9.92202520370483398438e-01) (34, -4.93620395660400390625e+00) (0, 2.08587908744812011719e+00) (1, -5.66164612770080566406e-01) (2, 1.03286731243133544922e+00) (3, 8.67636024951934814453e-01) (4, 2.70496726036071777344e+00) (5, 1.65398940443992614746e-01) (6, -1.48152124881744384766e+00) (7, 1.44690179824829101562e+00) (8, -2.46151709556579589844e+00) (9, 2.09298872947692871094e+00) (10, 4.68373680114746093750e+00) (11, 1.85262477397918701172e+00) (12, 9.21020889282226562500e+00) (13, 2.46844315528869628906e+00) (14, 6.23416948318481445312e+00) (15, 1.95925664901733398438e+00) (16, 2.62130022048950195312e+00) (17, -2.90541261434555053711e-01) (18, 3.51477432250976562500e+00) (19, 1.65445590019226074219e+00) (20, 1.48759162425994873047e+00) (21, 1.84864199161529541016e+00) (22, 2.87278842926025390625e+00) (23, 6.52675449848175048828e-01) (24, 8.64091694355010986328e-01) (25, 5.91800093650817871094e-01) (26, 3.92360538244247436523e-01) (27, -1.12150311470031738281e+00) (28, 6.73883616924285888672e-01) (29, 1.18269515037536621094e+00) (30, 1.80183693766593933105e-01) (31, -5.47511756420135498047e-01) (32, 1.09627783298492431641e+00) (33, 1.38900172710418701172e+00) (34, -7.40996282547712326050e-03) (0, 7.98538446426391601562e-01) (1, -5.52255392074584960938e-01) (2, 3.03519177436828613281e+00) (3, 1.26650214195251464844e+00) (4, 1.10255092382431030273e-01) (5, 2.23177880048751831055e-01) (6, 2.46662333607673645020e-01) (7, 1.97680258750915527344e+00) (8, 2.42677509784698486328e-01) (9, -2.76176840066909790039e-01) (10, 5.63142597675323486328e-01) (11, -4.52392220497131347656e-01) (12, 8.79188835620880126953e-01) (13, 1.92440438270568847656e+00) (14, -2.83744168281555175781e+00) (15, 2.46482038497924804688e+00) (16, 1.05661404132843017578e+00) (17, 2.58125114440917968750e+00) (18, 6.06889533996582031250e+00) (19, 1.55508506298065185547e+00) (20, 1.60388064384460449219e+00) (21, 1.06775951385498046875e+00) (22, 2.37125325202941894531e+00) (23, 7.06184244155883789062e+00) (24, -1.64504438638687133789e-01) (25, 9.59100604057312011719e-01) (26, -6.37491762638092041016e-01) (27, 1.20542913675308227539e-01) (28, 8.37922632694244384766e-01) (29, 8.65079224109649658203e-01) (30, 4.34258985519409179688e+00) (31, 1.68635725975036621094e-01) (32, 3.39415740966796875000e+00) (33, 6.35947883129119873047e-01) (34, 1.53860688209533691406e-01) (0, -1.94600594043731689453e+00) (1, 7.81781896948814392090e-02) (2, 8.23409974575042724609e-01) (3, -4.93478864431381225586e-01) (4, -2.50026613473892211914e-01) (5, -6.58295035362243652344e-01) (6, 5.21647512912750244141e-01) (7, 4.46229279041290283203e-01) (8, 6.14610552787780761719e-01) (9, -2.05869913101196289062e+00) (10, -1.84129327535629272461e-01) (11, 4.62922602891921997070e-02) (12, 8.83144497871398925781e-01) (13, 1.07377505302429199219e+00) (14, 9.50205549597740173340e-02) (15, 7.99490809440612792969e-01) (16, 7.02256798744201660156e-01) (17, 1.02352988719940185547e+00) (18, 1.65691494941711425781e+00) (19, -1.37612032890319824219e+00) (20, 1.91505241394042968750e+00) (21, 4.13552463054656982422e-01) (22, 9.18903052806854248047e-02) (23, 2.26621180772781372070e-01) (24, -2.63660941272974014282e-02) (25, -2.21132969856262207031e+00) (26, 1.42753556370735168457e-01) (27, 7.19453155994415283203e-01) (28, -8.78585815429687500000e-01) (29, 1.04467463493347167969e+00) (30, 1.44158840179443359375e+00) (31, 8.91062200069427490234e-01) (32, 2.02717721462249755859e-01) (33, -3.03933680057525634766e-01) (34, -5.11346530914306640625e+00) (0, 4.44337218999862670898e-01) (1, -6.94691538810729980469e-01) (2, 1.30494534969329833984e+00) (3, 8.69879305362701416016e-01) (4, -7.23551511764526367188e-01) (5, -3.45780372619628906250e-01) (6, -1.76417505741119384766e+00) (7, -4.71381932497024536133e-01) (8, -1.02536290884017944336e-01) (9, -4.75387930870056152344e-01) (10, -2.94404697418212890625e+00) (11, -1.26562058925628662109e-01) (12, 2.85911726951599121094e+00) (13, 4.03272628784179687500e+00) (14, -1.94966077804565429688e-01) (15, 2.34939479827880859375e+00) (16, 1.13445007801055908203e+00) (17, 4.78323459625244140625e+00) (18, -9.24005210399627685547e-01) (19, 8.19435119628906250000e-01) (20, 8.84139060974121093750e+00) (21, -1.91921547055244445801e-01) (22, -1.16990745067596435547e+00) (23, -1.22003352642059326172e+00) (24, 1.09087608754634857178e-01) (25, -1.93075880408287048340e-01) (26, 1.52110075950622558594e+00) (27, -4.76332712173461914062e+00) (28, 1.60891520977020263672e+00) (29, -1.31732022762298583984e+00) (30, -9.62189257144927978516e-01) (31, 3.92506450414657592773e-01) (32, -3.37665021419525146484e-01) (33, 1.28200328350067138672e+00) (34, 9.56499814987182617188e-01) (0, 1.14638984203338623047e+00) (1, -2.58376300334930419922e-01) (2, 1.25461351871490478516e+00) (3, 4.98455166816711425781e-01) (4, 5.75492024421691894531e-01) (5, 5.57986080646514892578e-01) (6, -2.24666428565979003906e+00) (7, 3.33170741796493530273e-01) (8, 2.61892437934875488281e+00) (9, -2.40506815910339355469e+00) (10, -5.08633911609649658203e-01) (11, 4.10082387924194335938e+00) (12, 3.94483894109725952148e-01) (13, 2.27013543248176574707e-01) (14, 2.84378170967102050781e+00) (15, 5.20056784152984619141e-01) (16, -1.99591934680938720703e+00) (17, -1.07191729545593261719e+00) (18, -1.84091174602508544922e+00) (19, -5.11153876781463623047e-01) (20, 4.74826097488403320312e-01) (21, -3.77274692058563232422e-01) (22, 2.63589239120483398438e+00) (23, -3.65238726139068603516e-01) (24, -5.87882339954376220703e-01) (25, -1.89938336610794067383e-01) (26, -1.71175110340118408203e+00) (27, 4.28245887160301208496e-02) (28, 3.42421591281890869141e-01) (29, 4.38865393400192260742e-01) (30, 6.98901712894439697266e-01) (31, -2.15280205011367797852e-01) (32, 1.73567438125610351562e+00) (33, 2.69097033888101577759e-02) (34, -4.30380201339721679688e+00) (0, 4.63856267929077148438e+00) (1, -4.45625543594360351562e+00) (2, 6.61270618438720703125e-01) (3, -2.35929226875305175781e+00) (4, -3.85131025314331054688e+00) (5, -1.86297202110290527344e+00) (6, 3.51219475269317626953e-01) (7, -4.50342059135437011719e-01) (8, -1.64040923118591308594e+00) (9, 3.97932976484298706055e-01) (10, -2.27798414230346679688e+00) (11, 6.88832163810729980469e-01) (12, -9.23377498984336853027e-02) (13, 6.61068201065063476562e-01) (14, -2.05275702476501464844e+00) (15, 2.53776550292968750000e+00) (16, 1.00575423240661621094e+00) (17, 2.18423676490783691406e+00) (18, -2.57293748855590820312e+00) (19, 1.20136427879333496094e+00) (20, -2.85517311096191406250e+00) (21, -1.43362209200859069824e-01) (22, 8.79495218396186828613e-02) (23, 1.19486391544342041016e+00) (24, 2.60897064208984375000e+00) (25, -7.67054617404937744141e-01) (26, -2.71903300285339355469e+00) (27, -3.52760314941406250000e-01) (28, 1.00575971603393554688e+00) (29, 8.76310944557189941406e-01) (30, 3.28941106796264648438e+00) (31, 1.49936759471893310547e+00) (32, 2.66597270965576171875e+00) (33, -4.18911075592041015625e+00) (34, 1.51173517107963562012e-01) (0, 6.38951778411865234375e-01) (1, 4.13557626307010650635e-02) (2, 1.12186752259731292725e-01) (3, 1.97297975420951843262e-01) (4, -2.36056137084960937500e+00) (5, -7.63643145561218261719e-01) (6, -9.77560818195343017578e-01) (7, 7.81765997409820556641e-01) (8, -5.37566900253295898438e-01) (9, 1.67013788223266601562e+00) (10, 6.07622206211090087891e-01) (11, 2.16936659812927246094e+00) (12, -3.69025659561157226562e+00) (13, 2.55316495895385742188e-01) (14, 1.51273727416992187500e+00) (15, 1.63710534572601318359e+00) (16, 2.18506366014480590820e-01) (17, -3.26252889633178710938e+00) (18, 3.98595601320266723633e-01) (19, 1.58405035734176635742e-01) (20, -1.70615062117576599121e-01) (21, -5.06737470626831054688e+00) (22, -2.46964025497436523438e+00) (23, 9.90017414093017578125e-01) (24, 2.13087701797485351562e+00) (25, 1.00338900089263916016e+00) (26, 1.07623398303985595703e+00) (27, 4.13208007812500000000e+00) (28, 3.44737720489501953125e+00) (29, 1.05355048179626464844e+00) (30, 1.65348064899444580078e+00) (31, 7.89494395256042480469e-01) (32, 4.97285276651382446289e-01) (33, 1.87071189284324645996e-01) (34, 1.46837621927261352539e-01) (0, 2.19528779387474060059e-01) (1, 2.87577748298645019531e-01) (2, -2.23657965660095214844e+00) (3, -1.11057794094085693359e+00) (4, 6.04244291782379150391e-01) (5, 9.17693853378295898438e-01) (6, -1.49577021598815917969e+00) (7, 1.12127089500427246094e+00) (8, -6.04016855359077453613e-02) (9, 2.77136063575744628906e+00) (10, 4.29937899112701416016e-01) (11, -4.88672435283660888672e-01) (12, 8.15737009048461914062e-01) (13, -1.15873292088508605957e-01) (14, 1.25723276138305664062e+01) (15, 2.95514523983001708984e-01) (16, 1.44244992733001708984e+00) (17, 1.56375557184219360352e-01) (18, -1.41876682639122009277e-01) (19, -2.86203175783157348633e-01) (20, 2.26562619209289550781e+00) (21, -6.75940662622451782227e-02) (22, 1.80864948779344558716e-02) (23, 1.65736770629882812500e+00) (24, 1.08104979991912841797e+00) (25, 8.23072612285614013672e-01) (26, -8.81221815943717956543e-02) (27, 1.67818880081176757812e+00) (28, 1.39592170715332031250e-01) (29, 1.63772737979888916016e+00) (30, -4.44591417908668518066e-02) (31, -6.71068620681762695312e+00) (32, 9.48242962360382080078e-01) (33, 1.73626101016998291016e+00) (34, -2.29220223426818847656e+00) (0, -2.56834149360656738281e+00) (1, 5.76147842407226562500e+00) (2, -6.25347852706909179688e-01) (3, 1.50882089138031005859e+00) (4, 3.01292824745178222656e+00) (5, 3.81274819374084472656e+00) (6, -5.31292438507080078125e-01) (7, 1.75646471977233886719e+00) (8, -8.51908028125762939453e-01) (9, 1.04031026363372802734e+00) (10, -9.19775843620300292969e-01) (11, 1.76895117759704589844e+00) (12, 1.16245520114898681641e+00) (13, -9.84389960765838623047e-01) (14, 1.99653375148773193359e+00) (15, -1.48472800850868225098e-01) (16, -5.52997469902038574219e-01) (17, -9.14587527513504028320e-02) (18, 3.46827805042266845703e-01) (19, 5.44921727851033210754e-03) (20, -2.38336957991123199463e-02) (21, -1.69025715440511703491e-02) (22, 1.30045711994171142578e+00) (23, -5.02716398239135742188e+00) (24, -9.30173456668853759766e-01) (25, 1.86005449295043945312e+00) (26, 4.43517827987670898438e+00) (27, 3.43172168731689453125e+00) (28, 5.19874453544616699219e-01) (29, 8.50537538528442382812e-01) (30, -8.28722417354583740234e-01) (31, -7.66940295696258544922e-01) (32, 1.63289916515350341797e+00) (33, 8.95612835884094238281e-01) (34, 4.89280045032501220703e-01) (0, -2.64757895469665527344e+00) (1, -2.51589238643646240234e-01) (2, 1.52819836139678955078e+00) (3, -3.20070594549179077148e-01) (4, -4.04528498649597167969e-01) (5, -4.29662168025970458984e-02) (6, 1.75486993789672851562e+00) (7, -1.38877481222152709961e-01) (8, 1.00315237045288085938e+00) (9, -1.48396420478820800781e+00) (10, -1.84484556317329406738e-01) (11, 2.47383743524551391602e-01) (12, 1.62270498275756835938e+00) (13, 2.76848703622817993164e-01) (14, -1.34890256449580192566e-02) (15, 2.21577301621437072754e-01) (16, 5.86257040500640869141e-01) (17, 1.36456668376922607422e+00) (18, 4.52474236488342285156e-01) (19, -2.21030807495117187500e+00) (20, 2.11175489425659179688e+00) (21, 4.20215398073196411133e-01) (22, 3.03297549486160278320e-01) (23, -7.25233912467956542969e-01) (24, 6.99471294879913330078e-01) (25, -8.23124229907989501953e-01) (26, 1.62018167972564697266e+00) (27, -3.19130808115005493164e-01) (28, 6.80000305175781250000e-01) (29, -2.05495405197143554688e+00) (30, 2.97077685594558715820e-01) (31, 1.78079748153686523438e+00) (32, 7.87031471729278564453e-01) (33, -5.43853104114532470703e-01) (34, -4.22328186035156250000e+00) (0, 3.45972441136837005615e-02) (1, -3.84026110172271728516e-01) (2, -2.27750062942504882812e+00) (3, -7.59011566638946533203e-01) (4, -4.69300079345703125000e+00) (5, -2.83772802352905273438e+00) (6, 4.37211364507675170898e-01) (7, -6.08359098434448242188e-01) (8, -6.30935716629028320312e+00) (9, 1.16276443004608154297e+00) (10, -1.91009962558746337891e+00) (11, -5.87538051605224609375e+00) (12, -1.70765841007232666016e+00) (13, 1.60346105694770812988e-01) (14, -1.12851345539093017578e+00) (15, 9.99567866325378417969e-01) (16, 5.37258923053741455078e-01) (17, -1.19865417480468750000e+00) (18, 3.98967683315277099609e-01) (19, 7.53986597061157226562e-01) (20, -1.84676468372344970703e+00) (21, -5.99319562315940856934e-02) (22, -1.40554308891296386719e+00) (23, 2.24134755134582519531e+00) (24, -1.31944131851196289062e+00) (25, 2.29553961753845214844e+00) (26, -8.17529857158660888672e-02) (27, 1.11775851249694824219e+00) (28, -2.29804992675781250000e-01) (29, -5.11181414127349853516e-01) (30, 5.83480417728424072266e-01) (31, -7.63541460037231445312e-02) (32, 1.07918179035186767578e+00) (33, -1.63349437713623046875e+00) (34, 1.24778293073177337646e-01) (0, 5.09981274604797363281e-01) (1, 8.71330052614212036133e-02) (2, -3.96123737096786499023e-01) (3, -4.24227744340896606445e-01) (4, 1.00917458534240722656e+00) (5, 3.11088055372238159180e-01) (6, 1.71515822410583496094e+00) (7, 5.65368473529815673828e-01) (8, -2.11475634574890136719e+00) (9, -6.09127879142761230469e-02) (10, -8.12785148620605468750e-01) (11, 1.98741865158081054688e+00) (12, 2.32981681823730468750e+00) (13, 1.98895907402038574219e+00) (14, 1.80762410163879394531e+00) (15, -2.14209705591201782227e-01) (16, -1.78506302833557128906e+00) (17, -1.10602285712957382202e-02) (18, 2.44674324989318847656e+00) (19, 1.01700234413146972656e+00) (20, 6.18131339550018310547e-01) (21, -7.33648419380187988281e-01) (22, 3.15533488988876342773e-01) (23, 2.41760110855102539062e+00) (24, -7.46274113655090332031e-01) (25, -2.05548644065856933594e-01) (26, 2.79114305973052978516e-01) (27, -4.41375017166137695312e-01) (28, -1.13329485058784484863e-01) (29, -8.62412452697753906250e-02) (30, 8.88835310935974121094e-01) (31, -5.22202372550964355469e-01) (32, 3.59236860275268554688e+00) (33, 6.38956427574157714844e-01) (34, -2.40226769447326660156e+00) (0, 1.22835910320281982422e+00) (1, -1.92571431398391723633e-01) (2, -3.12714517116546630859e-01) (3, 1.01457631587982177734e+00) (4, 3.53927165269851684570e-01) (5, 6.30517527461051940918e-02) (6, -4.64181995391845703125e+00) (7, 5.50067901611328125000e-01) (8, 2.75282430648803710938e+00) (9, -9.50878262519836425781e-02) (10, 2.25624847412109375000e+00) (11, 3.31524562835693359375e+00) (12, 2.65506505966186523438e+00) (13, 1.16869556903839111328e+00) (14, 3.26388931274414062500e+00) (15, 1.48757302761077880859e+00) (16, 1.21758389472961425781e+00) (17, 5.12983441352844238281e-01) (18, 1.40604093670845031738e-01) (19, -1.03855299949645996094e+00) (20, 2.21427893638610839844e+00) (21, 1.37153193354606628418e-01) (22, 1.02485382556915283203e+00) (23, 1.60278415679931640625e+00) (24, 1.67254292964935302734e+00) (25, 3.82047474384307861328e-01) (26, 3.49691361188888549805e-01) (27, 2.42437982559204101562e+00) (28, 5.04007756710052490234e-01) (29, -6.04689061641693115234e-01) (30, -8.34920704364776611328e-01) (31, 1.32410573959350585938e+00) (32, 2.14178037643432617188e+00) (33, 1.17740881443023681641e+00) (34, -4.39396232366561889648e-01) (0, 7.46565222740173339844e-01) (1, -8.25599908828735351562e-01) (2, 5.71552753448486328125e-01) (3, 8.60258162021636962891e-01) (4, -1.72013696283102035522e-02) (5, -5.15507608652114868164e-02) (6, -1.49590408802032470703e+00) (7, -2.41635084152221679688e+00) (8, 1.41842877864837646484e+00) (9, 1.42373573780059814453e+00) (10, -2.13508248329162597656e-01) (11, 2.48519110679626464844e+00) (12, 1.20148050785064697266e+00) (13, 5.53807067871093750000e+00) (14, 7.45185995101928710938e+00) (15, 1.38033580780029296875e+00) (16, 1.07614541053771972656e+00) (17, 7.85201132297515869141e-01) (18, 4.74281072616577148438e+00) (19, -1.86162757873535156250e+00) (20, 8.57452571392059326172e-01) (21, 7.91870951652526855469e-01) (22, 1.95516631007194519043e-01) (23, 2.59565651416778564453e-01) (24, -2.59068608283996582031e-01) (25, 6.40563070774078369141e-02) (26, 5.20081996917724609375e-01) (27, -4.33038063347339630127e-02) (28, 2.92822629213333129883e-01) (29, 1.23957228660583496094e+00) (30, -3.91590863466262817383e-01) (31, -5.76651934534311294556e-03) (32, 3.34438943862915039062e+00) (33, 3.86788874864578247070e-01) (34, -2.77779173851013183594e+00) (0, 7.18805432319641113281e-01) (1, -8.24420988559722900391e-01) (2, 2.01100215315818786621e-01) (3, 3.18827056884765625000e+00) (4, 4.73172485828399658203e-01) (5, 6.01149797439575195312e-01) (6, 1.32928395271301269531e+00) (7, 1.49211394786834716797e+00) (8, -1.62715923786163330078e+00) (9, 2.25147581100463867188e+00) (10, 2.10038042068481445312e+00) (11, 1.99144613742828369141e+00) (12, 2.36509346961975097656e+00) (13, -8.78871902823448181152e-02) (14, 4.79109823703765869141e-01) (15, 7.56957888603210449219e-01) (16, 1.17807710170745849609e+00) (17, 2.26630687713623046875e-01) (18, 1.47563016414642333984e+00) (19, -5.55589079856872558594e-01) (20, -2.70857930183410644531e+00) (21, 6.10298573970794677734e-01) (22, -2.42935872077941894531e+00) (23, -3.18902611732482910156e+00) (24, -5.46847879886627197266e-01) (25, 3.21535915136337280273e-01) (26, -4.84058886766433715820e-01) (27, 1.77340900897979736328e+00) (28, 1.38071191310882568359e+00) (29, 1.20209240913391113281e+00) (30, 5.70574402809143066406e-01) (31, 1.87668561935424804688e+00) (32, 1.22764706611633300781e+00) (33, 1.84587538242340087891e+00) (34, -1.57332766056060791016e+00) (0, 1.70589363574981689453e+00) (1, 2.83347278833389282227e-01) (2, 5.52842676639556884766e-01) (3, 2.00689807534217834473e-01) (4, 3.67005556821823120117e-01) (5, -5.53685128688812255859e-01) (6, 2.17738032341003417969e+00) (7, 1.54214107990264892578e+00) (8, -4.69625186920166015625e+00) (9, -7.04977437853813171387e-02) (10, -4.04634565114974975586e-01) (11, -3.50061249732971191406e+00) (12, -9.84080612659454345703e-01) (13, 1.06060042977333068848e-01) (14, 7.56917047500610351562e+00) (15, 1.32397696375846862793e-01) (16, 9.81283485889434814453e-01) (17, -1.55062544345855712891e+00) (18, 3.87855172157287597656e+00) (19, -6.21713995933532714844e-01) (20, 4.40898030996322631836e-01) (21, 8.53456780314445495605e-02) (22, 7.70857214927673339844e-01) (23, 1.11020398139953613281e+00) (24, 8.13440456986427307129e-02) (25, 5.17209470272064208984e-01) (26, 1.83902359008789062500e+00) (27, 1.90530681610107421875e+00) (28, -6.02181069552898406982e-03) (29, 7.51573860645294189453e-01) (30, 8.41569826006889343262e-02) (31, 6.00472033023834228516e-01) (32, 5.72407901287078857422e-01) (33, 3.21750521659851074219e+00) (34, -3.81677484512329101562e+00) (0, 1.55087316036224365234e+00) (1, -1.74501645565032958984e+00) (2, 2.63129854202270507812e+00) (3, 1.21881425380706787109e+00) (4, -1.91998153924942016602e-01) (5, 1.02941393852233886719e-01) (6, 1.72165110707283020020e-01) (7, 1.38294887542724609375e+00) (8, -1.30005753040313720703e+00) (9, 4.45875478908419609070e-03) (10, 2.29780578613281250000e+00) (11, 4.33343410491943359375e+00) (12, 7.05429136753082275391e-01) (13, -3.30926001071929931641e-01) (14, 2.72485589981079101562e+00) (15, 1.06738090515136718750e+00) (16, 9.18456390500068664551e-02) (17, 6.01365923881530761719e-01) (18, -7.44956970214843750000e-01) (19, 1.89780485630035400391e+00) (20, 1.82241842150688171387e-01) (21, 2.38867267966270446777e-01) (22, -6.75416171550750732422e-01) (23, 3.24821211397647857666e-02) (24, 4.85327720642089843750e-01) (25, 3.47784668207168579102e-01) (26, -2.55227088928222656250e-01) (27, 7.12445318698883056641e-01) (28, 7.73109793663024902344e-01) (29, -2.06594038754701614380e-02) (30, 4.87728983163833618164e-01) (31, 1.47684836387634277344e+00) (32, 4.08222436904907226562e+00) (33, 3.93860638141632080078e-01) (34, -2.83397150039672851562e+00) (0, -1.42798172309994697571e-02) (1, 2.58014291524887084961e-01) (2, 1.26441621780395507812e+00) (3, -1.61396875977516174316e-01) (4, 2.67692732810974121094e+00) (5, -1.33517965674400329590e-01) (6, -6.39677226543426513672e-01) (7, -5.41218042373657226562e-01) (8, 2.40672379732131958008e-01) (9, -5.63463151454925537109e-01) (10, -4.76304858922958374023e-01) (11, 1.62330532073974609375e+00) (12, 9.59848642349243164062e-01) (13, 9.83299434185028076172e-01) (14, -2.11055036634206771851e-02) (15, -9.05274376273155212402e-02) (16, -1.83381780982017517090e-01) (17, -1.19845819473266601562e+00) (18, 2.40767455101013183594e+00) (19, 2.95442914962768554688e+00) (20, -1.09534561634063720703e-01) (21, 1.08974373340606689453e+00) (22, -1.70566499233245849609e-01) (23, 3.04775238037109375000e-01) (24, -2.36086621880531311035e-02) (25, -9.55803990364074707031e-02) (26, 2.70470649003982543945e-01) (27, -1.32291212677955627441e-01) (28, -9.05166089534759521484e-01) (29, 9.98422682285308837891e-01) (30, 9.07922536134719848633e-02) (31, 4.07136261463165283203e-01) (32, 7.11690932512283325195e-02) (33, -3.39454680681228637695e-01) (34, -3.76031446456909179688e+00) (0, -5.96348714828491210938e+00) (1, 3.15238595008850097656e-01) (2, 3.10515022277832031250e+00) (3, -3.77824157476425170898e-01) (4, 1.20741382241249084473e-01) (5, -1.25494611263275146484e+00) (6, -8.94598364830017089844e-01) (7, -1.24850839376449584961e-01) (8, 1.55531322956085205078e+00) (9, -1.16271746158599853516e+00) (10, -4.21683132648468017578e-01) (11, -1.31057775020599365234e+00) (12, -4.45681035518646240234e-01) (13, 2.42944717407226562500e+00) (14, -2.28780174255371093750e+00) (15, -6.39744475483894348145e-02) (16, 3.70169073343276977539e-01) (17, 9.24957633018493652344e-01) (18, 1.11863449215888977051e-01) (19, -1.09025299549102783203e+00) (20, -6.28618657588958740234e-01) (21, -3.54832231998443603516e-01) (22, 2.77876909822225570679e-02) (23, -9.56182837486267089844e-01) (24, 3.98703850805759429932e-02) (25, -2.07360833883285522461e-01) (26, -3.97485435009002685547e-01) (27, 6.79107427597045898438e-01) (28, 2.56571912765502929688e+00) (29, 3.90259683132171630859e-01) (30, 1.63128685951232910156e+00) (31, -2.96371245384216308594e+00) (32, 1.83237016201019287109e-01) (33, 7.85832703113555908203e-02) (34, 7.30346143245697021484e-01) (0, 9.27611470222473144531e-01) (1, 3.66333574056625366211e-01) (2, -7.28246569633483886719e-01) (3, -6.86655240133404731750e-03) (4, -1.25573658943176269531e+00) (5, -1.51522421836853027344e+00) (6, 9.15748357772827148438e-01) (7, -4.58798334002494812012e-02) (8, 6.17651343345642089844e-01) (9, -4.87519711256027221680e-01) (10, -2.37157996743917465210e-02) (11, -1.08408480882644653320e-01) (12, -2.32165917754173278809e-01) (13, 8.38934898376464843750e-01) (14, 3.36081683635711669922e-01) (15, -8.91152489930391311646e-03) (16, -2.88909822702407836914e-01) (17, 1.47517994046211242676e-01) (18, -1.77860546112060546875e+00) (19, -1.69000159949064254761e-02) (20, 3.29962539672851562500e+00) (21, 1.20725169777870178223e-01) (22, -9.15693268179893493652e-02) (23, 3.92414391040802001953e-01) (24, -2.06156778335571289062e+00) (25, -6.14574909210205078125e-01) (26, -2.10421419143676757812e+00) (27, -4.84075427055358886719e-01) (28, 8.17145824432373046875e-01) (29, 1.14764678478240966797e+00) (30, -2.05530628561973571777e-01) (31, 7.45225727558135986328e-01) (32, -1.02228388190269470215e-01) (33, 6.75311982631683349609e-01) (34, -3.30934190750122070312e+00) (0, 7.30066537857055664062e-01) (1, -1.82539117336273193359e+00) (2, -7.25537121295928955078e-01) (3, -7.80925154685974121094e-01) (4, 6.12982153892517089844e-01) (5, 9.94803234934806823730e-02) (6, 3.48391026258468627930e-01) (7, 6.05970025062561035156e-01) (8, -1.40774178504943847656e+00) (9, 1.74627900123596191406e-01) (10, -1.48007214069366455078e+00) (11, 3.63603615760803222656e+00) (12, -1.41588044166564941406e+00) (13, 1.04012393951416015625e+00) (14, 4.05350118875503540039e-01) (15, 5.19375944137573242188e+00) (16, 1.39411866664886474609e+00) (17, 4.32965087890625000000e+00) (18, 9.21634733676910400391e-01) (19, -2.31174039840698242188e+00) (20, 4.52623510360717773438e+00) (21, 1.75114667415618896484e+00) (22, 1.04382467269897460938e+00) (23, 5.45415699481964111328e-01) (24, -9.90565538406372070312e-01) (25, 1.30484569072723388672e+00) (26, 1.68362677097320556641e+00) (27, 1.77561283111572265625e-01) (28, 1.03766393661499023438e+00) (29, 7.47015595436096191406e-01) (30, 2.89398002624511718750e+00) (31, 1.31235826015472412109e+00) (32, 1.53937208652496337891e+00) (33, 2.05198574066162109375e+00) (34, 2.94170379638671875000e-01) (0, 4.07045572996139526367e-01) (1, -1.30765333771705627441e-01) (2, 1.09935879707336425781e+00) (3, -4.28489625453948974609e-01) (4, -3.15056115388870239258e-01) (5, -4.53147321939468383789e-01) (6, 1.31307029724121093750e+00) (7, -5.74470758438110351562e-01) (8, 4.21818435192108154297e-01) (9, -1.48065209388732910156e-01) (10, -1.18582952022552490234e+00) (11, 1.23388648033142089844e+00) (12, 4.50418233871459960938e-01) (13, -1.45714938640594482422e+00) (14, 2.41149806976318359375e+00) (15, 7.94276118278503417969e-01) (16, 3.26799899339675903320e-01) (17, 2.39541292190551757812e-01) (18, -8.31643164157867431641e-01) (19, -1.21246755123138427734e+00) (20, 6.20551526546478271484e-01) (21, -2.16678810119628906250e+00) (22, -1.71090573072433471680e-01) (23, 4.23379600048065185547e-01) (24, -1.73946678638458251953e+00) (25, 1.69014468789100646973e-01) (26, -1.48259457200765609741e-02) (27, -4.53242152929306030273e-01) (28, 7.25271582603454589844e-01) (29, -4.80537801980972290039e-01) (30, 2.52151697874069213867e-01) (31, 1.25730085372924804688e+00) (32, 6.92053854465484619141e-01) (33, -7.80915915966033935547e-02) (34, -8.62786197662353515625e+00) (0, 9.25977885723114013672e-01) (1, 1.03485593572258949280e-02) (2, -6.03802323341369628906e-01) (3, -1.76360344886779785156e+00) (4, -3.87258172035217285156e+00) (5, 4.03929620981216430664e-01) (6, 2.14670681953430175781e+00) (7, -1.82449907064437866211e-01) (8, 1.43906211853027343750e+00) (9, 1.14084267616271972656e+00) (10, -1.95913338661193847656e+00) (11, -2.66410112380981445312e+00) (12, -1.45221281051635742188e+00) (13, 8.99100065231323242188e-01) (14, 1.05436456203460693359e+00) (15, 1.33404695987701416016e+00) (16, 5.42545080184936523438e-01) (17, 2.30167317390441894531e+00) (18, 4.84506577253341674805e-01) (19, -2.09688711166381835938e+00) (20, 1.79869461059570312500e+00) (21, -6.36941075325012207031e-01) (22, 2.30605483055114746094e-01) (23, -2.05366373062133789062e+00) (24, 7.75345623493194580078e-01) (25, 3.40088963508605957031e-01) (26, 1.71772524714469909668e-01) (27, 3.50492095947265625000e+00) (28, 7.08234369754791259766e-01) (29, -2.80668663978576660156e+00) (30, 1.51922833919525146484e+00) (31, 1.78847098350524902344e+00) (32, 4.87251877784729003906e-01) (33, 3.84772330522537231445e-01) (34, -1.76079243421554565430e-01) (0, -4.27597433328628540039e-01) (1, 1.32217979431152343750e+00) (2, 4.82049174606800079346e-02) (3, 3.07398408651351928711e-01) (4, 1.59494206309318542480e-01) (5, 1.22429060935974121094e+00) (6, 8.95058095455169677734e-01) (7, -9.57122027873992919922e-01) (8, -5.69048929214477539062e+00) (9, 2.39476037025451660156e+00) (10, 1.99240124225616455078e+00) (11, 2.03525686264038085938e+00) (12, -2.41729199886322021484e-01) (13, 2.00642442703247070312e+00) (14, 3.41913604736328125000e+00) (15, -3.27096849679946899414e-01) (16, -1.34507110342383384705e-02) (17, 6.73350334167480468750e-01) (18, 1.97321546077728271484e+00) (19, -1.46686598658561706543e-01) (20, 7.60304406285285949707e-02) (21, 1.47525727748870849609e+00) (22, 1.44694948196411132812e+00) (23, -4.98912870883941650391e-01) (24, -1.99001264572143554688e+00) (25, 1.62781584262847900391e+00) (26, -4.34046834707260131836e-01) (27, -6.52557134628295898438e-01) (28, -1.99284219741821289062e+00) (29, -5.35132408142089843750e-01) (30, 2.65732049942016601562e+00) (31, 1.13328003883361816406e+00) (32, 1.00440323352813720703e+00) (33, 8.85433629155158996582e-02) (34, -2.39006853103637695312e+00) (0, -9.63530123233795166016e-01) (1, -7.04394951462745666504e-02) (2, 3.09437453746795654297e-01) (3, 1.16383135318756103516e+00) (4, 4.62129950523376464844e-01) (5, 2.37688708305358886719e+00) (6, 2.21692347526550292969e+00) (7, -4.25549864768981933594e-01) (8, 1.80781733989715576172e+00) (9, 8.08819770812988281250e-01) (10, -2.13396716117858886719e+00) (11, 1.51373529434204101562e+00) (12, 5.71115434169769287109e-01) (13, 4.09114599227905273438e-01) (14, 2.27176332473754882812e+00) (15, 1.70211896300315856934e-01) (16, 7.02475488185882568359e-01) (17, 6.24442100524902343750e-01) (18, 9.38155174255371093750e+00) (19, -3.09939384460449218750e-01) (20, 3.15293765068054199219e+00) (21, 2.29064774513244628906e+00) (22, -3.06256198883056640625e+00) (23, 1.41941472887992858887e-01) (24, 4.49380445480346679688e+00) (25, -1.79321205615997314453e+00) (26, -1.28227424621582031250e+00) (27, 9.39946651458740234375e-01) (28, 1.18091142177581787109e+00) (29, -1.27481901645660400391e+00) (30, 1.89391887187957763672e+00) (31, -1.70158195495605468750e+00) (32, 1.14199697971343994141e+00) (33, 9.18326452374458312988e-02) (34, -1.19623255729675292969e+00) (0, -6.98132276535034179688e-01) (1, -9.93904829025268554688e-01) (2, -2.25213974714279174805e-01) (3, -1.91568389534950256348e-01) (4, -2.52072308212518692017e-02) (5, 4.98338997364044189453e-01) (6, -1.11456073820590972900e-01) (7, -3.50088596343994140625e-01) (8, 2.94595932960510253906e+00) (9, -4.08192753791809082031e-01) (10, 3.44186663627624511719e-01) (11, 1.38908196240663528442e-02) (12, -8.10111284255981445312e-01) (13, 1.49191629886627197266e+00) (14, -1.57657945156097412109e+00) (15, 7.05016136169433593750e-01) (16, 1.53322255611419677734e+00) (17, -4.48279172182083129883e-01) (18, -3.78437972068786621094e+00) (19, -1.16921257972717285156e+00) (20, -2.90229535102844238281e+00) (21, 3.49389135837554931641e-01) (22, 2.42176222801208496094e+00) (23, 4.63819056749343872070e-01) (24, 1.30230689048767089844e+00) (25, 6.36374950408935546875e-01) (26, -1.81685888767242431641e+00) (27, 9.83340799808502197266e-01) (28, 1.20214414596557617188e+00) (29, 1.00904929637908935547e+00) (30, 6.32260978221893310547e-01) (31, -8.16380977630615234375e-03) (32, 5.62004327774047851562e-01) (33, 7.43686854839324951172e-01) (34, -1.74602711200714111328e+00) (0, 3.52420377731323242188e+00) (1, -1.09320497512817382812e+00) (2, -7.39603191614151000977e-02) (3, 1.25315129756927490234e+00) (4, 4.58811700344085693359e-01) (5, 1.50764596462249755859e+00) (6, -1.23090207576751708984e+00) (7, -2.27822160720825195312e+00) (8, 2.28410339355468750000e+00) (9, 1.15863692760467529297e+00) (10, 4.49516487121582031250e+00) (11, 1.71433389186859130859e+00) (12, 3.13181209564208984375e+00) (13, 1.26470792293548583984e+00) (14, 2.21216082572937011719e+00) (15, 3.04950475692749023438e+00) (16, 8.80798220634460449219e-01) (17, -1.19389462471008300781e+00) (18, 1.02966463565826416016e+00) (19, 1.35947036743164062500e+00) (20, 1.92816376686096191406e+00) (21, 1.32326471805572509766e+00) (22, 5.24769115447998046875e+00) (23, -2.20899081230163574219e+00) (24, 2.66247296333312988281e+00) (25, 5.65624654293060302734e-01) (26, 1.17186951637268066406e+00) (27, -6.39843285083770751953e-01) (28, 1.87393772602081298828e+00) (29, 2.07560586929321289062e+00) (30, -1.74557104706764221191e-01) (31, -2.47449055314064025879e-01) (32, -4.30147528648376464844e-01) (33, 7.67461478710174560547e-01) (34, 1.99575945734977722168e-01) (0, 1.06098377704620361328e+00) (1, 6.12031340599060058594e-01) (2, 1.96506345272064208984e+00) (3, 4.53622579574584960938e-01) (4, 1.35170054435729980469e+00) (5, 6.26685798168182373047e-01) (6, 5.65239489078521728516e-01) (7, 9.71465349197387695312e-01) (8, -6.38204455375671386719e-01) (9, -5.79717814922332763672e-01) (10, 1.25098431110382080078e+00) (11, 6.43635869026184082031e-01) (12, 1.70819246768951416016e+00) (13, 1.42515671253204345703e+00) (14, 2.28627967834472656250e+00) (15, 8.28233957290649414062e-01) (16, -8.69436025619506835938e-01) (17, -2.78748846054077148438e+00) (18, -7.90835440158843994141e-01) (19, 2.27506175637245178223e-01) (20, -6.28487408161163330078e-01) (21, 1.38458326458930969238e-01) (22, -7.79873192310333251953e-01) (23, 9.52191829681396484375e-01) (24, -1.26900926232337951660e-01) (25, 1.00076067447662353516e+00) (26, -3.36429812014102935791e-02) (27, 8.91971766948699951172e-01) (28, -7.08837568759918212891e-01) (29, 9.80381786823272705078e-01) (30, -4.87992525100708007812e-01) (31, 4.75995922088623046875e+00) (32, 3.58720445632934570312e+00) (33, -7.28544294834136962891e-01) (34, -3.07981538772583007812e+00) (0, 2.07903608679771423340e-02) (1, 5.82826197147369384766e-01) (2, -5.14281928539276123047e-01) (3, 8.02913084626197814941e-02) (4, 4.07133960723876953125e+00) (5, 1.84671020507812500000e+00) (6, 3.20273184776306152344e+00) (7, 7.69087791442871093750e-01) (8, 2.12421536445617675781e+00) (9, 3.42475819587707519531e+00) (10, 9.61576652526855468750e+00) (11, 2.31706285476684570312e+00) (12, 2.68652439117431640625e-02) (13, -7.62488067150115966797e-01) (14, -7.61939585208892822266e-01) (15, 3.33253949880599975586e-01) (16, 2.34815418720245361328e-01) (17, 2.18603491783142089844e+00) (18, 1.06714832782745361328e+00) (19, 1.21126616001129150391e+00) (20, 6.28336131572723388672e-01) (21, 6.67166233062744140625e-01) (22, -6.89476907253265380859e-01) (23, -4.33293655514717102051e-02) (24, 1.79165208339691162109e+00) (25, 1.88751801848411560059e-01) (26, 9.75919723510742187500e-01) (27, 2.75399708747863769531e+00) (28, 3.25846448540687561035e-02) (29, -1.40720891952514648438e+00) (30, -7.31386184692382812500e-01) (31, 8.66979777812957763672e-01) (32, -1.44667372107505798340e-01) (33, 9.94240399450063705444e-03) (34, -2.45463147759437561035e-01) (0, -2.49580308794975280762e-01) (1, -5.68101465702056884766e-01) (2, -1.46157383918762207031e-01) (3, -1.11313827335834503174e-01) (4, 3.23679804801940917969e-01) (5, 3.17454767227172851562e+00) (6, 3.28765344619750976562e+00) (7, 4.22601413726806640625e+00) (8, -2.53440356254577636719e+00) (9, 1.11911523342132568359e+00) (10, -2.72587060928344726562e+00) (11, 1.42807304859161376953e+00) (12, -1.78417420387268066406e+00) (13, -1.40787863731384277344e+00) (14, 6.26902246475219726562e+00) (15, 5.71942269802093505859e-01) (16, -1.02322626113891601562e+00) (17, -3.23198032379150390625e+00) (18, 3.44861328601837158203e-01) (19, 2.52583324909210205078e-01) (20, 1.07122576236724853516e+00) (21, 1.84188795089721679688e+00) (22, 6.87543869018554687500e-01) (23, -6.05687722563743591309e-02) (24, -1.24719500541687011719e+00) (25, 5.83047866821289062500e+00) (26, 1.00547862052917480469e+00) (27, 8.85197162628173828125e+00) (28, 3.17119359970092773438e+00) (29, 6.43135261535644531250e+00) (30, -1.00514197349548339844e+00) (31, 3.26887726783752441406e+00) (32, 7.16669976711273193359e-01) (33, 3.31001567840576171875e+00) (34, 1.36264479160308837891e+00) (0, 2.40140438079833984375e-01) (1, -3.64819556474685668945e-01) (2, 1.06716549396514892578e+00) (3, -1.13043177127838134766e+00) (4, 1.58868348598480224609e+00) (5, 1.53571879863739013672e+00) (6, -3.27563256025314331055e-01) (7, 6.30634975433349609375e+00) (8, -1.98368930816650390625e+00) (9, 3.24072647094726562500e+00) (10, -1.76738965511322021484e+00) (11, -6.40676856040954589844e-01) (12, -2.63447022438049316406e+00) (13, 3.65880668163299560547e-01) (14, 6.42091512680053710938e+00) (15, 8.04684162139892578125e-01) (16, 8.41750383377075195312e-01) (17, -3.08942552655935287476e-02) (18, 3.29586553573608398438e+00) (19, 7.43094742298126220703e-01) (20, 1.69955715537071228027e-01) (21, 4.67481756210327148438e+00) (22, 1.13946259021759033203e+00) (23, 1.00557732582092285156e+00) (24, 1.69413700699806213379e-01) (25, 1.76513874530792236328e+00) (26, -6.49012684822082519531e-01) (27, 1.07081866264343261719e+00) (28, 5.55106759071350097656e-01) (29, 4.08512783050537109375e+00) (30, 1.32021450996398925781e+00) (31, 1.25355172157287597656e+00) (32, 9.03248608112335205078e-01) (33, 1.55309069156646728516e+00) (34, -2.77175712585449218750e+00) (0, -2.20080947875976562500e+00) (1, 8.67441773414611816406e-01) (2, 1.25636804103851318359e+00) (3, 5.75884389877319335938e+00) (4, 3.47513413429260253906e+00) (5, 2.63087123632431030273e-01) (6, -2.11501494050025939941e-01) (7, 3.17066133022308349609e-01) (8, 5.26584863662719726562e-01) (9, 2.01432132720947265625e+00) (10, 1.85794377326965332031e+00) (11, -2.47702646255493164062e+00) (12, -2.34598302841186523438e+00) (13, -2.37283900380134582520e-01) (14, -6.29503667354583740234e-01) (15, 2.28770479559898376465e-01) (16, 2.64460831880569458008e-01) (17, 1.07761659622192382812e+01) (18, 8.25295829772949218750e+00) (19, 3.01598739624023437500e+00) (20, -4.94841068983078002930e-01) (21, 2.66558098793029785156e+00) (22, 3.78309071063995361328e-01) (23, -4.84869122505187988281e-01) (24, -5.54004144668579101562e+00) (25, 1.54356372356414794922e+00) (26, 7.05296039581298828125e-01) (27, 4.12889385223388671875e+00) (28, 1.91703593730926513672e+00) (29, 2.41176426410675048828e-01) (30, 9.73030507564544677734e-01) (31, 2.23077106475830078125e+00) (32, 1.90378534793853759766e+00) (33, 1.68429625034332275391e+00) (34, -1.85725831985473632812e+00) (0, -1.19433343410491943359e+00) (1, 2.62750118970870971680e-01) (2, 2.82379221916198730469e+00) (3, -3.05034697055816650391e-01) (4, 7.57128000259399414062e-02) (5, -1.47215676307678222656e+00) (6, 9.58139955997467041016e-01) (7, -5.51356017589569091797e-01) (8, 2.99303084611892700195e-02) (9, -1.10417795181274414062e+00) (10, -1.03804886341094970703e+00) (11, -5.54313480854034423828e-01) (12, -2.13932061195373535156e+00) (13, -2.64664483070373535156e+00) (14, 8.09720680117607116699e-02) (15, 9.79382693767547607422e-01) (16, 1.46379515528678894043e-01) (17, 1.65766036510467529297e+00) (18, 1.48810231685638427734e+00) (19, 1.67370080947875976562e+00) (20, 1.01826751232147216797e+00) (21, 4.56341981887817382812e+00) (22, -3.81919592618942260742e-01) (23, -2.65960764884948730469e+00) (24, -3.58015634119510650635e-02) (25, -2.22081884741783142090e-01) (26, 6.68635606765747070312e-01) (27, 1.72185444831848144531e+00) (28, 5.88285684585571289062e-01) (29, 1.85753971338272094727e-01) (30, 1.92750835418701171875e+01) (31, -1.00265097618103027344e+00) (32, -3.42345565557479858398e-01) (33, 5.01087248325347900391e-01) (34, 2.79136121273040771484e-01) (0, 1.89619362354278564453e+00) (1, -4.22644823789596557617e-01) (2, 3.64341759681701660156e+00) (3, 6.74571037292480468750e-01) (4, 1.01646494865417480469e+00) (5, 1.61091044545173645020e-01) (6, -2.14440822601318359375e-01) (7, 1.31587719917297363281e+00) (8, -3.20840001106262207031e-01) (9, 1.42656612396240234375e+00) (10, 1.14896392822265625000e+00) (11, 5.04988253116607666016e-01) (12, 1.38703536987304687500e+00) (13, -4.24194596707820892334e-02) (14, 8.99472892284393310547e-01) (15, 1.89459979534149169922e+00) (16, 1.00046706199645996094e+00) (17, 6.76968455314636230469e-01) (18, -2.82789438962936401367e-01) (19, 6.14854335784912109375e-01) (20, -6.60496056079864501953e-01) (21, 2.06228780746459960938e+00) (22, 2.96647883951663970947e-02) (23, -1.23674178123474121094e+00) (24, -1.86048877239227294922e+00) (25, -9.72883582115173339844e-01) (26, 7.71897733211517333984e-01) (27, -2.38321638107299804688e+00) (28, 1.76836633682250976562e+00) (29, -5.62875390052795410156e-01) (30, 1.29913973808288574219e+00) (31, 3.46090173721313476562e+00) (32, 1.41457056999206542969e+00) (33, 3.94256234169006347656e+00) (34, -2.10203099250793457031e+00) (0, 1.02176308631896972656e+00) (1, -1.38244497776031494141e+00) (2, 1.57307064533233642578e+00) (3, 3.82046580314636230469e+00) (4, 2.08424866199493408203e-01) (5, 4.54347848892211914062e-01) (6, 1.23134009540081024170e-01) (7, -2.95312255620956420898e-02) (8, -3.35167706012725830078e-01) (9, 9.01289284229278564453e-01) (10, 8.67622852325439453125e-01) (11, 5.65805017948150634766e-01) (12, 4.14854383468627929688e+00) (13, 9.44399535655975341797e-01) (14, 4.18399572372436523438e+00) (15, 1.94828450679779052734e+00) (16, -3.24935644865036010742e-01) (17, 5.51153600215911865234e-01) (18, -8.91988515853881835938e-01) (19, -5.78930020332336425781e-01) (20, 1.07277607917785644531e+00) (21, 4.93735641241073608398e-01) (22, -3.71671557426452636719e-01) (23, 2.21971511840820312500e+00) (24, 2.01513409614562988281e+00) (25, 1.32525572553277015686e-02) (26, 1.90369868278503417969e+00) (27, -5.17555141448974609375e+00) (28, -2.95024752616882324219e-01) (29, 4.30390775203704833984e-01) (30, 6.01531341671943664551e-02) (31, 4.25615310668945312500e+00) (32, 4.13172483444213867188e+00) (33, -5.07141947746276855469e-02) (34, -5.02670764923095703125e+00) (0, -1.00284862518310546875e+00) (1, 1.20022606849670410156e+00) (2, 7.21934366226196289062e+00) (3, 2.73166418075561523438e-01) (4, 1.36676564812660217285e-01) (5, -1.15793377161026000977e-01) (6, 1.83989441394805908203e+00) (7, 1.57966703176498413086e-01) (8, -1.10693979263305664062e+00) (9, -2.04254460334777832031e+00) (10, -2.23583722114562988281e+00) (11, -2.03476548194885253906e+00) (12, 1.40675866603851318359e+00) (13, 1.79383671283721923828e+00) (14, 1.65476036071777343750e+00) (15, -7.86826729774475097656e-01) (16, -1.32541096210479736328e+00) (17, -1.16109125316143035889e-01) (18, 4.95967984199523925781e-01) (19, -4.67795324325561523438e+00) (20, -1.35348379611968994141e+00) (21, 3.96947836875915527344e+00) (22, 4.53239411115646362305e-01) (23, 1.71927034854888916016e-01) (24, 4.24696773290634155273e-01) (25, 1.97039082646369934082e-01) (26, 1.53910219669342041016e-01) (27, -3.43721359968185424805e-01) (28, 2.76264166831970214844e+00) (29, 7.20524489879608154297e-02) (30, 7.89886415004730224609e-01) (31, 1.76476642489433288574e-01) (32, 1.43820297718048095703e+00) (33, -1.32892295718193054199e-01) (34, -6.40842533111572265625e+00) (0, 1.03484296798706054688e+00) (1, 1.06973335146903991699e-01) (2, 2.62745499610900878906e+00) (3, -4.07967537641525268555e-01) (4, 6.79245948791503906250e-01) (5, 2.20309644937515258789e-01) (6, 6.85919761657714843750e-01) (7, 8.77305448055267333984e-01) (8, -1.02517366409301757812e+00) (9, 1.16296935081481933594e+00) (10, 1.83249378204345703125e+00) (11, -2.35484659671783447266e-01) (12, 3.52341413497924804688e-01) (13, 2.46569371223449707031e+00) (14, 2.99295067787170410156e+00) (15, 1.70927196741104125977e-01) (16, 1.20008051395416259766e+00) (17, 1.44128143787384033203e+00) (18, -8.20890128612518310547e-01) (19, -6.19137324392795562744e-02) (20, -1.16245388984680175781e+00) (21, -9.25689702853560447693e-04) (22, -4.14319097995758056641e-01) (23, 8.85912239551544189453e-01) (24, 4.72941994667053222656e-01) (25, 1.72024798393249511719e+00) (26, -7.81926885247230529785e-02) (27, -7.06387042999267578125e-01) (28, 1.53806313872337341309e-01) (29, 4.57769185304641723633e-01) (30, 3.25745910406112670898e-01) (31, -9.21143293380737304688e-01) (32, 1.05040860176086425781e+00) (33, -1.08814634382724761963e-01) (34, -5.31304836273193359375e+00) (0, 5.71688294410705566406e-01) (1, -3.03559869527816772461e-01) (2, -1.21858634054660797119e-01) (3, 7.46542096138000488281e-01) (4, 2.23851060867309570312e+00) (5, 8.15377414226531982422e-01) (6, 2.64463067054748535156e-01) (7, -3.96924734115600585938e-01) (8, 4.66220885515213012695e-01) (9, 3.07742841541767120361e-02) (10, -6.12863302230834960938e-01) (11, -6.25756204128265380859e-01) (12, 2.26543593406677246094e+00) (13, 7.24384188652038574219e-01) (14, -3.21453988552093505859e-01) (15, 1.10234208405017852783e-01) (16, 5.26183187961578369141e-01) (17, 5.90003430843353271484e-01) (18, -1.06370842456817626953e+00) (19, -1.38054907321929931641e+00) (20, -1.20466065406799316406e+00) (21, -8.92827153205871582031e-01) (22, -9.98580396175384521484e-01) (23, 1.57754147052764892578e+00) (24, 1.42202365398406982422e+00) (25, 1.63718223571777343750e+00) (26, 9.49544161558151245117e-02) (27, -6.73337221145629882812e-01) (28, 3.64754766225814819336e-01) (29, 5.34530639648437500000e+00) (30, 9.62462484836578369141e-01) (31, 1.46107107400894165039e-01) (32, 2.59638935327529907227e-01) (33, -5.34755706787109375000e-01) (34, 2.53911048173904418945e-01) (0, 9.58335697650909423828e-01) (1, 3.53044897317886352539e-01) (2, 1.65318572521209716797e+00) (3, 5.85055470466613769531e-01) (4, 5.75808763504028320312e-01) (5, -1.92565768957138061523e-01) (6, -1.59737634658813476562e+00) (7, 1.10543560981750488281e+00) (8, -3.79310667514801025391e-01) (9, 8.47731053829193115234e-01) (10, 1.49458360671997070312e+00) (11, 7.10585296154022216797e-01) (12, 7.58615195751190185547e-01) (13, 2.01587271690368652344e+00) (14, 2.52118849754333496094e+00) (15, 1.50722801685333251953e-01) (16, 5.10348901152610778809e-02) (17, 3.94863545894622802734e-01) (18, -4.14810371398925781250e+00) (19, -1.11490145325660705566e-01) (20, 1.23163592070341110229e-02) (21, 2.84582376480102539062e-01) (22, 5.54107427597045898438e-01) (23, 1.27355471253395080566e-01) (24, -1.00816082954406738281e+00) (25, 1.45358395576477050781e+00) (26, 2.20495998859405517578e-01) (27, 1.87439882755279541016e+00) (28, -3.82631033658981323242e-01) (29, 4.54836785793304443359e-02) (30, 1.42547309398651123047e+00) (31, -1.78230013698339462280e-02) (32, 7.95845210552215576172e-01) (33, 9.55956354737281799316e-02) (34, -5.95859336853027343750e+00) (0, 6.85750305652618408203e-01) (1, -2.07195258140563964844e+00) (2, 1.31578898429870605469e+00) (3, 6.46994486451148986816e-02) (4, -2.36788487434387207031e+00) (5, -1.41037881374359130859e+00) (6, -3.05300205945968627930e-01) (7, 1.51279163360595703125e+00) (8, 2.80849128961563110352e-01) (9, 3.65249896049499511719e+00) (10, 2.50637817382812500000e+00) (11, -1.25344926491379737854e-02) (12, -9.34057950973510742188e-01) (13, 1.59606099128723144531e+00) (14, 1.93470120429992675781e+00) (15, 3.73191857337951660156e+00) (16, 1.72365581989288330078e+00) (17, 5.08992075920104980469e-01) (18, 2.97988295555114746094e-01) (19, -5.87032258510589599609e-01) (20, -3.86970013380050659180e-01) (21, -2.22538423538208007812e+00) (22, -2.57249760627746582031e+00) (23, 1.45586445927619934082e-01) (24, 1.39126434922218322754e-01) (25, 1.94690793752670288086e-01) (26, -1.14977344870567321777e-01) (27, -1.02987527847290039062e+00) (28, 1.79133579134941101074e-01) (29, 2.88887643814086914062e+00) (30, 6.89700603485107421875e-01) (31, 6.48077201843261718750e+00) (32, 4.74071085453033447266e-01) (33, 1.23037147521972656250e+00) (34, -2.40897226333618164062e+00) (0, 2.58890390396118164062e-01) (1, -1.25607684254646301270e-01) (2, 4.27141714096069335938e+00) (3, 5.96068091690540313721e-02) (4, 5.12294828891754150391e-01) (5, 6.84579670429229736328e-01) (6, -1.10309231281280517578e+00) (7, 2.88613224029541015625e+00) (8, 4.98415827751159667969e-02) (9, -8.59944403171539306641e-01) (10, -3.61986190080642700195e-01) (11, 4.24674838781356811523e-01) (12, 2.72808814048767089844e+00) (13, -6.74823045730590820312e-01) (14, 7.10142910480499267578e-01) (15, 1.64249396324157714844e+00) (16, 1.42986714839935302734e+00) (17, 7.51299142837524414062e-01) (18, -4.94312286376953125000e+00) (19, -1.07288932800292968750e+00) (20, 3.08013737201690673828e-01) (21, -5.30588030815124511719e-01) (22, 6.25923573970794677734e-02) (23, -2.22726297378540039062e+00) (24, 2.99445223063230514526e-02) (25, 3.14771920442581176758e-01) (26, 8.55885863304138183594e-01) (27, -1.13616216182708740234e+00) (28, -1.09844274818897247314e-01) (29, 3.13287317752838134766e-01) (30, 1.61221325397491455078e+00) (31, 1.21399116516113281250e+00) (32, 2.53636419773101806641e-01) (33, 1.07493209838867187500e+00) (34, -4.25810670852661132812e+00) (0, 7.76493906974792480469e-01) (1, -3.51072400808334350586e-02) (2, 1.91191375255584716797e+00) (3, 5.88012158870697021484e-01) (4, 8.53036046028137207031e-01) (5, 1.03168547153472900391e+00) (6, 2.16852992773056030273e-01) (7, 6.28859937191009521484e-01) (8, 6.39370679855346679688e-01) (9, 9.60102438926696777344e-01) (10, 7.22394585609436035156e-02) (11, 1.83636948466300964355e-01) (12, 3.14069747924804687500e+00) (13, 5.40990591049194335938e-01) (14, 8.76485347747802734375e-01) (15, 7.29974210262298583984e-01) (16, 1.48422074317932128906e+00) (17, 1.32194226607680320740e-02) (18, 1.50118127465248107910e-01) (19, -7.32123628258705139160e-02) (20, 1.39274168014526367188e+00) (21, 8.03811013698577880859e-01) (22, 1.46528229117393493652e-01) (23, 6.90282821655273437500e-01) (24, 4.86305922269821166992e-01) (25, 4.28562730550765991211e-01) (26, -5.15137910842895507812e-01) (27, 1.48769903182983398438e+00) (28, -2.06789784133434295654e-02) (29, -1.01881134510040283203e+00) (30, 2.12751317024230957031e+00) (31, -1.65362703800201416016e+00) (32, 3.74134349822998046875e+00) (33, 2.73753732442855834961e-01) (34, -3.02608513832092285156e+00) (0, 8.41582775115966796875e-01) (1, -1.50052905082702636719e+00) (2, 2.02666640281677246094e+00) (3, 1.22635579109191894531e+00) (4, 1.30081999301910400391e+00) (5, -5.50377070903778076172e-01) (6, 1.70868051052093505859e+00) (7, 8.46702694892883300781e-01) (8, -1.25982868671417236328e+00) (9, -1.33820331096649169922e+00) (10, 2.64222621917724609375e+00) (11, 1.88495311886072158813e-03) (12, 3.28159880638122558594e+00) (13, 1.26270043849945068359e+00) (14, 1.68357050418853759766e+00) (15, 1.33209335803985595703e+00) (16, -5.47638237476348876953e-01) (17, 4.14242714643478393555e-01) (18, 7.37182140350341796875e+00) (19, -7.58797705173492431641e-01) (20, -1.31778508424758911133e-01) (21, -3.97391378879547119141e-01) (22, -1.74840807914733886719e+00) (23, 2.07289195060729980469e+00) (24, -3.31364363431930541992e-01) (25, -4.52977001667022705078e-01) (26, 3.36154818534851074219e+00) (27, 1.15382326766848564148e-02) (28, -5.31546771526336669922e-02) (29, -1.34318977594375610352e-01) (30, 1.81883776187896728516e+00) (31, 1.35372877120971679688e+00) (32, 3.30083584785461425781e+00) (33, 8.41211915016174316406e-01) (34, -2.01843190193176269531e+00) (0, 2.59572958946228027344e+00) (1, 5.74505254626274108887e-02) (2, 9.40031647682189941406e-01) (3, 3.50072354078292846680e-01) (4, -4.01659584045410156250e+00) (5, 5.21259188652038574219e-01) (6, 7.99012422561645507812e-01) (7, -1.53117716312408447266e+00) (8, -1.20795333385467529297e+00) (9, -1.20540678501129150391e+00) (10, 3.12575054168701171875e+00) (11, -3.00679826736450195312e+00) (12, 5.63734471797943115234e-01) (13, 1.38273760676383972168e-01) (14, 2.55654573440551757812e+00) (15, 1.34109139442443847656e+00) (16, 1.14300918579101562500e+00) (17, 4.88454282283782958984e-01) (18, 2.70976638793945312500e+00) (19, 2.05921268463134765625e+00) (20, 5.50778961181640625000e+00) (21, 2.59004950523376464844e-01) (22, -2.09258770942687988281e+00) (23, 1.81216335296630859375e+00) (24, 2.36880779266357421875e+00) (25, -1.01928567886352539062e+00) (26, -3.73415321111679077148e-01) (27, 6.20862990617752075195e-02) (28, 1.50498449802398681641e+00) (29, -1.61849725246429443359e+00) (30, 2.41856083273887634277e-01) (31, 1.45584237575531005859e+00) (32, 1.79140365123748779297e+00) (33, 1.06738114356994628906e+00) (34, -4.40582799911499023438e+00) (0, -2.48642653226852416992e-01) (1, 8.91136229038238525391e-02) (2, 3.63271683454513549805e-01) (3, -5.76020717620849609375e-01) (4, 2.77859711647033691406e+00) (5, -4.14503365755081176758e-01) (6, 2.71409481763839721680e-01) (7, 4.53195035457611083984e-01) (8, 1.65417820215225219727e-01) (9, -5.54670286178588867188e+00) (10, 1.19798377156257629395e-01) (11, 2.43776679039001464844e+00) (12, -4.35449302196502685547e-01) (13, 1.12638366222381591797e+00) (14, -1.19317662715911865234e+00) (15, 2.83578693866729736328e-01) (16, 5.71004211902618408203e-01) (17, 8.80132377147674560547e-01) (18, 6.90854644775390625000e+00) (19, -6.41061305999755859375e-01) (20, -1.46856629848480224609e+00) (21, 1.62723124027252197266e+00) (22, 1.18702340126037597656e+00) (23, 8.69284152984619140625e-01) (24, -8.83507430553436279297e-01) (25, 1.88619875907897949219e+00) (26, -3.57170164585113525391e-01) (27, 7.37441420555114746094e-01) (28, 2.58957415819168090820e-01) (29, 1.57923817634582519531e+00) (30, 5.53333902359008789062e+00) (31, -9.19471144676208496094e-01) (32, -6.78785026073455810547e-01) (33, 3.19938397407531738281e+00) (34, -1.16635048389434814453e+00) (0, 1.70784592628479003906e+00) (1, -3.11868041753768920898e-01) (2, 3.32301902770996093750e+00) (3, 7.43195831775665283203e-01) (4, 6.28760829567909240723e-02) (5, -5.21467439830303192139e-03) (6, 2.81070709228515625000e-01) (7, 1.61999261379241943359e+00) (8, -2.64104795455932617188e+00) (9, 9.85705256462097167969e-01) (10, 5.66742300987243652344e-01) (11, 3.48373079299926757812e+00) (12, 1.09339964389801025391e+00) (13, -3.41304272413253784180e-01) (14, 5.20957946777343750000e+00) (15, 5.46853065490722656250e-01) (16, 3.02860409021377563477e-01) (17, -6.66782140731811523438e-01) (18, 2.25444936752319335938e+00) (19, 3.22797864675521850586e-01) (20, -2.73159950971603393555e-01) (21, -2.08587795495986938477e-02) (22, -1.28380346298217773438e+00) (23, -1.29111288115382194519e-02) (24, 2.68159091472625732422e-01) (25, 3.85147072374820709229e-02) (26, -2.92318463325500488281e+00) (27, -3.67246776819229125977e-01) (28, 4.29623174667358398438e+00) (29, 9.12531793117523193359e-01) (30, 1.80789336562156677246e-01) (31, 2.71159470081329345703e-01) (32, 5.38472938537597656250e+00) (33, 2.25027546286582946777e-01) (34, -2.17655420303344726562e+00) (0, 6.63889229297637939453e-01) (1, -6.54524326324462890625e-01) (2, 3.72175693511962890625e+00) (3, 2.73375570774078369141e-01) (4, -2.14438393712043762207e-01) (5, 1.54137325286865234375e+00) (6, 9.71838951110839843750e-01) (7, 6.43847137689590454102e-03) (8, -1.04078257083892822266e+00) (9, -3.97834062576293945312e-01) (10, 4.96420097351074218750e+00) (11, 1.39557921886444091797e+00) (12, 1.77971875667572021484e+00) (13, 2.12376737594604492188e+00) (14, 1.91798996925354003906e+00) (15, 1.65113782882690429688e+00) (16, 6.27030491828918457031e-01) (17, -6.19083523750305175781e-01) (18, 9.92099583148956298828e-01) (19, -9.15039181709289550781e-01) (20, -1.61414790153503417969e+00) (21, 2.38110399246215820312e+00) (22, 3.30715727806091308594e+00) (23, 2.48738336563110351562e+00) (24, -4.12217140197753906250e+00) (25, 3.21895509958267211914e-01) (26, 6.96669667959213256836e-02) (27, 1.76941096782684326172e+00) (28, 2.33279183506965637207e-01) (29, 4.39885526895523071289e-01) (30, 7.36564731597900390625e+00) (31, 1.30008864402770996094e+00) (32, 3.23795652389526367188e+00) (33, 8.38586032390594482422e-01) (34, 2.92633678764104843140e-02) (0, 8.30603480339050292969e-01) (1, 7.84880109131336212158e-03) (2, -7.56213068962097167969e-01) (3, -2.38966017961502075195e-01) (4, 2.23878574371337890625e+00) (5, 3.45187783241271972656e-01) (6, 3.22798341512680053711e-01) (7, -4.49753344058990478516e-01) (8, 5.47570168972015380859e-01) (9, -1.88960683345794677734e+00) (10, -1.59072291851043701172e+00) (11, 1.05936193466186523438e+00) (12, -1.58771812915802001953e+00) (13, -2.66264390945434570312e+00) (14, -2.43937790393829345703e-01) (15, 3.41109514236450195312e-01) (16, 1.39927729964256286621e-01) (17, 1.37947523593902587891e+00) (18, -2.65864205360412597656e+00) (19, -4.08338248729705810547e-01) (20, -2.94616603851318359375e+00) (21, -9.25208747386932373047e-01) (22, 1.27683371305465698242e-01) (23, 1.89029026031494140625e+00) (24, -8.56497943401336669922e-01) (25, 1.37653517723083496094e+00) (26, -2.80403947830200195312e+00) (27, -2.93941497802734375000e+00) (28, -4.56232845783233642578e-01) (29, 2.49869190156459808350e-02) (30, 1.07350838184356689453e+00) (31, 7.29712784290313720703e-01) (32, -4.10443209111690521240e-02) (33, 5.18923811614513397217e-03) (34, 4.80264037847518920898e-01) (0, 1.53029572963714599609e+00) (1, -6.43673419952392578125e-01) (2, 5.22826766967773437500e+00) (3, 4.01158571243286132812e-01) (4, -6.49950861930847167969e-01) (5, 8.58900260925292968750e+00) (6, -2.68633246421813964844e-01) (7, 7.24489808082580566406e-01) (8, 2.77422094345092773438e+00) (9, 4.60293817520141601562e+00) (10, -1.02235496044158935547e-01) (11, 6.68291032314300537109e-01) (12, 1.89957547187805175781e+00) (13, -7.75000870227813720703e-01) (14, 2.08649206161499023438e+00) (15, 4.22121429443359375000e+00) (16, 7.70134091377258300781e-01) (17, 5.67988753318786621094e-02) (18, 2.75562882423400878906e+00) (19, -6.42451405525207519531e-01) (20, 6.65696978569030761719e-01) (21, 3.46921038627624511719e+00) (22, -5.20740330219268798828e-01) (23, 2.41166734695434570312e+00) (24, -6.52971982955932617188e-01) (25, 4.18148803710937500000e+00) (26, 1.25137770175933837891e+00) (27, 5.82289159297943115234e-01) (28, 1.21071863174438476562e+00) (29, -7.05505967140197753906e-01) (30, -9.02431905269622802734e-01) (31, 3.08463740348815917969e+00) (32, 9.70607757568359375000e-01) (33, 1.78716146945953369141e+00) (34, 1.88639566302299499512e-01) (0, 4.28417444229125976562e+00) (1, -1.20122276246547698975e-01) (2, -2.39185858517885208130e-02) (3, 4.29249286651611328125e-01) (4, 1.71619510650634765625e+00) (5, 3.46511816978454589844e+00) (6, -5.54106473922729492188e-01) (7, -1.11576890945434570312e+00) (8, -6.26594245433807373047e-01) (9, 6.52161121368408203125e-01) (10, -1.28846049308776855469e+00) (11, -1.04229412972927093506e-01) (12, 2.23424851894378662109e-01) (13, -1.47344395518302917480e-02) (14, 3.61258435249328613281e+00) (15, -3.02425116300582885742e-01) (16, 1.29184174537658691406e+00) (17, -3.78267280757427215576e-02) (18, 5.50297796726226806641e-01) (19, 1.30100712180137634277e-01) (20, 3.14005196094512939453e-01) (21, 2.96741199493408203125e+00) (22, 2.09151238203048706055e-01) (23, -1.48485028743743896484e+00) (24, 2.91274100542068481445e-01) (25, -1.95200717449188232422e+00) (26, -3.71347703039646148682e-02) (27, -4.75584566593170166016e-01) (28, -9.78712499141693115234e-01) (29, 6.74349248409271240234e-01) (30, 1.45092578604817390442e-02) (31, 3.61939883232116699219e+00) (32, 2.46635627746582031250e+00) (33, 5.46580910682678222656e-01) (34, -3.40739727020263671875e+00) (0, 4.28827196359634399414e-01) (1, -2.63450235128402709961e-01) (2, 8.80788505077362060547e-01) (3, 3.92411887645721435547e-01) (4, 3.76615285873413085938e-01) (5, 1.19666174054145812988e-01) (6, -5.25954544544219970703e-01) (7, 1.12160754203796386719e+00) (8, 7.53247201442718505859e-01) (9, -2.03216600418090820312e+00) (10, 1.15903782844543457031e+00) (11, 1.03330016136169433594e+00) (12, 8.78964066505432128906e-01) (13, 6.00303113460540771484e-01) (14, 1.27586400508880615234e+00) (15, 7.28910714387893676758e-02) (16, 6.02794289588928222656e-01) (17, 4.42334502935409545898e-01) (18, -7.69477128982543945312e-01) (19, 7.62833237648010253906e-01) (20, -2.67316140234470367432e-02) (21, 4.09040525555610656738e-02) (22, -1.81855726987123489380e-02) (23, 1.54556989669799804688e+00) (24, 2.18059033155441284180e-01) (25, -4.43798564374446868896e-02) (26, -2.01244831085205078125e-01) (27, 1.26925253868103027344e+00) (28, 2.45780095458030700684e-01) (29, -2.07853108644485473633e-01) (30, 2.58598160743713378906e+00) (31, 8.01233947277069091797e-01) (32, 2.97698497772216796875e+00) (33, -2.83451110124588012695e-01) (34, -2.72643113136291503906e+00) (0, 8.57315137982368469238e-02) (1, 9.85674798488616943359e-01) (2, 1.52084600925445556641e+00) (3, -6.27584040164947509766e-01) (4, 9.13271188735961914062e-01) (5, -2.81488895416259765625e+00) (6, -9.40622389316558837891e-01) (7, -2.27678969502449035645e-01) (8, -1.86734509468078613281e+00) (9, -2.52100914716720581055e-01) (10, -1.33667001724243164062e+01) (11, -2.70253896713256835938e+00) (12, -1.09174418449401855469e+00) (13, 2.65128374099731445312e+00) (14, 2.69204854965209960938e-01) (15, 1.28482639789581298828e-01) (16, 2.12686598300933837891e-01) (17, 5.37807273864746093750e+00) (18, 2.71984839439392089844e+00) (19, -1.36264455318450927734e+00) (20, -2.07554554939270019531e+00) (21, 1.41796255111694335938e+00) (22, 3.60297352075576782227e-01) (23, 1.29290294647216796875e+00) (24, -1.28058218955993652344e+00) (25, 1.30573260784149169922e+00) (26, -2.21460175514221191406e+00) (27, 6.55755162239074707031e-01) (28, 9.69326734542846679688e-01) (29, -5.48620596528053283691e-02) (30, 1.94494545459747314453e+00) (31, -1.63413345813751220703e-01) (32, -2.02739201486110687256e-02) (33, -1.72420215606689453125e+00) (34, -5.90547144412994384766e-01) (0, 3.63007247447967529297e-01) (1, 3.49725723266601562500e-01) (2, -9.48731839656829833984e-01) (3, 5.89137792587280273438e-01) (4, -1.01048851013183593750e+00) (5, -6.55822336673736572266e-01) (6, 2.47263282537460327148e-01) (7, -1.07105657458305358887e-01) (8, -2.62606889009475708008e-01) (9, 5.70551395416259765625e-01) (10, 9.99558031558990478516e-01) (11, 9.06231701374053955078e-01) (12, 1.05678117275238037109e+00) (13, 1.62130463123321533203e+00) (14, 5.05171835422515869141e-01) (15, 1.84191167354583740234e+00) (16, 6.35010242462158203125e-01) (17, 4.54399138689041137695e-01) (18, 2.60907649993896484375e+00) (19, -6.06287479400634765625e-01) (20, 1.60694215446710586548e-02) (21, 3.49125361442565917969e+00) (22, -1.98419854044914245605e-01) (23, 2.49311536550521850586e-01) (24, 3.18791007995605468750e+00) (25, 2.75337910652160644531e+00) (26, 3.91679525375366210938e+00) (27, 1.33602356910705566406e+00) (28, 7.48181998729705810547e-01) (29, -1.38217699527740478516e+00) (30, 2.81661438941955566406e+00) (31, 4.32684183120727539062e-01) (32, 1.36422947049140930176e-01) (33, -2.65642076730728149414e-01) (34, -2.90241312980651855469e+00) (0, 9.19243156909942626953e-01) (1, -6.01078927516937255859e-01) (2, -8.88899922370910644531e-01) (3, 6.05005741119384765625e-01) (4, -1.59996747970581054688e-01) (5, -1.09411764144897460938e+00) (6, 7.23338067531585693359e-01) (7, 6.51513755321502685547e-01) (8, 1.11974203586578369141e+00) (9, 1.19917118549346923828e+00) (10, 4.88450497388839721680e-01) (11, -1.05543367564678192139e-01) (12, -1.29837393760681152344e+00) (13, 3.00407350063323974609e-01) (14, -1.91680395603179931641e+00) (15, 7.37148582935333251953e-01) (16, 7.29653477668762207031e-01) (17, 3.47394347190856933594e-01) (18, 1.66256618499755859375e+00) (19, 1.96796264499425888062e-02) (20, 6.08394980430603027344e-01) (21, -1.79865860939025878906e+00) (22, -2.93054103851318359375e-01) (23, 1.05649542808532714844e+00) (24, -6.21029078960418701172e-01) (25, -4.02667045593261718750e-01) (26, -1.93027877807617187500e+00) (27, 1.46139100193977355957e-01) (28, 3.09343367815017700195e-01) (29, 2.38993763923645019531e+00) (30, 5.48120379447937011719e-01) (31, -1.41786468029022216797e+00) (32, 7.85324394702911376953e-01) (33, -2.34592747688293457031e+00) (34, -3.63988614082336425781e+00) (0, 1.50541412830352783203e+00) (1, -5.10308027267456054688e-01) (2, -1.64525330066680908203e-01) (3, 7.98280477523803710938e-01) (4, -3.12855988740921020508e-01) (5, 2.95163631439208984375e+00) (6, 2.88304042816162109375e+00) (7, 1.66772663593292236328e+00) (8, -4.41797561943531036377e-02) (9, 9.34303045272827148438e-01) (10, 2.36130714416503906250e+00) (11, 1.83852088451385498047e+00) (12, 3.33816480636596679688e+00) (13, -5.50677478313446044922e-02) (14, 3.23547792434692382812e+00) (15, 1.12991940975189208984e+00) (16, 1.01694536209106445312e+00) (17, -1.12739574909210205078e+00) (18, 3.82007503509521484375e+00) (19, -5.27006030082702636719e-01) (20, -6.54350697994232177734e-01) (21, 4.06764507293701171875e+00) (22, 9.17241954803466796875e+00) (23, -2.42082357406616210938e+00) (24, 1.21861732006072998047e+00) (25, 9.49140071868896484375e+00) (26, 1.15575230121612548828e+00) (27, 2.91788077354431152344e+00) (28, 3.80868959426879882812e+00) (29, 3.34096264839172363281e+00) (30, -1.02751016616821289062e+00) (31, -5.09170055389404296875e-01) (32, 1.89181256294250488281e+00) (33, -2.64069497585296630859e-01) (34, -1.28272926807403564453e+00) (0, -2.24031850695610046387e-01) (1, 3.84373426437377929688e-01) (2, -1.93783509731292724609e+00) (3, 6.13028669357299804688e+00) (4, 2.07866740226745605469e+00) (5, -1.00946104526519775391e+00) (6, -2.34820768237113952637e-01) (7, 2.09764480590820312500e+00) (8, 7.40173816680908203125e-01) (9, 2.61660838127136230469e+00) (10, 2.98008036613464355469e+00) (11, 2.56806612014770507812e-01) (12, -1.14864826202392578125e+00) (13, -5.21150827407836914062e-01) (14, 2.46020174026489257812e+00) (15, 5.02352654933929443359e-01) (16, 1.31918716430664062500e+00) (17, 4.29371309280395507812e+00) (18, 2.61697864532470703125e+00) (19, 1.69184160232543945312e+00) (20, 6.43731355667114257812e-01) (21, 1.70521879196166992188e+00) (22, 4.77056503295898437500e+00) (23, -1.84357094764709472656e+00) (24, -3.98908400535583496094e+00) (25, 8.97969365119934082031e-01) (26, 1.29713881015777587891e+00) (27, 2.78125476837158203125e+00) (28, 9.87521767616271972656e-01) (29, 4.04943600296974182129e-02) (30, 3.46126794815063476562e+00) (31, 3.42579215764999389648e-01) (32, 3.33589732646942138672e-01) (33, 2.25474253296852111816e-01) (34, -2.03088593482971191406e+00) (0, -3.29614013433456420898e-01) (1, 8.42371165752410888672e-01) (2, -1.22489941120147705078e+00) (3, 2.21620225906372070312e+00) (4, 3.59556508064270019531e+00) (5, 1.37630641460418701172e+00) (6, -1.06888902187347412109e+00) (7, -1.61444723606109619141e+00) (8, -4.18425291776657104492e-01) (9, 9.53760743141174316406e-01) (10, 5.92105865478515625000e-01) (11, 5.99459600448608398438e+00) (12, 3.97206135094165802002e-02) (13, -5.77531635761260986328e-01) (14, 1.04043018817901611328e+00) (15, 1.73355132341384887695e-01) (16, 2.38105654716491699219e-02) (17, 4.29412794113159179688e+00) (18, 1.82646560668945312500e+00) (19, 1.68064355850219726562e+00) (20, -8.22206199169158935547e-01) (21, 1.53889274597167968750e+00) (22, 3.01018238067626953125e+00) (23, -2.69133901596069335938e+00) (24, -3.44605118036270141602e-01) (25, 1.11997687816619873047e+00) (26, 2.26757955551147460938e+00) (27, 4.46960067749023437500e+00) (28, -2.97249048948287963867e-01) (29, 1.28360903263092041016e+00) (30, -4.73322778940200805664e-01) (31, 4.57682085037231445312e+00) (32, -1.09924042224884033203e+00) (33, 3.53382515907287597656e+00) (34, 4.44976389408111572266e-01) (0, -2.22623944282531738281e+00) (1, 1.39371919631958007812e+00) (2, -1.97098076343536376953e+00) (3, 3.36717939376831054688e+00) (4, 3.56486296653747558594e+00) (5, 5.28863096237182617188e+00) (6, -2.57011008262634277344e+00) (7, -2.40360021591186523438e-01) (8, 1.08447980880737304688e+00) (9, 3.94487380981445312500e+00) (10, 4.60213899612426757812e-01) (11, 5.28086280822753906250e+00) (12, -3.93360584974288940430e-01) (13, -1.11993752419948577881e-01) (14, 1.11243700981140136719e+00) (15, 1.13330081105232238770e-01) (16, 5.23449718952178955078e-01) (17, 3.71885919570922851562e+00) (18, 8.05652618408203125000e-01) (19, -1.08844749629497528076e-01) (20, 3.31620121002197265625e+00) (21, 3.79762840270996093750e+00) (22, 4.48892086744308471680e-01) (23, -5.61329722404479980469e-01) (24, 1.05191564559936523438e+00) (25, -1.24560391902923583984e+00) (26, -5.49759566783905029297e-01) (27, 1.04501545429229736328e+00) (28, 5.24444043636322021484e-01) (29, 8.37004065513610839844e-01) (30, 1.53405654430389404297e+00) (31, -2.47682467103004455566e-01) (32, -8.53428244590759277344e-02) (33, 7.60133415460586547852e-02) (34, 5.28500564396381378174e-02) (0, -3.88806998729705810547e-01) (1, 3.85500788688659667969e+00) (2, -3.69886755943298339844e+00) (3, 4.26457643508911132812e+00) (4, 4.63774919509887695312e+00) (5, -2.83081245422363281250e+00) (6, -2.16223254799842834473e-01) (7, -1.73194754123687744141e+00) (8, -8.46300899982452392578e-01) (9, -1.26231357455253601074e-01) (10, 4.60869932174682617188e+00) (11, 1.07659959793090820312e+00) (12, 6.11511841416358947754e-02) (13, -1.04224348068237304688e+00) (14, 8.98719489574432373047e-01) (15, -1.98529258370399475098e-01) (16, 2.19150230288505554199e-01) (17, 3.02913069725036621094e+00) (18, 7.73160681128501892090e-02) (19, 2.50976181030273437500e+00) (20, 1.15909790992736816406e+00) (21, 2.26629757881164550781e+00) (22, 3.13623857498168945312e+00) (23, -4.38966941833496093750e+00) (24, 5.60382306575775146484e-01) (25, 9.41961884498596191406e-01) (26, 4.02875089645385742188e+00) (27, 2.69281244277954101562e+00) (28, 1.67925238609313964844e+00) (29, 1.36606872081756591797e-01) (30, 6.91644787788391113281e-01) (31, -2.60442137718200683594e-01) (32, 3.08314055204391479492e-01) (33, 1.74226188659667968750e+00) (34, -1.65001749992370605469e-01) (0, -2.00603961944580078125e+00) (1, 4.78189319372177124023e-01) (2, -2.79065179824829101562e+00) (3, 2.65575146675109863281e+00) (4, 1.90746951103210449219e+00) (5, 3.60981774330139160156e+00) (6, 6.33093863725662231445e-02) (7, -1.35510230064392089844e+00) (8, 2.37146902084350585938e+00) (9, -7.20800101757049560547e-01) (10, 1.53092575073242187500e+00) (11, 1.49565339088439941406e+00) (12, -8.24810743331909179688e-01) (13, 2.22991108894348144531e+00) (14, 5.33255290985107421875e+00) (15, -1.96141242980957031250e-01) (16, 6.99532702565193176270e-02) (17, 6.78651273250579833984e-01) (18, 2.72607183456420898438e+00) (19, 1.53187704086303710938e+00) (20, 1.82718098163604736328e+00) (21, 8.87315869331359863281e-01) (22, 1.68265581130981445312e+00) (23, 1.15721344947814941406e+00) (24, 6.43003508448600769043e-02) (25, 4.30997800827026367188e+00) (26, 2.54365205764770507812e+00) (27, 4.79550457000732421875e+00) (28, 1.35790109634399414062e+00) (29, 1.08199489116668701172e+00) (30, 2.72186517715454101562e+00) (31, -1.94649860262870788574e-01) (32, 1.92767560482025146484e+00) (33, -4.69216674566268920898e-01) (34, -1.99592530727386474609e+00) (0, 8.08000326156616210938e-01) (1, 1.93017035722732543945e-01) (2, 4.54631410539150238037e-02) (3, 1.11294485628604888916e-01) (4, 5.67927777767181396484e-01) (5, 2.46061101555824279785e-01) (6, -3.21575307846069335938e+00) (7, 1.44668072462081909180e-01) (8, -3.54485988616943359375e+00) (9, -1.00422275066375732422e+00) (10, 1.60202836990356445312e+00) (11, -1.72112512588500976562e+00) (12, -7.87404328584671020508e-02) (13, 2.10351452231407165527e-01) (14, 1.03026752471923828125e+01) (15, 1.17457211017608642578e+00) (16, 1.07384264469146728516e+00) (17, -6.09467566013336181641e-01) (18, 4.95220088958740234375e+00) (19, -6.13196730613708496094e-01) (20, -4.39556884765625000000e+00) (21, 1.14900007843971252441e-01) (22, 1.26499724388122558594e+00) (23, -6.78983092308044433594e-01) (24, -1.37057375907897949219e+00) (25, 3.62243711948394775391e-01) (26, 1.14401435852050781250e+00) (27, 8.68465662002563476562e-01) (28, 5.59762299060821533203e-01) (29, 7.04364359378814697266e-01) (30, -3.87429408729076385498e-02) (31, 2.11237978935241699219e+00) (32, 1.35121583938598632812e+00) (33, 1.22523367404937744141e+00) (34, -3.77071523666381835938e+00) (0, -3.92469391226768493652e-02) (1, -1.27604246139526367188e+00) (2, -2.82048970460891723633e-01) (3, -1.20312988758087158203e+00) (4, 3.61534863710403442383e-01) (5, -1.30461251735687255859e+00) (6, -6.80152997374534606934e-02) (7, 7.95073434710502624512e-02) (8, 2.02269986271858215332e-01) (9, -4.66243535280227661133e-01) (10, -1.23864996433258056641e+00) (11, -2.31535375118255615234e-01) (12, 1.56550908088684082031e+00) (13, -3.22594583034515380859e-01) (14, 1.80499302223324775696e-03) (15, 8.03155064582824707031e-01) (16, 9.02060329914093017578e-01) (17, 6.98381900787353515625e-01) (18, 2.30813574790954589844e+00) (19, -3.49603384733200073242e-01) (20, 6.73456311225891113281e-01) (21, 3.06121110916137695312e-01) (22, 1.03545323014259338379e-01) (23, 6.88179582357406616211e-02) (24, 1.27984499931335449219e+00) (25, -1.04143910109996795654e-01) (26, 1.66254475712776184082e-01) (27, -2.29168660007417201996e-03) (28, 4.45711016654968261719e-01) (29, 4.47248727083206176758e-01) (30, 4.73717778921127319336e-01) (31, 7.55228325724601745605e-02) (32, -4.02269870042800903320e-01) (33, -1.54413056373596191406e+00) (34, -8.77199172973632812500e+00) (0, 4.77177828550338745117e-01) (1, 4.08814936876296997070e-01) (2, 5.97515441477298736572e-02) (3, 1.23801589012145996094e+00) (4, 1.00269901752471923828e+00) (5, 4.39365816116333007812e+00) (6, 2.95135289430618286133e-01) (7, -1.01901255548000335693e-01) (8, -2.34099769592285156250e+00) (9, 6.08889579772949218750e-01) (10, 1.99004530906677246094e+00) (11, 5.44536352157592773438e-01) (12, 4.60359118878841400146e-02) (13, -1.33555424213409423828e+00) (14, 3.91626167297363281250e+00) (15, -2.56477773189544677734e-01) (16, -6.12187147140502929688e-01) (17, 3.47195386886596679688e-01) (18, 4.25180959701538085938e+00) (19, -1.50822743773460388184e-01) (20, -5.85836946964263916016e-01) (21, 1.22934386134147644043e-01) (22, 1.10702633857727050781e+00) (23, -3.68358469009399414062e+00) (24, -1.64197635650634765625e+00) (25, 1.49206399917602539062e-01) (26, -1.95797234773635864258e-01) (27, -4.13489937782287597656e-02) (28, -9.49625968933105468750e-01) (29, 2.56143361330032348633e-01) (30, -1.96790874004364013672e-01) (31, 3.24170494079589843750e+00) (32, 1.33164262771606445312e+00) (33, -9.99323546886444091797e-01) (34, -2.61536693572998046875e+00) (0, 9.22580897808074951172e-01) (1, -1.27283120155334472656e+00) (2, 3.04278582334518432617e-01) (3, 8.15868854522705078125e-01) (4, 9.13948595523834228516e-01) (5, -2.61710691452026367188e+00) (6, 7.56021380424499511719e-01) (7, 2.40218177437782287598e-01) (8, -8.90399336814880371094e-01) (9, -3.76600563526153564453e-01) (10, -2.57288992404937744141e-01) (11, 1.67846918106079101562e-01) (12, 2.22336506843566894531e+00) (13, 2.59488821029663085938e-01) (14, -7.22576200962066650391e-01) (15, 2.26022481918334960938e+00) (16, -2.86518752574920654297e-01) (17, 2.37691581249237060547e-01) (18, 4.19060230255126953125e+00) (19, 1.38089790940284729004e-01) (20, 9.84217226505279541016e-02) (21, 5.83080351352691650391e-02) (22, -9.15972411632537841797e-01) (23, 2.45709633827209472656e+00) (24, -9.98276948928833007812e-01) (25, -2.35769063234329223633e-01) (26, 1.79611730575561523438e+00) (27, -1.49546456336975097656e+00) (28, 1.02316416800022125244e-01) (29, 6.31373822689056396484e-01) (30, 5.32527685165405273438e-01) (31, -2.15932035446166992188e+00) (32, 2.10985040664672851562e+00) (33, -4.75003495812416076660e-02) (34, -2.78580284118652343750e+00) (0, 1.43454149365425109863e-01) (1, 6.27779006958007812500e-01) (2, -1.22678741812705993652e-01) (3, 5.38107454776763916016e-02) (4, 1.31185877323150634766e+00) (5, 5.02243423461914062500e+00) (6, 4.12376880645751953125e-01) (7, 2.05419823527336120605e-01) (8, 9.79366719722747802734e-01) (9, 8.64475011825561523438e-01) (10, -1.54764246940612792969e+00) (11, 5.85897803306579589844e-01) (12, 1.11645825207233428955e-01) (13, 1.69150948524475097656e+00) (14, 5.16623854637145996094e-01) (15, -3.68893772363662719727e-01) (16, -1.40608578920364379883e-01) (17, 1.73656868934631347656e+00) (18, 1.76764178276062011719e+00) (19, -3.01938146352767944336e-01) (20, 1.72384351491928100586e-01) (21, 2.20101213455200195312e+00) (22, 1.79823026061058044434e-01) (23, 5.42149186134338378906e-01) (24, 1.51239842176437377930e-01) (25, 3.81283354759216308594e+00) (26, 1.89032196998596191406e+00) (27, 4.23692846298217773438e+00) (28, -1.17456436157226562500e+00) (29, 6.59697234630584716797e-01) (30, -2.95767217874526977539e-01) (31, -2.62965172529220581055e-01) (32, -1.43149669747799634933e-03) (33, 8.77502560615539550781e-01) (34, -6.72778964042663574219e-01) (0, -1.77111792564392089844e+00) (1, 1.40896186232566833496e-01) (2, 9.52046632766723632812e-01) (3, -9.78662550449371337891e-01) (4, -1.00968241691589355469e+00) (5, -1.43757367134094238281e+00) (6, -1.15827810764312744141e+00) (7, -3.55756473541259765625e+00) (8, -4.02245855331420898438e+00) (9, 1.71755456924438476562e+00) (10, -4.19932031631469726562e+00) (11, -1.73125958442687988281e+00) (12, -1.08614528179168701172e+00) (13, 2.39245915412902832031e+00) (14, -1.04837380349636077881e-01) (15, 5.32266855239868164062e-01) (16, 4.64883476495742797852e-01) (17, -1.54758775606751441956e-02) (18, -1.44772493839263916016e+00) (19, 9.81159865856170654297e-01) (20, -2.94163525104522705078e-02) (21, -1.75011110305786132812e+00) (22, 2.32645082473754882812e+00) (23, 9.46566045284271240234e-01) (24, 7.80013322830200195312e-01) (25, -2.67804652452468872070e-01) (26, 2.25914716720581054688e+00) (27, -3.53824757039546966553e-02) (28, 9.82081294059753417969e-01) (29, -2.96805596351623535156e+00) (30, 6.02497458457946777344e-01) (31, -1.89364120364189147949e-01) (32, 1.23611927032470703125e+00) (33, 4.91838008165359497070e-01) (34, 1.82370115071535110474e-02) (0, 2.55610466003417968750e-01) (1, -4.16967511177062988281e-01) (2, 4.75557178258895874023e-01) (3, 