FANN_FLO_2.1
num_layers=3
learning_rate=0.010000
connection_rate=1.000000
network_type=0
learning_momentum=0.000000
training_algorithm=2
train_error_function=1
train_stop_function=0
cascade_output_change_fraction=0.010000
quickprop_decay=-0.000100
quickprop_mu=1.750000
rprop_increase_factor=1.200000
rprop_decrease_factor=0.500000
rprop_delta_min=0.000000
rprop_delta_max=50.000000
rprop_delta_zero=0.100000
cascade_output_stagnation_epochs=12
cascade_candidate_change_fraction=0.010000
cascade_candidate_stagnation_epochs=12
cascade_max_out_epochs=150
cascade_min_out_epochs=50
cascade_max_cand_epochs=150
cascade_min_cand_epochs=50
cascade_num_candidate_groups=2
bit_fail_limit=3.49999994039535522461e-01
cascade_candidate_limit=1.00000000000000000000e+03
cascade_weight_multiplier=4.00000005960464477539e-01
cascade_activation_functions_count=10
cascade_activation_functions=3 5 7 8 10 11 14 15 16 17 
cascade_activation_steepnesses_count=4
cascade_activation_steepnesses=2.50000000000000000000e-01 5.00000000000000000000e-01 7.50000000000000000000e-01 1.00000000000000000000e+00 
layer_sizes=35 33 5 
scale_included=0
neurons (num_inputs, activation_function, activation_steepness)=(0, 0, 0.00000000000000000000e+00) (0, 0, 0.00000000000000000000e+00) (0, 0, 0.00000000000000000000e+00) (0, 0, 0.00000000000000000000e+00) (0, 0, 0.00000000000000000000e+00) (0, 0, 0.00000000000000000000e+00) (0, 0, 0.00000000000000000000e+00) (0, 0, 0.00000000000000000000e+00) (0, 0, 0.00000000000000000000e+00) (0, 0, 0.00000000000000000000e+00) (0, 0, 0.00000000000000000000e+00) (0, 0, 0.00000000000000000000e+00) (0, 0, 0.00000000000000000000e+00) (0, 0, 0.00000000000000000000e+00) (0, 0, 0.00000000000000000000e+00) (0, 0, 0.00000000000000000000e+00) (0, 0, 0.00000000000000000000e+00) (0, 0, 0.00000000000000000000e+00) (0, 0, 0.00000000000000000000e+00) (0, 0, 0.00000000000000000000e+00) (0, 0, 0.00000000000000000000e+00) (0, 0, 0.00000000000000000000e+00) (0, 0, 0.00000000000000000000e+00) (0, 0, 0.00000000000000000000e+00) (0, 0, 0.00000000000000000000e+00) (0, 0, 0.00000000000000000000e+00) (0, 0, 0.00000000000000000000e+00) (0, 0, 0.00000000000000000000e+00) (0, 0, 0.00000000000000000000e+00) (0, 0, 0.00000000000000000000e+00) (0, 0, 0.00000000000000000000e+00) (0, 0, 0.00000000000000000000e+00) (0, 0, 0.00000000000000000000e+00) (0, 0, 0.00000000000000000000e+00) (0, 0, 0.00000000000000000000e+00) (35, 3, 5.00000000000000000000e-01) (35, 3, 5.00000000000000000000e-01) (35, 3, 5.00000000000000000000e-01) (35, 3, 5.00000000000000000000e-01) (35, 3, 5.00000000000000000000e-01) (35, 3, 5.00000000000000000000e-01) (35, 3, 5.00000000000000000000e-01) (35, 3, 5.00000000000000000000e-01) (35, 3, 5.00000000000000000000e-01) (35, 3, 5.00000000000000000000e-01) (35, 3, 5.00000000000000000000e-01) (35, 3, 5.00000000000000000000e-01) (35, 3, 5.00000000000000000000e-01) (35, 3, 5.00000000000000000000e-01) (35, 3, 5.00000000000000000000e-01) (35, 3, 5.00000000000000000000e-01) (35, 3, 5.00000000000000000000e-01) (35, 3, 5.00000000000000000000e-01) (35, 3, 5.00000000000000000000e-01) (35, 3, 5.00000000000000000000e-01) (35, 3, 5.00000000000000000000e-01) (35, 3, 5.00000000000000000000e-01) (35, 3, 5.00000000000000000000e-01) (35, 3, 5.00000000000000000000e-01) (35, 3, 5.00000000000000000000e-01) (35, 3, 5.00000000000000000000e-01) (35, 3, 5.00000000000000000000e-01) (35, 3, 5.00000000000000000000e-01) (35, 3, 5.00000000000000000000e-01) (35, 3, 5.00000000000000000000e-01) (35, 3, 5.00000000000000000000e-01) (35, 3, 5.00000000000000000000e-01) (0, 3, 0.00000000000000000000e+00) (33, 3, 5.00000000000000000000e-01) (33, 3, 5.00000000000000000000e-01) (33, 3, 5.00000000000000000000e-01) (33, 3, 5.00000000000000000000e-01) (0, 3, 0.00000000000000000000e+00) 
connections (connected_to_neuron, weight)=(0, 1.75202047824859619141e+00) (1, 1.10500049591064453125e+00) (2, -1.47369158267974853516e+00) (3, -6.76496505737304687500e-01) (4, -9.67331111431121826172e-01) (5, -2.42442870140075683594e+00) (6, 2.68026530742645263672e-01) (7, 1.34867787361145019531e-01) (8, 2.80358099937438964844e+00) (9, -1.29616963863372802734e+00) (10, -5.92652940750122070312e+00) (11, -4.36501502990722656250e+00) (12, 6.43867254257202148438e-01) (13, 2.24830460548400878906e+00) (14, -1.31470715999603271484e+00) (15, 1.00546562671661376953e+00) (16, -5.50738811492919921875e-01) (17, -8.10746014118194580078e-01) (18, 1.25167095661163330078e+00) (19, -8.27914416790008544922e-01) (20, 1.14857566356658935547e+00) (21, -1.57797753810882568359e+00) (22, -1.49246490001678466797e+00) (23, -4.10220682621002197266e-01) (24, 1.29588890075683593750e+00) (25, 2.68324822187423706055e-01) (26, -2.02096533775329589844e+00) (27, -1.72015202045440673828e+00) (28, 2.67817378044128417969e+00) (29, 6.42811059951782226562e-01) (30, 3.08573031425476074219e+00) (31, 5.58691937476396560669e-03) (32, -7.10870504379272460938e-01) (33, -1.84303879737854003906e+00) (34, -2.50996398925781250000e+00) (0, -6.19395351409912109375e+00) (1, 7.81844854354858398438e-01) (2, 2.24392342567443847656e+00) (3, 9.49318632483482360840e-02) (4, -7.15806126594543457031e-01) (5, 2.69083738327026367188e+00) (6, -2.16451072692871093750e+00) (7, -8.69537234306335449219e-01) (8, 1.19631361961364746094e+00) (9, 6.84842288494110107422e-01) (10, 5.16263151168823242188e+00) (11, 8.34796607494354248047e-01) (12, -2.05710482597351074219e+00) (13, -3.71400803327560424805e-01) (14, -2.07496070861816406250e+00) (15, 5.38225293159484863281e-01) (16, 4.79963684082031250000e+00) (17, -4.45209205150604248047e-01) (18, -1.70985925197601318359e+00) (19, 5.92995464801788330078e-01) (20, -4.98125076293945312500e-01) (21, -1.08344897627830505371e-01) (22, -3.66538375616073608398e-01) (23, -3.05469602346420288086e-01) (24, 1.92909932136535644531e+00) (25, 7.20674753189086914062e-01) (26, 1.28150954842567443848e-01) (27, -8.10986697673797607422e-01) (28, -2.17789006233215332031e+00) (29, -3.90788602828979492188e+00) (30, -1.34118878841400146484e+00) (31, 5.24070930480957031250e+00) (32, -1.53784227371215820312e+00) (33, -6.88027322292327880859e-01) (34, 4.52208250761032104492e-01) (0, 3.87210893630981445312e+00) (1, -1.02686619758605957031e+00) (2, 2.44287461042404174805e-01) (3, 4.04469680786132812500e+00) (4, 1.44006073474884033203e+00) (5, 4.41676765680313110352e-01) (6, -1.35176837444305419922e+00) (7, 1.34254360198974609375e+00) (8, -3.15379381179809570312e-01) (9, 3.49394500255584716797e-01) (10, 2.33008408546447753906e+00) (11, 3.48922824859619140625e+00) (12, 5.17282533645629882812e+00) (13, 2.39695012569427490234e-01) (14, 8.67991542816162109375e+00) (15, 1.28174161911010742188e+00) (16, 3.85711640119552612305e-01) (17, 1.23804092407226562500e+00) (18, 3.04454040527343750000e+00) (19, 1.46348309516906738281e+00) (20, 1.09003949165344238281e+00) (21, 2.30656576156616210938e+00) (22, 2.02294245362281799316e-01) (23, -2.53925472497940063477e-02) (24, -1.00083124637603759766e+00) (25, 7.19139695167541503906e-01) (26, -1.65022730827331542969e+00) (27, -1.57528162002563476562e+00) (28, 4.29876148700714111328e-01) (29, -6.47669315338134765625e-01) (30, 1.80347159504890441895e-01) (31, -3.81867027282714843750e+00) (32, 4.06372404098510742188e+00) (33, 6.42888188362121582031e-01) (34, -2.89861536026000976562e+00) (0, 8.05272340774536132812e-01) (1, -5.84924936294555664062e-01) (2, -1.16483822464942932129e-01) (3, -1.31903040409088134766e+00) (4, -1.77387678623199462891e+00) (5, 1.09263765811920166016e+00) (6, -5.11287164688110351562e+00) (7, 3.38665986061096191406e+00) (8, -7.41353809833526611328e-01) (9, 1.20727705955505371094e+00) (10, 7.73594665527343750000e+00) (11, 8.01785850524902343750e+00) (12, 7.91738748550415039062e+00) (13, -6.64568090438842773438e+00) (14, 3.01076889038085937500e-01) (15, 1.61082053184509277344e+00) (16, 3.98066073656082153320e-01) (17, -4.73114824295043945312e+00) (18, 1.47187232971191406250e+00) (19, -6.13594627380371093750e+00) (20, 6.11828517913818359375e+00) (21, -5.76934754848480224609e-01) (22, -7.01914429664611816406e-01) (23, -3.98261451721191406250e+00) (24, -6.01261019706726074219e-01) (25, 4.08924341201782226562e+00) (26, 2.73478269577026367188e+00) (27, -4.71564674377441406250e+00) (28, 1.41003370285034179688e+00) (29, 4.08115923404693603516e-01) (30, 3.67285227775573730469e+00) (31, 5.06380021572113037109e-01) (32, 1.30837130546569824219e+00) (33, 1.11108803749084472656e+00) (34, 1.71231329441070556641e-01) (0, 1.46043837070465087891e+00) (1, -2.72412270307540893555e-01) (2, -4.66585189104080200195e-01) (3, -2.75143533945083618164e-01) (4, 1.92419636249542236328e+00) (5, 9.59593415260314941406e-01) (6, -3.24101734161376953125e+00) (7, 2.31823658943176269531e+00) (8, -1.87379217147827148438e+00) (9, 2.82586121559143066406e+00) (10, -6.93991541862487792969e-01) (11, 2.75308847427368164062e+00) (12, 2.11345553398132324219e+00) (13, 1.08310413360595703125e+00) (14, 5.08625459671020507812e+00) (15, 1.11567246913909912109e+00) (16, 2.44273543357849121094e+00) (17, 5.34582197666168212891e-01) (18, 8.86815190315246582031e-01) (19, -7.45970249176025390625e-01) (20, 4.94035512208938598633e-01) (21, 4.17224258184432983398e-01) (22, -9.42157745361328125000e-01) (23, 2.75840568542480468750e+00) (24, 4.07481491565704345703e-01) (25, 1.95304358005523681641e+00) (26, -1.77950859069824218750e+00) (27, 1.97442305088043212891e+00) (28, -9.43785548210144042969e-01) (29, 3.40102195739746093750e+00) (30, -1.33928418159484863281e+00) (31, 8.79782512784004211426e-02) (32, 2.13856840133666992188e+00) (33, 2.41020232439041137695e-01) (34, -4.73412179946899414062e+00) (0, 8.32437396049499511719e-01) (1, -3.06377267837524414062e+00) (2, 3.14300322532653808594e+00) (3, -8.45182299613952636719e-01) (4, -1.34764730930328369141e+00) (5, 5.43891096115112304688e+00) (6, -1.48716580867767333984e+00) (7, 2.88481283187866210938e+00) (8, -7.59275197982788085938e+00) (9, 6.21854448318481445312e+00) (10, -2.28857231140136718750e+00) (11, -6.54644918441772460938e+00) (12, 6.06991052627563476562e-01) (13, 1.77728921175003051758e-01) (14, -4.59547251462936401367e-01) (15, 7.91387915611267089844e-01) (16, 9.44466650485992431641e-01) (17, 1.99201419949531555176e-01) (18, -4.52399134635925292969e-01) (19, 1.14626538753509521484e+00) (20, 4.17083072662353515625e+00) (21, -6.60663068294525146484e-01) (22, 7.05568933486938476562e+00) (23, -1.08050417900085449219e+00) (24, -4.89802598953247070312e+00) (25, -2.62861824035644531250e+00) (26, -6.05559229850769042969e-01) (27, -9.55882549285888671875e-01) (28, 2.57742595672607421875e+00) (29, 1.48732945322990417480e-01) (30, 2.18323737382888793945e-01) (31, 1.97639000415802001953e+00) (32, -4.89105284214019775391e-01) (33, -4.69963455200195312500e+00) (34, 3.44661474227905273438e-01) (0, 6.84530794620513916016e-01) (1, 9.13858473300933837891e-01) (2, -1.50708109140396118164e-02) (3, 3.37991452217102050781e+00) (4, 5.41473197937011718750e+00) (5, -3.51731717586517333984e-01) (6, -1.49547350406646728516e+00) (7, 2.70538568496704101562e-01) (8, -2.30935192108154296875e+00) (9, 4.48295164108276367188e+00) (10, 4.47841405868530273438e+00) (11, -1.36062455177307128906e+00) (12, 4.30135726928710937500e+00) (13, 6.17185533046722412109e-01) (14, 1.21437358856201171875e+00) (15, 4.89749765396118164062e+00) (16, -4.11193966865539550781e-01) (17, -2.71739578247070312500e+00) (18, -4.55659091472625732422e-01) (19, 1.56267809867858886719e+00) (20, 2.49241352081298828125e+00) (21, 1.25651769638061523438e+01) (22, -1.26383829116821289062e+00) (23, -7.68889713287353515625e+00) (24, -1.68777763843536376953e+00) (25, 1.30376732349395751953e+00) (26, 3.78503918647766113281e-01) (27, 4.37265110015869140625e+00) (28, 1.04980945587158203125e+00) (29, 2.93997740745544433594e+00) (30, 4.86407250165939331055e-01) (31, -1.59978556632995605469e+00) (32, 8.84885370731353759766e-01) (33, 1.96068644523620605469e+00) (34, -9.90483283996582031250e-01) (0, -1.59983694553375244141e+00) (1, 8.80685389041900634766e-01) (2, -1.15465366840362548828e+00) (3, -1.80917456746101379395e-01) (4, 2.13902974128723144531e+00) (5, 5.67872476577758789062e+00) (6, -7.50739276409149169922e-01) (7, -3.36868792772293090820e-01) (8, -5.69700241088867187500e-01) (9, 2.81920218467712402344e+00) (10, 9.17901694774627685547e-01) (11, 4.62284183502197265625e+00) (12, -2.15478467941284179688e+00) (13, 1.35253548622131347656e+00) (14, 8.49731683731079101562e-01) (15, -1.62385836243629455566e-01) (16, 2.01032489538192749023e-01) (17, 1.85115981101989746094e+00) (18, -1.51717591285705566406e+00) (19, -1.96797835826873779297e+00) (20, -6.10556662082672119141e-01) (21, -3.47927719354629516602e-01) (22, 2.31511521339416503906e+00) (23, -8.64273846149444580078e-01) (24, -1.02983660995960235596e-01) (25, 1.29815185070037841797e+00) (26, 1.06030523777008056641e+00) (27, 1.75564777851104736328e+00) (28, 1.79036974906921386719e+00) (29, 5.95985352993011474609e-01) (30, 4.34280961751937866211e-01) (31, -2.34881019592285156250e+00) (32, 3.00863116979598999023e-01) (33, 6.64208292961120605469e-01) (34, -2.03674793243408203125e+00) (0, 6.13490045070648193359e-01) (1, -1.81001448631286621094e+00) (2, -1.06287539005279541016e+00) (3, 5.23943722248077392578e-01) (4, -5.82126557826995849609e-01) (5, -1.43676459789276123047e+00) (6, 2.75627017021179199219e+00) (7, 6.59418046474456787109e-01) (8, -4.06232976913452148438e+00) (9, -5.26814031600952148438e+00) (10, -6.73915052413940429688e+00) (11, -3.40782380104064941406e+00) (12, -7.30635166168212890625e-01) (13, 1.85812759399414062500e+00) (14, -2.03590512275695800781e-01) (15, 1.28863468766212463379e-01) (16, 1.38358399271965026855e-01) (17, 1.58676671981811523438e+00) (18, -3.98326849937438964844e+00) (19, 4.00113725662231445312e+00) (20, -4.00501400232315063477e-01) (21, 1.12360286712646484375e+00) (22, 5.81872284412384033203e-01) (23, 4.32887458801269531250e+00) (24, 2.08662867546081542969e+00) (25, -1.95768713951110839844e+00) (26, -1.76195740699768066406e+00) (27, -3.84577125310897827148e-01) (28, 5.29341638088226318359e-01) (29, -1.91605579853057861328e+00) (30, 4.39653205871582031250e+00) (31, 5.16583323478698730469e-01) (32, -2.68790125846862792969e+00) (33, -1.35969972610473632812e+00) (34, -6.22422277927398681641e-01) (0, 5.00164806842803955078e-01) (1, 3.64931440353393554688e+00) (2, -2.83964037895202636719e+00) (3, 2.48666596412658691406e+00) (4, 5.64411282539367675781e-01) (5, 2.11243152618408203125e+00) (6, -1.47791361808776855469e+00) (7, -1.10498952865600585938e+00) (8, -1.37468779087066650391e+00) (9, 3.78378963470458984375e+00) (10, 7.65989160537719726562e+00) (11, 2.29106783866882324219e+00) (12, -1.55010116100311279297e+00) (13, -9.78986248373985290527e-02) (14, 1.79163444042205810547e+00) (15, 5.91398850083351135254e-02) (16, 7.60433912277221679688e-01) (17, 2.55687952041625976562e+00) (18, 9.06279265880584716797e-01) (19, -4.38544303178787231445e-01) (20, -5.35472059249877929688e+00) (21, -1.67251288890838623047e+00) (22, 1.79759001731872558594e+00) (23, -1.12110233306884765625e+00) (24, 1.45719146728515625000e+00) (25, 3.44200158119201660156e+00) (26, -2.00379118323326110840e-01) (27, 2.29084038734436035156e+00) (28, -8.79342198371887207031e-01) (29, 1.31456828117370605469e+00) (30, -3.30062007904052734375e+00) (31, -2.81442213058471679688e+00) (32, -8.42832148075103759766e-01) (33, 4.90304112434387207031e-01) (34, -2.13557577133178710938e+00) (0, 2.26978111267089843750e+00) (1, -3.34950834512710571289e-01) (2, -4.90896320343017578125e+00) (3, -7.16458261013031005859e-01) (4, -4.14251804351806640625e+00) (5, 1.52191030979156494141e+00) (6, 3.68332529067993164062e+00) (7, 2.88784746080636978149e-02) (8, 3.67683029174804687500e+00) (9, -1.77970027923583984375e+00) (10, -1.01014842987060546875e+01) (11, -1.85369873046875000000e+00) (12, -5.05774617195129394531e-01) (13, -5.44037938117980957031e-01) (14, -1.20727813243865966797e+00) (15, 1.92987370491027832031e+00) (16, -2.97342747449874877930e-01) (17, -1.40694844722747802734e+00) (18, -1.50098443031311035156e+00) (19, 2.89393520355224609375e+00) (20, 9.39944684505462646484e-01) (21, 1.02409625053405761719e+00) (22, -1.32179880142211914062e+00) (23, 1.48184680938720703125e+00) (24, -2.17237424850463867188e+00) (25, 6.81389808654785156250e-01) (26, -2.70119762420654296875e+00) (27, 1.70624148845672607422e+00) (28, -5.32079160213470458984e-01) (29, 7.51670420169830322266e-01) (30, 3.63031339645385742188e+00) (31, 4.21062767505645751953e-01) (32, -3.79808068275451660156e+00) (33, 2.40561795234680175781e+00) (34, -7.27100849151611328125e-01) (0, 2.06970429420471191406e+00) (1, 1.12419044971466064453e+00) (2, -4.02391624450683593750e+00) (3, 1.76394248008728027344e+00) (4, 1.57469189167022705078e+00) (5, 1.07090129852294921875e+01) (6, -6.35472774505615234375e+00) (7, 2.33455967903137207031e+00) (8, -2.13328647613525390625e+00) (9, -6.44667506217956542969e-01) (10, -3.22555899620056152344e+00) (11, -9.31731343269348144531e-01) (12, -3.38234019279479980469e+00) (13, -2.44008946418762207031e+00) (14, 1.07176589965820312500e+00) (15, 1.81335911154747009277e-01) (16, -1.26919960975646972656e+00) (17, 8.11500728130340576172e-01) (18, -5.13128137588500976562e+00) (19, 1.31107163429260253906e+00) (20, -9.10896420478820800781e-01) (21, -8.84044587612152099609e-01) (22, 2.40699124336242675781e+00) (23, 3.56707954406738281250e+00) (24, 3.43486332893371582031e+00) (25, 6.37907683849334716797e-02) (26, 3.21500658988952636719e+00) (27, 1.49702966213226318359e+00) (28, 2.04140639305114746094e+00) (29, 4.42749023437500000000e+00) (30, -2.02995157241821289062e+00) (31, -1.27912080287933349609e+00) (32, -8.28436374664306640625e+00) (33, -1.49687325954437255859e+00) (34, -1.23549597337841987610e-02) (0, 2.69736266136169433594e+00) (1, 2.14394068717956542969e+00) (2, 1.45727181434631347656e+00) (3, -4.72414232790470123291e-02) (4, 4.96785610914230346680e-01) (5, -6.16630241274833679199e-02) (6, 1.51825070381164550781e+00) (7, 1.81526350975036621094e+00) (8, -5.00274944305419921875e+00) (9, 1.90532088279724121094e+00) (10, 3.50178456306457519531e+00) (11, 1.32819068431854248047e+00) (12, 2.21610760688781738281e+00) (13, 5.13849210739135742188e+00) (14, 3.47801709175109863281e+00) (15, 2.47438788414001464844e-01) (16, -3.98480296134948730469e+00) (17, -1.03113687038421630859e+00) (18, 2.52786803245544433594e+00) (19, -1.49047172069549560547e+00) (20, -7.39326179027557373047e-01) (21, 3.18193721771240234375e+00) (22, -1.31803452968597412109e+00) (23, 2.24015927314758300781e+00) (24, -1.09838163852691650391e+00) (25, 3.07394647598266601562e+00) (26, -4.18378591537475585938e+00) (27, -4.55638527870178222656e-01) (28, 1.23499464988708496094e+00) (29, -8.23385655879974365234e-01) (30, 1.13063108921051025391e+00) (31, 9.32157421112060546875e+00) (32, 3.06889414787292480469e+00) (33, 1.93665397167205810547e+00) (34, -3.91498184204101562500e+00) (0, -4.61824744939804077148e-01) (1, 7.75695371627807617188e+00) (2, 1.26570904254913330078e+00) (3, 3.25728625059127807617e-01) (4, -3.57074666023254394531e+00) (5, 4.64199352264404296875e+00) (6, -5.59234809875488281250e+00) (7, -7.24340796470642089844e-01) (8, -1.58687508106231689453e+00) (9, 2.53800940513610839844e+00) (10, 2.29135394096374511719e+00) (11, -1.06091845035552978516e+00) (12, 1.07435774803161621094e+00) (13, -1.88160419464111328125e+00) (14, 6.16756439208984375000e+00) (15, 1.41446232795715332031e+00) (16, -3.88089269399642944336e-01) (17, -2.68098860979080200195e-01) (18, -9.25993025302886962891e-02) (19, -3.88653922080993652344e+00) (20, -7.28209853172302246094e-01) (21, 2.04221630096435546875e+00) (22, -1.95789325237274169922e+00) (23, -1.85443270206451416016e+00) (24, 1.52249872684478759766e-01) (25, -1.41638267040252685547e+00) (26, -1.45934075117111206055e-01) (27, 1.62487304210662841797e+00) (28, 5.12169659137725830078e-01) (29, 1.10355579853057861328e+00) (30, -1.99840581417083740234e+00) (31, 2.58671116828918457031e+00) (32, 2.41146731376647949219e+00) (33, -2.91104376316070556641e-01) (34, -1.21170163154602050781e+00) (0, 2.91987204551696777344e+00) (1, -4.93076175451278686523e-01) (2, -8.26902329921722412109e-01) (3, 9.58221137523651123047e-01) (4, -1.63421428203582763672e+00) (5, 6.60496950149536132812e-01) (6, 1.38740730285644531250e+00) (7, 4.70300227403640747070e-01) (8, -5.19701063632965087891e-01) (9, -2.74626940488815307617e-01) (10, 2.46513366699218750000e+00) (11, 3.60267353057861328125e+00) (12, 9.22484099864959716797e-01) (13, -9.96830046176910400391e-01) (14, -3.25829386711120605469e+00) (15, 1.52309894561767578125e+00) (16, -1.59773015975952148438e+00) (17, 5.49006044864654541016e-01) (18, 6.28431439399719238281e-01) (19, 3.93750101327896118164e-01) (20, 4.54608440399169921875e-01) (21, 7.64655768871307373047e-02) (22, -1.59752595424652099609e+00) (23, 2.18190789222717285156e+00) (24, 2.43687939643859863281e+00) (25, -1.56681489944458007812e+00) (26, -7.44447037577629089355e-02) (27, -9.91155862808227539062e-01) (28, -1.02911078929901123047e+00) (29, -6.85580819845199584961e-02) (30, 1.19889903068542480469e+00) (31, 9.39286518096923828125e+00) (32, 6.39545583724975585938e+00) (33, -7.21887219697237014771e-03) (34, -2.44004487991333007812e+00) (0, 6.85868453979492187500e+00) (1, 4.58073425292968750000e+00) (2, -2.40376853942871093750e+00) (3, 7.45098888874053955078e-01) (4, 1.96624982357025146484e+00) (5, -9.45781588554382324219e-01) (6, 2.59866976737976074219e+00) (7, -3.87784987688064575195e-01) (8, 1.17499339580535888672e+00) (9, -5.86098074913024902344e-01) (10, 2.42222809791564941406e+00) (11, 4.48934078216552734375e+00) (12, 7.36309960484504699707e-02) (13, 3.03398466110229492188e+00) (14, -4.65977716445922851562e+00) (15, -3.23661470413208007812e+00) (16, 4.68473851680755615234e-01) (17, 1.36943721771240234375e+00) (18, 7.83723235130310058594e-01) (19, -3.09828567504882812500e+00) (20, -5.34524321556091308594e-01) (21, 2.86888813972473144531e+00) (22, 1.08348838984966278076e-01) (23, 1.98879599571228027344e+00) (24, -1.68182048946619033813e-02) (25, 1.47240948677062988281e+00) (26, 1.04201710224151611328e+00) (27, -2.27243018150329589844e+00) (28, 6.78579092025756835938e-01) (29, -1.85777437686920166016e+00) (30, 2.02473759651184082031e+00) (31, 8.48649859428405761719e-01) (32, 9.51333701610565185547e-01) (33, 2.07500070333480834961e-01) (34, -1.13065695762634277344e+00) (0, -5.02345442771911621094e-01) (1, 4.65071201324462890625e+00) (2, -1.73779046535491943359e+00) (3, 3.37121653556823730469e+00) (4, 3.51111793518066406250e+00) (5, -2.28120684623718261719e+00) (6, -1.05868911743164062500e+00) (7, 1.06583738327026367188e+00) (8, -3.57679784297943115234e-01) (9, 5.32399654388427734375e+00) (10, 2.71149349212646484375e+00) (11, 3.40902209281921386719e+00) (12, 3.16284918785095214844e+00) (13, 3.08876872062683105469e-01) (14, -5.01948237419128417969e-01) (15, -1.09285700321197509766e+00) (16, 5.26743125915527343750e+00) (17, 1.77324759960174560547e+00) (18, 2.69533902406692504883e-01) (19, -1.16535472869873046875e+00) (20, -1.69448125362396240234e+00) (21, 3.53859925270080566406e+00) (22, -2.30212473869323730469e+00) (23, -3.26171803474426269531e+00) (24, 2.84742975234985351562e+00) (25, 3.11953753232955932617e-01) (26, -1.13892984390258789062e+00) (27, 1.57672119140625000000e+00) (28, -1.70201754570007324219e+00) (29, -9.14195835590362548828e-01) (30, 9.73837226629257202148e-02) (31, 2.15446925163269042969e+00) (32, 5.37778913974761962891e-01) (33, 1.04743373394012451172e+00) (34, -1.29166615009307861328e+00) (0, -1.70885801315307617188e-01) (1, 1.43824541568756103516e+00) (2, -1.54056537151336669922e+00) (3, 6.02612197399139404297e-01) (4, 5.94342327117919921875e+00) (5, 1.36885929107666015625e+01) (6, 4.50810003280639648438e+00) (7, 3.37045574188232421875e+00) (8, -3.00957560539245605469e+00) (9, 1.01583900451660156250e+01) (10, 3.78607821464538574219e+00) (11, 3.87135982513427734375e-01) (12, 6.03348970413208007812e+00) (13, -1.91589248180389404297e+00) (14, -5.28988361358642578125e+00) (15, 1.12370610237121582031e-01) (16, 3.42883944511413574219e+00) (17, 2.10921239852905273438e+00) (18, 2.77132447808980941772e-03) (19, 1.76866248250007629395e-01) (20, 6.67827546596527099609e-01) (21, 6.95950686931610107422e-01) (22, 4.97482538223266601562e-01) (23, -4.15453958511352539062e+00) (24, 6.41812860965728759766e-01) (25, 6.24962711334228515625e+00) (26, -2.04453325271606445312e+00) (27, 1.29465150833129882812e+00) (28, 1.37374714016914367676e-01) (29, 2.66127347946166992188e+00) (30, -3.55955576896667480469e+00) (31, 1.16859936714172363281e+00) (32, 1.54647207260131835938e+00) (33, 4.95105348527431488037e-02) (34, 3.31545531749725341797e-01) (0, 8.67390096187591552734e-01) (1, 4.55645471811294555664e-01) (2, -4.20580625534057617188e-01) (3, -1.26181268692016601562e+00) (4, -6.08108818531036376953e-01) (5, 7.48322010040283203125e-01) (6, 6.21168255805969238281e-01) (7, 1.36535954475402832031e+00) (8, 3.05283725261688232422e-01) (9, 2.08032464981079101562e+00) (10, -2.66255044937133789062e+00) (11, 2.46775364875793457031e+00) (12, 1.08832693099975585938e+00) (13, -2.61836916208267211914e-01) (14, 1.71026563644409179688e+00) (15, 8.35514128208160400391e-01) (16, 5.33414781093597412109e-01) (17, -2.19203066825866699219e+00) (18, -1.83736360073089599609e+00) (19, -8.14429521560668945312e-01) (20, 1.92998182773590087891e+00) (21, 2.32138514518737792969e+00) (22, -8.67597961425781250000e+00) (23, -5.62506914138793945312e-01) (24, 3.75646996498107910156e+00) (25, -4.81186717748641967773e-01) (26, 1.12422001361846923828e+00) (27, 4.17553710937500000000e+00) (28, 5.18407881259918212891e-01) (29, 1.50675788521766662598e-01) (30, -4.12418842315673828125e+00) (31, -3.62243838608264923096e-02) (32, -3.57718682289123535156e+00) (33, 9.60810482501983642578e-01) (34, 8.32585811614990234375e-01) (0, 2.15427255630493164062e+00) (1, -2.05590415000915527344e+00) (2, -8.15391659736633300781e-01) (3, -3.25467623770236968994e-02) (4, -1.66910493373870849609e+00) (5, 2.97795081138610839844e+00) (6, -5.41371524333953857422e-01) (7, 2.39396619796752929688e+00) (8, 1.77605718374252319336e-01) (9, 3.36884427070617675781e+00) (10, -1.15124607086181640625e+00) (11, 3.53344887495040893555e-01) (12, 2.98208737373352050781e+00) (13, 2.31574773788452148438e+00) (14, 3.91240882873535156250e+00) (15, -4.90299135446548461914e-01) (16, 3.05974602699279785156e-01) (17, -3.49491977691650390625e+00) (18, -1.34340977668762207031e+00) (19, -1.94781899452209472656e-01) (20, 3.90868139266967773438e+00) (21, -6.49916291236877441406e-01) (22, -1.40306472778320312500e+00) (23, -7.72219896316528320312e-03) (24, -3.27111196517944335938e+00) (25, 2.73884701728820800781e+00) (26, -5.86740493774414062500e-01) (27, -2.62327146530151367188e+00) (28, 2.16003203392028808594e+00) (29, -3.41320604085922241211e-01) (30, -4.33262014389038085938e+00) (31, 4.02685546875000000000e+00) (32, 2.20201730728149414062e+00) (33, -5.80048467963933944702e-03) (34, -1.44274771213531494141e+00) (0, 1.86848127841949462891e+00) (1, -1.54977232217788696289e-01) (2, 5.77147197723388671875e+00) (3, -1.02887654304504394531e+00) (4, 2.48773264884948730469e+00) (5, -3.88622689247131347656e+00) (6, 1.32176351547241210938e+00) (7, 8.65128278732299804688e-01) (8, 1.76095533370971679688e+00) (9, 1.74851047992706298828e+00) (10, 6.89293146133422851562e-01) (11, 1.62042045593261718750e+00) (12, -4.64562892913818359375e+00) (13, 8.84978353977203369141e-01) (14, -2.06945610046386718750e+00) (15, 2.05575037002563476562e+00) (16, -4.31699365377426147461e-01) (17, -1.95489633083343505859e+00) (18, 4.19768095016479492188e+00) (19, -1.20458757877349853516e+00) (20, -3.61612486839294433594e+00) (21, -5.05505919456481933594e-01) (22, -3.29520970582962036133e-01) (23, 2.84488868713378906250e+00) (24, -4.15539550781250000000e+00) (25, -6.49353802204132080078e-01) (26, 4.26391601562500000000e+00) (27, 4.82102185487747192383e-01) (28, -7.48651444911956787109e-01) (29, 3.71478497982025146484e-01) (30, 1.38985145092010498047e+00) (31, 5.56064271926879882812e+00) (32, -3.94515067338943481445e-01) (33, 1.46388983726501464844e+00) (34, 4.05231416225433349609e-02) (0, -1.17329500615596771240e-01) (1, 1.60768508911132812500e-01) (2, -7.68030345439910888672e-01) (3, 1.15953207015991210938e+00) (4, 2.69990229606628417969e+00) (5, -2.53312659263610839844e+00) (6, 2.35667109489440917969e+00) (7, 1.01035639643669128418e-01) (8, 3.43022966384887695312e+00) (9, 6.85449004173278808594e-01) (10, -3.77182126045227050781e+00) (11, 8.85498404502868652344e-01) (12, -2.78383064270019531250e+00) (13, 2.69267296791076660156e+00) (14, -3.41502904891967773438e-01) (15, 4.92077142000198364258e-01) (16, 2.86049532890319824219e+00) (17, 2.69250726699829101562e+00) (18, -3.70711398124694824219e+00) (19, -1.33672273159027099609e+00) (20, -1.16166305541992187500e+00) (21, -2.32976126670837402344e+00) (22, -4.90406334400177001953e-01) (23, 9.00135219097137451172e-01) (24, -1.12773060798645019531e+00) (25, 4.20221030712127685547e-01) (26, -3.34750747680664062500e+00) (27, 1.00919175148010253906e+00) (28, 2.02631402015686035156e+00) (29, -2.66227602958679199219e+00) (30, -1.59249293804168701172e+00) (31, 6.85045361518859863281e-01) (32, -3.38463157415390014648e-01) (33, -1.38287350535392761230e-01) (34, -9.28281009197235107422e-01) (0, 2.48159646987915039062e+00) (1, 2.90500116348266601562e+00) (2, 2.35031247138977050781e+00) (3, 1.39383882284164428711e-01) (4, 3.11332553625106811523e-01) (5, -9.53105807304382324219e-01) (6, -3.73096615076065063477e-01) (7, 3.16937589645385742188e+00) (8, -2.06549167633056640625e+00) (9, -3.67644476890563964844e+00) (10, 9.51625049114227294922e-01) (11, 4.20678901672363281250e+00) (12, -8.47717702388763427734e-01) (13, -4.60361099243164062500e+00) (14, 3.19797468185424804688e+00) (15, 2.38116905093193054199e-01) (16, -4.70927983522415161133e-01) (17, -1.56701827049255371094e+00) (18, 1.38079786300659179688e+00) (19, -2.18602597713470458984e-01) (20, 3.05793493986129760742e-01) (21, 3.40684247016906738281e+00) (22, 5.85716485977172851562e-01) (23, 2.40224909782409667969e+00) (24, 1.03396689891815185547e+00) (25, -2.18611025810241699219e+00) (26, 1.11004495620727539062e+00) (27, -1.05356657505035400391e+00) (28, -2.12132549285888671875e+00) (29, 1.55534207820892333984e+00) (30, 2.24724030494689941406e+00) (31, -3.83800745010375976562e+00) (32, 8.99303019046783447266e-01) (33, -1.23944723606109619141e+00) (34, 3.14410813152790069580e-02) (0, 2.53987503051757812500e+00) (1, -1.96630671620368957520e-01) (2, -1.83420836925506591797e-01) (3, -1.99448108673095703125e+00) (4, 1.12640166282653808594e+00) (5, -5.19708108901977539062e+00) (6, -2.33904194831848144531e+00) (7, 1.20451414585113525391e+00) (8, 3.65686178207397460938e+00) (9, -3.48459315299987792969e+00) (10, 3.14131283760070800781e+00) (11, -3.43285655975341796875e+00) (12, 6.91130578517913818359e-01) (13, 1.08578908443450927734e+00) (14, 1.63614466786384582520e-01) (15, 1.14977097511291503906e+00) (16, 2.23236393928527832031e+00) (17, 6.20406806468963623047e-01) (18, 5.02085924148559570312e-01) (19, -2.11891770362854003906e+00) (20, -1.41359460353851318359e+00) (21, -3.06392288208007812500e+00) (22, -2.09594058990478515625e+00) (23, 3.03587484359741210938e+00) (24, 4.30860042572021484375e+00) (25, 1.55373826622962951660e-01) (26, -3.64752840995788574219e+00) (27, -2.29530119895935058594e+00) (28, 6.76267862319946289062e-01) (29, 3.64143633842468261719e+00) (30, 1.74210524559020996094e+00) (31, 3.83638429641723632812e+00) (32, 1.82786345481872558594e+00) (33, -6.01920938491821289062e+00) (34, -3.45696091651916503906e-01) (0, -6.57721042633056640625e+00) (1, -2.70810461044311523438e+00) (2, 2.54582786560058593750e+00) (3, -1.07570695877075195312e+00) (4, -4.82074022293090820312e-01) (5, 1.35820314288139343262e-01) (6, 1.04753828048706054688e+00) (7, -2.41315230727195739746e-01) (8, -2.27908563613891601562e+00) (9, -4.95925855636596679688e+00) (10, -1.45635259151458740234e+00) (11, -2.31085395812988281250e+00) (12, 1.50241947174072265625e+00) (13, -1.56383109092712402344e+00) (14, -5.28136849403381347656e-01) (15, -2.72675782442092895508e-01) (16, -4.20827770233154296875e+00) (17, 8.68945956230163574219e-01) (18, -1.86427265405654907227e-01) (19, -2.39991977810859680176e-01) (20, 4.05432081222534179688e+00) (21, 2.89346426725387573242e-01) (22, 8.65239262580871582031e-01) (23, -1.47275137901306152344e+00) (24, 1.43280267715454101562e+00) (25, -1.39486658573150634766e+00) (26, 1.44049000740051269531e+00) (27, -5.84273624420166015625e+00) (28, 2.27446651458740234375e+00) (29, -2.15070986747741699219e+00) (30, 1.75083422660827636719e+00) (31, 2.24440765380859375000e+00) (32, 4.99889755249023437500e+00) (33, 4.47433757781982421875e+00) (34, -1.15601682662963867188e+00) (0, 6.00276947021484375000e-01) (1, 2.84217566251754760742e-01) (2, -2.42786717414855957031e+00) (3, 7.44742061942815780640e-03) (4, -1.14296555519104003906e+00) (5, -8.66456699371337890625e+00) (6, -1.23358583450317382812e+00) (7, 1.41779720783233642578e-01) (8, -2.34304577112197875977e-01) (9, -2.49789190292358398438e+00) (10, -1.25495171546936035156e+00) (11, 3.10204654932022094727e-01) (12, 1.15048646926879882812e+00) (13, 2.16264152526855468750e+00) (14, -2.00519251823425292969e+00) (15, 6.11323833465576171875e-01) (16, -2.30958089232444763184e-01) (17, -3.26356840133666992188e+00) (18, 1.41912603378295898438e+00) (19, -1.45531386137008666992e-01) (20, 9.92808043956756591797e-01) (21, 9.14932906627655029297e-01) (22, 6.52930319309234619141e-01) (23, -1.90422797203063964844e+00) (24, 5.70372223854064941406e-01) (25, -1.89021241664886474609e+00) (26, -3.04861593246459960938e+00) (27, -1.54908388853073120117e-01) (28, -3.22144293785095214844e+00) (29, 5.76812922954559326172e-01) (30, 4.79576492309570312500e+00) (31, -7.83538877964019775391e-01) (32, -2.04285526275634765625e+00) (33, -1.17473483085632324219e+00) (34, 6.80896818637847900391e-01) (0, -6.64361810684204101562e+00) (1, 1.60605275630950927734e+00) (2, 6.13084363937377929688e+00) (3, -8.07449370622634887695e-02) (4, 1.29171001911163330078e+00) (5, 6.68621063232421875000e+00) (6, 2.35921546816825866699e-01) (7, -2.49668884277343750000e+00) (8, 2.43609488010406494141e-01) (9, 7.38725519180297851562e+00) (10, 1.72048187255859375000e+00) (11, -7.14011251926422119141e-01) (12, 3.07230615615844726562e+00) (13, 1.08012914657592773438e+00) (14, 1.27916502952575683594e+00) (15, 5.23209609091281890869e-02) (16, 1.14094662666320800781e+00) (17, -6.64315879344940185547e-01) (18, 4.07807970046997070312e+00) (19, -1.09463527798652648926e-01) (20, 6.18025422096252441406e-01) (21, -8.80307197570800781250e-01) (22, 3.54521512985229492188e+00) (23, -1.11793315410614013672e+00) (24, -9.15090620517730712891e-01) (25, 2.96579575538635253906e+00) (26, 4.57622337341308593750e+00) (27, 1.16514050960540771484e+00) (28, 9.24654379487037658691e-02) (29, -3.72631460428237915039e-01) (30, 2.08433941006660461426e-01) (31, -9.19019341468811035156e-01) (32, -1.25289201736450195312e+00) (33, 3.37204623222351074219e+00) (34, -1.68425834178924560547e+00) (0, 9.40393567085266113281e-01) (1, -1.79823029041290283203e+00) (2, 1.39731705188751220703e+00) (3, -2.68424367904663085938e+00) (4, -1.34183609485626220703e+00) (5, 3.50861096382141113281e+00) (6, -2.09922313690185546875e+00) (7, -4.17015838623046875000e+00) (8, -3.88503265380859375000e+00) (9, -4.13237476348876953125e+00) (10, 9.67134296894073486328e-01) (11, -5.08036136627197265625e+00) (12, -9.01680827140808105469e-01) (13, 2.11919283866882324219e+00) (14, -8.50631809234619140625e+00) (15, 4.56195259094238281250e+00) (16, 9.88649666309356689453e-01) (17, -3.50295066833496093750e+00) (18, 1.88740408420562744141e+00) (19, 4.15134143829345703125e+00) (20, -2.32086873054504394531e+00) (21, 2.61985015869140625000e+00) (22, 1.54430258274078369141e+00) (23, -6.62708806991577148438e+00) (24, -1.94968253374099731445e-01) (25, 4.15287113189697265625e+00) (26, 1.24320602416992187500e+00) (27, -1.71538019180297851562e+00) (28, 4.95895415544509887695e-01) (29, 8.17356705665588378906e-01) (30, 4.64262676239013671875e+00) (31, -1.74655234813690185547e+00) (32, -3.68334442377090454102e-01) (33, -1.90980291366577148438e+00) (34, -1.91478979587554931641e+00) (0, -1.67581570148468017578e+00) (1, 1.26576447486877441406e+00) (2, 1.15217137336730957031e+00) (3, 1.10028040409088134766e+00) (4, 6.24587774276733398438e-01) (5, -7.40475606918334960938e+00) (6, -1.40610110759735107422e+00) (7, 2.34890198707580566406e+00) (8, 1.94430887699127197266e-01) (9, -2.73187828063964843750e+00) (10, -3.47741174697875976562e+00) (11, -1.14289402961730957031e+00) (12, -1.51604866981506347656e+00) (13, 8.48460018634796142578e-01) (14, -4.40449857711791992188e+00) (15, 9.95479598641395568848e-02) (16, 2.14492416381835937500e+00) (17, 1.74475169181823730469e+00) (18, -8.62328886985778808594e-01) (19, 1.40265047550201416016e+00) (20, -6.86063051223754882812e-01) (21, -8.38490784168243408203e-01) (22, -2.08494853973388671875e+00) (23, 1.19964468479156494141e+00) (24, 1.72666907310485839844e+00) (25, -4.49238252639770507812e+00) (26, 1.75153446197509765625e+00) (27, -3.08210039138793945312e+00) (28, 1.38579094409942626953e+00) (29, -1.17639076709747314453e+00) (30, -1.30446529388427734375e+00) (31, -2.47750043869018554688e+00) (32, -1.95338201522827148438e+00) (33, 6.64581239223480224609e-01) (34, -4.70393896102905273438e+00) (0, 1.65183675289154052734e+00) (1, 1.22612702846527099609e+00) (2, 1.67360150814056396484e+00) (3, 2.85333228111267089844e+00) (4, 4.51155853271484375000e+00) (5, 6.78361558914184570312e+00) (6, 1.23149144649505615234e+00) (7, 4.00284719467163085938e+00) (8, 2.90361583232879638672e-01) (9, 7.95610713958740234375e+00) (10, 7.02508306503295898438e+00) (11, 2.38650369644165039062e+00) (12, 3.10596871376037597656e+00) (13, -3.99554634094238281250e+00) (14, 6.89387702941894531250e+00) (15, 1.43564537167549133301e-01) (16, -2.70900428295135498047e-01) (17, 4.66906428337097167969e-01) (18, -7.04046821594238281250e+00) (19, 1.63811128586530685425e-02) (20, -1.50774908065795898438e+00) (21, -6.63883745670318603516e-01) (22, 6.91016137599945068359e-01) (23, -6.40588140487670898438e+00) (24, 6.40024614334106445312e+00) (25, 3.66171526908874511719e+00) (26, 9.91170465946197509766e-01) (27, -1.90440106391906738281e+00) (28, -1.06781113147735595703e+00) (29, 1.64104855060577392578e+00) (30, -3.24807852506637573242e-01) (31, 2.60956954956054687500e+00) (32, 1.98313093185424804688e+00) (33, 1.31632834672927856445e-02) (34, 1.80719241499900817871e-01) (0, 1.42329680919647216797e+00) (1, 6.02707087993621826172e-01) (2, 2.76824784278869628906e+00) (3, -2.35424351692199707031e+00) (4, 1.47650206089019775391e+00) (5, 1.57661545276641845703e+00) (6, -2.04304552078247070312e+00) (7, -3.69807267189025878906e+00) (8, -1.57994878292083740234e+00) (9, 1.86635112762451171875e+00) (10, -1.68365669250488281250e+00) (11, 3.07619869709014892578e-01) (12, -3.98775768280029296875e+00) (13, 2.10356879234313964844e+00) (14, -1.84029594063758850098e-01) (15, 6.43955588340759277344e-01) (16, 5.89693248271942138672e-01) (17, 2.36268472671508789062e+00) (18, 3.74693870544433593750e+00) (19, -3.77597355842590332031e+00) (20, -6.27477884292602539062e+00) (21, -2.82045960426330566406e+00) (22, 1.19139277935028076172e+00) (23, 1.39547836780548095703e+00) (24, 1.96950149536132812500e+00) (25, 8.42757642269134521484e-01) (26, -2.44358256459236145020e-01) (27, -1.87296509742736816406e+00) (28, -5.97922146320343017578e-01) (29, -2.75854730606079101562e+00) (30, -2.14995670318603515625e+00) (31, 2.52474141120910644531e+00) (32, -1.54075479507446289062e+00) (33, -2.76495909690856933594e+00) (34, -2.47071504592895507812e+00) (0, 4.77947807312011718750e+00) (1, -6.40240907669067382812e-02) (2, 2.01270747184753417969e+00) (3, 5.64068257808685302734e-01) (4, 1.53623974323272705078e+00) (5, 1.87563884258270263672e+00) (6, -7.72374868392944335938e+00) (7, 3.14476299285888671875e+00) (8, -6.35299015045166015625e+00) (9, -3.32617139816284179688e+00) (10, 2.66109037399291992188e+00) (11, 1.51680839061737060547e+00) (12, 3.47523880004882812500e+00) (13, 1.05625295639038085938e+00) (14, 8.30683326721191406250e+00) (15, -2.07344317436218261719e+00) (16, 2.82288146018981933594e+00) (17, -1.58284544944763183594e+00) (18, 2.77769684791564941406e-01) (19, -8.50259244441986083984e-01) (20, 2.08651900291442871094e+00) (21, -2.39571619033813476562e+00) (22, -2.01889681816101074219e+00) (23, -1.06582391262054443359e+00) (24, -4.74065184593200683594e-01) (25, 3.02170276641845703125e+00) (26, -3.17152142524719238281e-01) (27, 2.59266781806945800781e+00) (28, -1.64172977209091186523e-01) (29, 2.12084817886352539062e+00) (30, -8.01209568977355957031e-01) (31, 6.44134223461151123047e-01) (32, -8.45310747623443603516e-01) (33, -1.63498258590698242188e+00) (34, -4.03883743286132812500e+00) (35, 6.60096740722656250000e+00) (36, 1.45573472976684570312e+00) (37, 2.81221985816955566406e-01) (38, 2.56779384613037109375e+00) (39, -2.34823322296142578125e+00) (40, -4.29197120666503906250e+00) (41, 4.31621265411376953125e+00) (42, 4.24970960617065429688e+00) (43, 2.32805967330932617188e+00) (44, 2.05176210403442382812e+00) (45, -4.67631864547729492188e+00) (46, 1.94526004791259765625e+00) (47, 2.38324284553527832031e+00) (48, 4.81293296813964843750e+00) (49, 7.19981479644775390625e+00) (50, -2.58071994781494140625e+00) (51, -3.89129686355590820312e+00) (52, 3.76380197703838348389e-02) (53, -6.73984432220458984375e+00) (54, 6.88247442245483398438e-01) (55, -2.23370575904846191406e+00) (56, -1.35132992267608642578e+00) (57, -1.78129625320434570312e+00) (58, -6.71988916397094726562e+00) (59, -8.30204391479492187500e+00) (60, 2.51417088508605957031e+00) (61, 8.17557394504547119141e-01) (62, -3.77956795692443847656e+00) (63, 5.68955755233764648438e+00) (64, 1.63667142391204833984e+00) (65, -1.96236205101013183594e+00) (66, -1.21331900358200073242e-01) (67, -1.62694722414016723633e-01) (35, -1.08510935306549072266e+00) (36, 1.00634038448333740234e+00) (37, -7.40318250656127929688e+00) (38, -5.26362562179565429688e+00) (39, 7.10053586959838867188e+00) (40, 2.37424874305725097656e+00) (41, -3.58803200721740722656e+00) (42, 3.58116805553436279297e-01) (43, 1.75249230861663818359e+00) (44, 1.58646810054779052734e+00) (45, -1.33777886629104614258e-01) (46, -5.16205406188964843750e+00) (47, -5.88629817962646484375e+00) (48, -1.03995800018310546875e+00) (49, -4.90177106857299804688e+00) (50, 6.00938129425048828125e+00) (51, 6.81480312347412109375e+00) (52, -4.15162372589111328125e+00) (53, 1.16305184364318847656e+00) (54, 5.86735582351684570312e+00) (55, -2.62184286117553710938e+00) (56, 1.71641156077384948730e-01) (57, -2.04535990953445434570e-01) (58, 2.74813437461853027344e+00) (59, 4.49015045166015625000e+00) (60, -3.17194509506225585938e+00) (61, 1.95089906454086303711e-01) (62, 1.27985823154449462891e+00) (63, -2.29221105575561523438e+00) (64, -2.32294702529907226562e+00) (65, -3.87100338935852050781e+00) (66, 2.09266567230224609375e+00) (67, 4.14519160985946655273e-02) (35, -2.45156335830688476562e+00) (36, 5.54429352283477783203e-01) (37, 8.03575706481933593750e+00) (38, 2.86857843399047851562e+00) (39, -7.71922349929809570312e+00) (40, 2.28930163383483886719e+00) (41, -3.16628694534301757812e+00) (42, 1.19108874350786209106e-02) (43, -8.68738740682601928711e-02) (44, -2.51615673303604125977e-01) (45, 3.60771203041076660156e+00) (46, 3.83398604393005371094e+00) (47, 2.37014770507812500000e+00) (48, -3.55436468124389648438e+00) (49, -4.43311500549316406250e+00) (50, -3.13751482963562011719e+00) (51, 4.26904469728469848633e-01) (52, 1.56439340114593505859e+00) (53, 4.87600088119506835938e+00) (54, -5.49234342575073242188e+00) (55, 6.58444452285766601562e+00) (56, -5.61610317230224609375e+00) (57, -3.37275218963623046875e+00) (58, 1.20877516269683837891e+00) (59, 1.72478818893432617188e+00) (60, 1.37368512153625488281e+00) (61, -6.06593179702758789062e+00) (62, 4.80060815811157226562e-01) (63, -3.58171916007995605469e+00) (64, -2.43429112434387207031e+00) (65, -4.71756681799888610840e-02) (66, -3.85952687263488769531e+00) (67, -1.23759217560291290283e-01) (35, -5.59070587158203125000e+00) (36, -6.89889669418334960938e+00) (37, -9.33180928230285644531e-01) (38, 1.01225864887237548828e+00) (39, 4.53139215707778930664e-01) (40, -2.14051365852355957031e-01) (41, 2.22882533073425292969e+00) (42, -7.20392990112304687500e+00) (43, -7.44456338882446289062e+00) (44, -7.30546998977661132812e+00) (45, 3.33926558494567871094e-01) (46, -8.79857420921325683594e-01) (47, 1.38223981857299804688e+00) (48, -1.99347841739654541016e+00) (49, -9.04698371887207031250e-01) (50, -2.90404772758483886719e+00) (51, -1.32629501819610595703e+00) (52, 6.74238950014114379883e-02) (53, 9.50101256370544433594e-01) (54, -4.49886417388916015625e+00) (55, -3.08448076248168945312e+00) (56, 7.66546535491943359375e+00) (57, 7.04420757293701171875e+00) (58, 2.28570914268493652344e+00) (59, 7.86922633647918701172e-01) (60, -5.97144460678100585938e+00) (61, 1.89618611335754394531e+00) (62, 5.90082979202270507812e+00) (63, -1.86554360389709472656e+00) (64, 4.84281873703002929688e+00) (65, 7.44811916351318359375e+00) (66, 1.33974754810333251953e+00) (67, 8.42998847365379333496e-02) 
