FANN_FLO_2.1
num_layers=3
learning_rate=0.010000
connection_rate=1.000000
network_type=0
learning_momentum=0.000000
training_algorithm=2
train_error_function=1
train_stop_function=0
cascade_output_change_fraction=0.010000
quickprop_decay=-0.000100
quickprop_mu=1.750000
rprop_increase_factor=1.200000
rprop_decrease_factor=0.500000
rprop_delta_min=0.000000
rprop_delta_max=50.000000
rprop_delta_zero=0.100000
cascade_output_stagnation_epochs=12
cascade_candidate_change_fraction=0.010000
cascade_candidate_stagnation_epochs=12
cascade_max_out_epochs=150
cascade_min_out_epochs=50
cascade_max_cand_epochs=150
cascade_min_cand_epochs=50
cascade_num_candidate_groups=2
bit_fail_limit=3.49999994039535522461e-01
cascade_candidate_limit=1.00000000000000000000e+03
cascade_weight_multiplier=4.00000005960464477539e-01
cascade_activation_functions_count=10
cascade_activation_functions=3 5 7 8 10 11 14 15 16 17 
cascade_activation_steepnesses_count=4
cascade_activation_steepnesses=2.50000000000000000000e-01 5.00000000000000000000e-01 7.50000000000000000000e-01 1.00000000000000000000e+00 
layer_sizes=35 33 5 
scale_included=0
neurons (num_inputs, activation_function, activation_steepness)=(0, 0, 0.00000000000000000000e+00) (0, 0, 0.00000000000000000000e+00) (0, 0, 0.00000000000000000000e+00) (0, 0, 0.00000000000000000000e+00) (0, 0, 0.00000000000000000000e+00) (0, 0, 0.00000000000000000000e+00) (0, 0, 0.00000000000000000000e+00) (0, 0, 0.00000000000000000000e+00) (0, 0, 0.00000000000000000000e+00) (0, 0, 0.00000000000000000000e+00) (0, 0, 0.00000000000000000000e+00) (0, 0, 0.00000000000000000000e+00) (0, 0, 0.00000000000000000000e+00) (0, 0, 0.00000000000000000000e+00) (0, 0, 0.00000000000000000000e+00) (0, 0, 0.00000000000000000000e+00) (0, 0, 0.00000000000000000000e+00) (0, 0, 0.00000000000000000000e+00) (0, 0, 0.00000000000000000000e+00) (0, 0, 0.00000000000000000000e+00) (0, 0, 0.00000000000000000000e+00) (0, 0, 0.00000000000000000000e+00) (0, 0, 0.00000000000000000000e+00) (0, 0, 0.00000000000000000000e+00) (0, 0, 0.00000000000000000000e+00) (0, 0, 0.00000000000000000000e+00) (0, 0, 0.00000000000000000000e+00) (0, 0, 0.00000000000000000000e+00) (0, 0, 0.00000000000000000000e+00) (0, 0, 0.00000000000000000000e+00) (0, 0, 0.00000000000000000000e+00) (0, 0, 0.00000000000000000000e+00) (0, 0, 0.00000000000000000000e+00) (0, 0, 0.00000000000000000000e+00) (0, 0, 0.00000000000000000000e+00) (35, 3, 5.00000000000000000000e-01) (35, 3, 5.00000000000000000000e-01) (35, 3, 5.00000000000000000000e-01) (35, 3, 5.00000000000000000000e-01) (35, 3, 5.00000000000000000000e-01) (35, 3, 5.00000000000000000000e-01) (35, 3, 5.00000000000000000000e-01) (35, 3, 5.00000000000000000000e-01) (35, 3, 5.00000000000000000000e-01) (35, 3, 5.00000000000000000000e-01) (35, 3, 5.00000000000000000000e-01) (35, 3, 5.00000000000000000000e-01) (35, 3, 5.00000000000000000000e-01) (35, 3, 5.00000000000000000000e-01) (35, 3, 5.00000000000000000000e-01) (35, 3, 5.00000000000000000000e-01) (35, 3, 5.00000000000000000000e-01) (35, 3, 5.00000000000000000000e-01) (35, 3, 5.00000000000000000000e-01) (35, 3, 5.00000000000000000000e-01) (35, 3, 5.00000000000000000000e-01) (35, 3, 5.00000000000000000000e-01) (35, 3, 5.00000000000000000000e-01) (35, 3, 5.00000000000000000000e-01) (35, 3, 5.00000000000000000000e-01) (35, 3, 5.00000000000000000000e-01) (35, 3, 5.00000000000000000000e-01) (35, 3, 5.00000000000000000000e-01) (35, 3, 5.00000000000000000000e-01) (35, 3, 5.00000000000000000000e-01) (35, 3, 5.00000000000000000000e-01) (35, 3, 5.00000000000000000000e-01) (0, 3, 0.00000000000000000000e+00) (33, 3, 5.00000000000000000000e-01) (33, 3, 5.00000000000000000000e-01) (33, 3, 5.00000000000000000000e-01) (33, 3, 5.00000000000000000000e-01) (0, 3, 0.00000000000000000000e+00) 
connections (connected_to_neuron, weight)=(0, 9.08906012773513793945e-02) (1, 1.52660056948661804199e-01) (2, 2.00477147102355957031e+00) (3, -3.98000895977020263672e-01) (4, 1.32113233208656311035e-01) (5, 2.66863751411437988281e+00) (6, 1.23421025276184082031e+00) (7, 6.62514507770538330078e-01) (8, 8.80598247051239013672e-01) (9, 1.79124593734741210938e+00) (10, 1.98183572292327880859e+00) (11, 1.95901894569396972656e+00) (12, -2.83496141433715820312e-01) (13, 1.26529753208160400391e+00) (14, 1.76288962364196777344e+00) (15, -1.35631692409515380859e+00) (16, 8.93447458744049072266e-01) (17, 9.03409540653228759766e-01) (18, -5.42218863964080810547e-01) (19, -2.04402899742126464844e+00) (20, -1.32835805416107177734e+00) (21, -1.21383571624755859375e+00) (22, 4.50794398784637451172e-01) (23, -7.01536536216735839844e-02) (24, 1.94194841384887695312e+00) (25, 2.97993540763854980469e-01) (26, 2.65458059310913085938e+00) (27, -1.05452644824981689453e+00) (28, 7.21500396728515625000e-01) (29, -5.76725423336029052734e-01) (30, 1.62517476081848144531e+00) (31, -1.97893768548965454102e-01) (32, 9.24444377422332763672e-01) (33, 1.04410982131958007812e+00) (34, -5.81374740600585937500e+00) (0, 7.43766009807586669922e-01) (1, -4.28487807512283325195e-01) (2, 2.56026268005371093750e-01) (3, 5.76004934310913085938e+00) (4, 7.31116712093353271484e-01) (5, 7.59777247905731201172e-01) (6, -5.29363632202148437500e+00) (7, 1.62882375717163085938e+00) (8, -4.95991373062133789062e+00) (9, 1.41394734382629394531e+00) (10, -6.39514997601509094238e-02) (11, 5.02066898345947265625e+00) (12, 1.00835132598876953125e+00) (13, 2.01644396781921386719e+00) (14, 2.19203400611877441406e+00) (15, -1.23701190948486328125e+00) (16, -1.80879020690917968750e+00) (17, 3.83809626102447509766e-01) (18, -2.00493144989013671875e+00) (19, 5.58646059036254882812e+00) (20, -1.99280881881713867188e+00) (21, 6.63964867591857910156e-01) (22, -5.41682541370391845703e-01) (23, -3.84409874677658081055e-01) (24, -5.20705401897430419922e-01) (25, 1.64062333106994628906e+00) (26, 1.55882585048675537109e+00) (27, 3.20518732070922851562e+00) (28, -4.41562128067016601562e+00) (29, 9.84448671340942382812e-01) (30, 2.00491890311241149902e-01) (31, 5.74326419830322265625e+00) (32, 1.40655050277709960938e+01) (33, 3.79799246788024902344e+00) (34, -2.65278100967407226562e+00) (0, -4.65003013610839843750e+00) (1, -3.50205278396606445312e+00) (2, -2.90351653099060058594e+00) (3, 7.76508092880249023438e-01) (4, 4.16970551013946533203e-01) (5, 7.29630112648010253906e-01) (6, 1.18730276823043823242e-01) (7, 2.83105230331420898438e+00) (8, 5.95673131942749023438e+00) (9, -1.05052816867828369141e+00) (10, -6.97433233261108398438e+00) (11, 1.82302284240722656250e+00) (12, -9.01395231485366821289e-02) (13, 2.10941720008850097656e+00) (14, -5.07099092006683349609e-01) (15, 2.67939835786819458008e-01) (16, 3.52167320251464843750e+00) (17, 3.09631252288818359375e+00) (18, -4.95019102096557617188e+00) (19, -5.23535907268524169922e-01) (20, -3.02654981613159179688e+00) (21, -2.80984210968017578125e+00) (22, -1.72389686107635498047e+00) (23, 1.30111217498779296875e+00) (24, 1.66686010360717773438e+00) (25, 6.14999175071716308594e-01) (26, 1.74393400549888610840e-01) (27, -4.92683082818984985352e-01) (28, 1.31994619965553283691e-01) (29, -4.09786033630371093750e+00) (30, 1.66826117038726806641e+00) (31, -3.79047536849975585938e+00) (32, 3.24473094940185546875e+00) (33, -1.18633913993835449219e+00) (34, -5.57322800159454345703e-01) (0, -2.15692043304443359375e+00) (1, 1.91523134708404541016e+00) (2, 2.09484592080116271973e-01) (3, 1.99040389060974121094e+00) (4, 1.78021684288978576660e-01) (5, 1.25262701511383056641e+00) (6, -1.99969112873077392578e+00) (7, -2.61514931917190551758e-01) (8, 3.39559048414230346680e-01) (9, -7.73444354534149169922e-01) (10, 1.33401525020599365234e+00) (11, 1.58427524566650390625e+00) (12, -1.75856709480285644531e+00) (13, 1.82750368118286132812e+00) (14, -5.15443265438079833984e-01) (15, 3.20190399885177612305e-01) (16, 5.15810191631317138672e-01) (17, 3.38958358764648437500e+00) (18, -1.75194725394248962402e-01) (19, 3.82773816585540771484e-01) (20, 1.34788191318511962891e+00) (21, -4.11781978607177734375e+00) (22, -9.96385633945465087891e-01) (23, 5.75442266464233398438e+00) (24, -9.54355657100677490234e-01) (25, -6.61979675292968750000e-01) (26, 3.00532788038253784180e-01) (27, -2.35502219200134277344e+00) (28, -2.63937902450561523438e+00) (29, -3.21472668647766113281e+00) (30, 9.72344517707824707031e-01) (31, -4.79029715061187744141e-01) (32, 2.49212905764579772949e-01) (33, 1.33285331726074218750e+00) (34, -4.57559257745742797852e-01) (0, 4.00393903255462646484e-02) (1, -1.21617603302001953125e+00) (2, 1.66570007801055908203e+00) (3, -2.63650417327880859375e+00) (4, 8.44180583953857421875e-01) (5, 3.88873189687728881836e-01) (6, 7.58049070835113525391e-01) (7, 8.58693718910217285156e-02) (8, 1.75120997428894042969e+00) (9, -2.47638201713562011719e+00) (10, 2.85367107391357421875e+00) (11, 2.75959044694900512695e-01) (12, -6.11242651939392089844e-01) (13, 1.72281312942504882812e+00) (14, 9.18386399745941162109e-01) (15, 3.02762448787689208984e-01) (16, 7.46040940284729003906e-01) (17, 3.29410600662231445312e+00) (18, 2.33922052383422851562e+00) (19, 2.04060244560241699219e+00) (20, -2.73647427558898925781e-01) (21, -1.40423595905303955078e+00) (22, -2.21670717000961303711e-01) (23, 1.21398556232452392578e+00) (24, 1.62241816520690917969e+00) (25, -3.55283665657043457031e+00) (26, 2.63379430770874023438e+00) (27, -4.74394232034683227539e-01) (28, 4.35757219791412353516e-01) (29, -3.35921704769134521484e-01) (30, 5.01112163066864013672e-01) (31, -2.40954446792602539062e+00) (32, 1.96019113063812255859e-01) (33, -4.48543608188629150391e-01) (34, -1.16919052600860595703e+00) (0, 3.96401453018188476562e+00) (1, -5.67634284496307373047e-01) (2, 1.49191296100616455078e+00) (3, 1.58902239799499511719e+00) (4, 6.41881227493286132812e-01) (5, -2.42232370376586914062e+00) (6, -9.40005123615264892578e-01) (7, -4.65323746204376220703e-01) (8, -1.21669375896453857422e+00) (9, 2.07828497886657714844e+00) (10, 3.57613992691040039062e+00) (11, 2.10266971588134765625e+00) (12, -1.15061724185943603516e+00) (13, 1.00804853439331054688e+00) (14, -2.57664418220520019531e+00) (15, 2.00880646705627441406e+00) (16, 4.11156147718429565430e-01) (17, -2.26604294776916503906e+00) (18, -3.32901024818420410156e+00) (19, 1.23691737651824951172e+00) (20, 5.40667724609375000000e+00) (21, -4.17764425277709960938e+00) (22, -1.31243658065795898438e+00) (23, 5.88527822494506835938e+00) (24, -1.72477078437805175781e+00) (25, -3.43365621566772460938e+00) (26, -4.91161012649536132812e+00) (27, -1.60663378238677978516e+00) (28, 6.81964308023452758789e-02) (29, -7.89315998554229736328e-01) (30, 4.91411304473876953125e+00) (31, 2.27829909324645996094e+00) (32, 7.99749791622161865234e-01) (33, 1.96327701210975646973e-01) (34, -1.24516701698303222656e+00) (0, 1.13346862792968750000e+00) (1, 1.32177099585533142090e-02) (2, 9.77210104465484619141e-01) (3, 2.68228673934936523438e+00) (4, 4.04677331447601318359e-01) (5, 1.04952323436737060547e+00) (6, 7.15368688106536865234e-02) (7, 5.35202205181121826172e-01) (8, -2.11478996276855468750e+00) (9, 3.21348071098327636719e-01) (10, 7.11976718902587890625e+00) (11, 2.37200832366943359375e+00) (12, 4.03564739227294921875e+00) (13, 1.46457469463348388672e+00) (14, 6.32639217376708984375e+00) (15, 2.21818685531616210938e+00) (16, -1.56666374206542968750e+00) (17, -1.02107906341552734375e+00) (18, 9.76068615913391113281e-01) (19, 3.41374874114990234375e+00) (20, 4.37316685914993286133e-01) (21, 3.68150472640991210938e+00) (22, -2.02557854354381561279e-02) (23, -1.69816982746124267578e+00) (24, 1.10023593902587890625e+00) (25, 4.62529510259628295898e-01) (26, -1.31098222732543945312e+00) (27, -1.86391741037368774414e-01) (28, 4.57113176584243774414e-01) (29, -3.87004685401916503906e+00) (30, 5.86067867279052734375e+00) (31, 2.01166224479675292969e+00) (32, 6.45945692062377929688e+00) (33, -4.29457426071166992188e+00) (34, -1.80553913116455078125e+00) (0, -6.10136330127716064453e-01) (1, 2.95567297935485839844e+00) (2, -8.16059529781341552734e-01) (3, 3.16749072074890136719e+00) (4, -3.03254753351211547852e-01) (5, -3.06400942802429199219e+00) (6, 2.01048398017883300781e+00) (7, 1.08647394180297851562e+00) (8, -1.01157259941101074219e+00) (9, -3.48960220813751220703e-01) (10, 5.79215145111083984375e+00) (11, -1.30032277107238769531e+00) (12, -1.00342905521392822266e+00) (13, 4.59996747970581054688e+00) (14, 1.53278887271881103516e+00) (15, -2.06779909133911132812e+00) (16, 5.09164273738861083984e-01) (17, 1.30116915702819824219e+00) (18, -4.44260984659194946289e-01) (19, -1.05688488483428955078e+00) (20, 2.46263504028320312500e+00) (21, 1.60600423812866210938e+00) (22, -6.08050040900707244873e-02) (23, -1.11926400661468505859e+00) (24, -1.62964999675750732422e+00) (25, 2.92698073387145996094e+00) (26, -3.26019215583801269531e+00) (27, 1.15530037879943847656e+00) (28, 3.12887287139892578125e+00) (29, -2.25452971458435058594e+00) (30, 1.45077288150787353516e+00) (31, -1.78388965129852294922e+00) (32, 3.88989710807800292969e+00) (33, 5.32619535923004150391e-01) (34, -2.31555795669555664062e+00) (0, -2.77591133117675781250e+00) (1, -1.07680118083953857422e+00) (2, -2.73871481418609619141e-01) (3, 1.09761321544647216797e+00) (4, -1.16396915912628173828e+00) (5, -7.77808332443237304688e+00) (6, -3.12019991874694824219e+00) (7, 1.01258587837219238281e+00) (8, 2.67726969718933105469e+00) (9, -7.94622898101806640625e-01) (10, -2.46260476112365722656e+00) (11, -2.24256157875061035156e+00) (12, -1.43221330642700195312e+00) (13, 1.82323157787322998047e+00) (14, -2.64899992942810058594e+00) (15, 2.12616896629333496094e+00) (16, 6.89710080623626708984e-01) (17, 1.41596388816833496094e+00) (18, 2.08503222465515136719e+00) (19, 4.39837574958801269531e-01) (20, 3.18138885498046875000e+00) (21, -1.68760731816291809082e-01) (22, 2.60195088386535644531e+00) (23, -2.51124715805053710938e+00) (24, 5.19476950168609619141e-01) (25, -1.84539496898651123047e+00) (26, -9.28008377552032470703e-01) (27, -8.20762455463409423828e-01) (28, -9.99240458011627197266e-01) (29, -9.35335874557495117188e-01) (30, -1.22084522247314453125e+00) (31, 1.92228031158447265625e+00) (32, -4.51633310317993164062e+00) (33, -3.23321270942687988281e+00) (34, 1.60481894016265869141e+00) (0, 4.92200464010238647461e-01) (1, -4.48106303811073303223e-02) (2, 2.01593375205993652344e+00) (3, 9.83221292495727539062e-01) (4, -2.00204300880432128906e+00) (5, -4.60150527954101562500e+00) (6, 2.96831393241882324219e+00) (7, -1.21084749698638916016e+00) (8, -1.82057249546051025391e+00) (9, -3.24573421478271484375e+00) (10, -1.88983869552612304688e+00) (11, -9.73350167274475097656e-01) (12, 5.19934535026550292969e-01) (13, 4.17884588241577148438e-01) (14, -4.61184263229370117188e+00) (15, 4.26242202520370483398e-01) (16, 1.93759286403656005859e+00) (17, 2.82159662246704101562e+00) (18, 1.33059060573577880859e+00) (19, 5.46340465545654296875e-01) (20, 1.40028893947601318359e+00) (21, 3.72686773538589477539e-01) (22, -7.77689591050148010254e-02) (23, 1.83068192005157470703e+00) (24, -1.64739811420440673828e+00) (25, -6.03577852249145507812e+00) (26, 8.72854709625244140625e-01) (27, -4.29146319627761840820e-01) (28, 5.52771203219890594482e-02) (29, 1.31562188267707824707e-01) (30, 4.00069952011108398438e+00) (31, -8.72248053550720214844e-01) (32, 1.57379412651062011719e+00) (33, 7.26540505886077880859e-01) (34, -2.38855409622192382812e+00) (0, -5.51705360412597656250e-01) (1, -2.15520396828651428223e-01) (2, 8.76536965370178222656e-01) (3, -1.89083784818649291992e-01) (4, -3.10386800765991210938e+00) (5, -4.70795202255249023438e+00) (6, 3.63136339187622070312e+00) (7, -3.08619213104248046875e+00) (8, -2.73200702667236328125e+00) (9, -1.72714263200759887695e-01) (10, -2.07182288169860839844e+00) (11, 1.74220442771911621094e-01) (12, -4.49490261077880859375e+00) (13, 2.92013263702392578125e+00) (14, -1.78282952308654785156e+00) (15, -9.15092006325721740723e-02) (16, 7.35852658748626708984e-01) (17, 4.37212753295898437500e+00) (18, -6.44066905975341796875e+00) (19, 8.01241677254438400269e-03) (20, 4.29484769701957702637e-02) (21, -8.48965048789978027344e-01) (22, 5.19405722618103027344e-01) (23, 3.86652082204818725586e-01) (24, 3.05036753416061401367e-01) (25, 2.07033678889274597168e-01) (26, -2.17902708053588867188e+00) (27, -4.53557300567626953125e+00) (28, 2.16402369551360607147e-03) (29, -1.51649594306945800781e+00) (30, 2.89027720689773559570e-01) (31, 2.28790044784545898438e+00) (32, 4.31036472320556640625e+00) (33, -2.09599718451499938965e-01) (34, -3.78566336631774902344e+00) (0, 3.86450314521789550781e+00) (1, -3.52483320236206054688e+00) (2, 2.01168060302734375000e+00) (3, 6.65039360523223876953e-01) (4, 2.80310773849487304688e+00) (5, -1.46036341786384582520e-01) (6, -2.60074400901794433594e+00) (7, 1.92539465427398681641e+00) (8, 9.00793254375457763672e-01) (9, 5.16174614429473876953e-01) (10, 3.80504298210144042969e+00) (11, -1.54920077323913574219e+00) (12, 3.85023307800292968750e+00) (13, -6.25539302825927734375e-01) (14, -5.11064901947975158691e-02) (15, 2.42612099647521972656e+00) (16, -3.56612038612365722656e+00) (17, -9.10698056221008300781e-01) (18, -1.00428298115730285645e-01) (19, 4.29637098312377929688e+00) (20, 5.21486282348632812500e+00) (21, -8.98829042911529541016e-01) (22, 1.92999494075775146484e+00) (23, 1.90814769268035888672e+00) (24, -2.05131459236145019531e+00) (25, 2.78303362429141998291e-02) (26, 7.19610071182250976562e+00) (27, 6.88954889774322509766e-01) (28, 5.99151730537414550781e-01) (29, 4.34019899368286132812e+00) (30, 7.04938948154449462891e-01) (31, -1.84516334533691406250e+00) (32, 5.53955698013305664062e+00) (33, -3.51836323738098144531e-01) (34, 2.86006897687911987305e-01) (0, 5.89798033237457275391e-01) (1, -5.99009752273559570312e+00) (2, 2.45308780670166015625e+00) (3, -1.74230372905731201172e+00) (4, -6.57477498054504394531e-01) (5, 3.90160322189331054688e+00) (6, -9.00123238563537597656e-01) (7, 1.69075858592987060547e+00) (8, -1.49358069896697998047e+00) (9, 3.84149384498596191406e+00) (10, -1.06306374073028564453e+00) (11, 2.65204405784606933594e+00) (12, 1.75849959254264831543e-01) (13, 6.17802798748016357422e-01) (14, 4.90020543336868286133e-01) (15, 9.56435501575469970703e-01) (16, 1.47646605968475341797e+00) (17, 9.20398056507110595703e-01) (18, -6.01969212293624877930e-02) (19, -1.89168214797973632812e+00) (20, -4.04736137390136718750e+00) (21, 5.55360031127929687500e+00) (22, -4.19711399078369140625e+00) (23, 1.60889208316802978516e+00) (24, 2.34953141212463378906e+00) (25, 2.69645619392395019531e+00) (26, 1.89656889438629150391e+00) (27, -1.03436231613159179688e+00) (28, 3.46700572967529296875e+00) (29, -2.70571970939636230469e+00) (30, -1.05213654041290283203e+00) (31, 2.38998842239379882812e+00) (32, 6.20557451248168945312e+00) (33, 3.06787610054016113281e+00) (34, 1.28949260711669921875e+00) (0, 5.79371094703674316406e-01) (1, -2.43470191955566406250e+00) (2, 3.03368377685546875000e+00) (3, 6.72155046463012695312e+00) (4, 5.13987493515014648438e+00) (5, 4.11341810226440429688e+00) (6, 1.16462755203247070312e+00) (7, 3.21148657798767089844e+00) (8, 1.84881544113159179688e+00) (9, 1.57119405269622802734e+00) (10, 1.22037620544433593750e+01) (11, 8.72923374176025390625e-01) (12, 4.24952077865600585938e+00) (13, 1.45568692684173583984e+00) (14, 6.92301177978515625000e+00) (15, 3.32491827011108398438e+00) (16, 5.04674494266510009766e-01) (17, -2.36120700836181640625e+00) (18, 4.99227428436279296875e+00) (19, -1.86679327487945556641e+00) (20, -2.26384115219116210938e+00) (21, -1.47485697269439697266e+00) (22, 3.54169321060180664062e+00) (23, -2.41976529359817504883e-01) (24, -1.12380123138427734375e+00) (25, 5.44023394584655761719e-01) (26, 1.89726817607879638672e+00) (27, 7.89168357849121093750e-01) (28, -2.84408442676067352295e-02) (29, -1.21283233165740966797e+00) (30, -3.38769769668579101562e+00) (31, 3.33111596107482910156e+00) (32, 6.18994522094726562500e+00) (33, 1.13886356353759765625e+00) (34, 1.27303636074066162109e+00) (0, -1.06820166110992431641e+00) (1, -7.54375600814819335938e+00) (2, -3.88526290655136108398e-01) (3, 2.69576907157897949219e+00) (4, -3.93327045440673828125e+00) (5, -1.24693191051483154297e+00) (6, 2.76329255104064941406e+00) (7, 1.35259008407592773438e+00) (8, 2.52912831306457519531e+00) (9, 6.67087173461914062500e+00) (10, -1.76848351955413818359e+00) (11, -9.74950671195983886719e-01) (12, -4.40712833404541015625e+00) (13, 1.25166893005371093750e+00) (14, -7.18709468841552734375e-01) (15, 1.11231625080108642578e+00) (16, 1.95389121770858764648e-01) (17, -3.17825436592102050781e+00) (18, -1.27551422119140625000e+01) (19, 3.59785151481628417969e+00) (20, 2.03906133770942687988e-01) (21, -3.81798297166824340820e-01) (22, -1.09461843967437744141e+00) (23, -3.45539784431457519531e+00) (24, -8.33843648433685302734e-01) (25, -5.12995600700378417969e-01) (26, -8.69621932506561279297e-01) (27, -9.24369931221008300781e-01) (28, -1.64937067031860351562e+00) (29, 5.12053489685058593750e+00) (30, -1.09483695030212402344e+00) (31, -2.30333352088928222656e+00) (32, 1.24408967792987823486e-01) (33, 2.34195065498352050781e+00) (34, 1.57825660705566406250e+00) (0, -9.76650714874267578125e-01) (1, -2.65130162239074707031e-01) (2, -4.61268901824951171875e+00) (3, 1.49693459272384643555e-01) (4, -5.47918714582920074463e-02) (5, -1.84501171112060546875e+00) (6, -1.61264002323150634766e+00) (7, 1.49516856670379638672e+00) (8, 1.44016528129577636719e+00) (9, 2.51486063003540039062e+00) (10, -2.42352032661437988281e+00) (11, 7.02126455307006835938e+00) (12, 3.09049971401691436768e-02) (13, 2.62127113342285156250e+00) (14, 1.05917158126831054688e+01) (15, 7.46371793746948242188e+00) (16, 3.49918556213378906250e+00) (17, 3.27665615081787109375e+00) (18, 6.22566604614257812500e+00) (19, 1.09817594289779663086e-01) (20, -7.25707888603210449219e-01) (21, 2.51449203491210937500e+00) (22, 8.32824325561523437500e+00) (23, 3.69817137718200683594e+00) (24, -2.33224272727966308594e+00) (25, 6.05635881423950195312e-01) (26, -1.19831633567810058594e+00) (27, -3.85165721178054809570e-01) (28, -1.31016933917999267578e+00) (29, 6.11875712871551513672e-01) (30, 9.41972732543945312500e-01) (31, -1.31164383888244628906e+00) (32, 2.79619431495666503906e+00) (33, -6.94057524204254150391e-01) (34, -1.38455450534820556641e+00) (0, 1.41127765178680419922e+00) (1, 7.18021392822265625000e-02) (2, 3.36198538541793823242e-01) (3, 4.19831895828247070312e+00) (4, -6.98342680931091308594e-01) (5, -2.80212545394897460938e+00) (6, 2.94512584805488586426e-02) (7, 2.59180188179016113281e+00) (8, 4.55378007888793945312e+00) (9, -2.04923987388610839844e+00) (10, -5.28862571716308593750e+00) (11, 1.94191026687622070312e+00) (12, 1.40911781787872314453e+00) (13, 1.79289126396179199219e+00) (14, 3.86521506309509277344e+00) (15, 5.78491508960723876953e-01) (16, -1.65969109535217285156e+00) (17, 1.33177602291107177734e+00) (18, 1.06040799617767333984e+00) (19, -1.13611829280853271484e+00) (20, -3.83518719673156738281e+00) (21, -3.51994609832763671875e+00) (22, -3.13402414321899414062e-01) (23, 4.26682853698730468750e+00) (24, 1.90086054801940917969e+00) (25, 4.57480251789093017578e-01) (26, 1.76406383514404296875e+00) (27, -3.59081792831420898438e+00) (28, -2.30593061447143554688e+00) (29, 7.85345375537872314453e-01) (30, -5.51015317440032958984e-01) (31, -4.65846508741378784180e-01) (32, 6.12080192565917968750e+00) (33, -5.47394609451293945312e+00) (34, 1.12086212635040283203e+00) (0, 2.47519683837890625000e+00) (1, 1.93532392382621765137e-01) (2, 4.44091081619262695312e+00) (3, -1.19167435169219970703e+00) (4, -1.66942536830902099609e+00) (5, 1.90051138401031494141e+00) (6, -2.49710083007812500000e+00) (7, 7.69041538238525390625e-01) (8, -1.88147985935211181641e+00) (9, -3.01573455333709716797e-01) (10, 5.84425973892211914062e+00) (11, 4.68636369705200195312e+00) (12, 2.49309659004211425781e+00) (13, -9.49776351451873779297e-01) (14, -1.86384513974189758301e-01) (15, 1.90515840053558349609e+00) (16, 5.12883806228637695312e+00) (17, 9.74749207496643066406e-01) (18, 1.26894414424896240234e+00) (19, 3.08088064193725585938e+00) (20, 4.25187587738037109375e-01) (21, -2.96930104494094848633e-01) (22, -3.12174344062805175781e+00) (23, 1.48801827430725097656e+00) (24, -1.04091298580169677734e+00) (25, 9.36818599700927734375e-01) (26, -8.69495749473571777344e-01) (27, 1.15888282656669616699e-01) (28, 2.13349413871765136719e+00) (29, -1.50843954086303710938e+00) (30, 1.12605571746826171875e+00) (31, 1.45841157436370849609e+00) (32, 8.27677631378173828125e+00) (33, -7.62865602970123291016e-01) (34, -3.04823803901672363281e+00) (0, 2.00531736016273498535e-01) (1, 8.46722841262817382812e-01) (2, -1.12842512130737304688e+00) (3, -5.98937690258026123047e-01) (4, -2.11554217338562011719e+00) (5, -3.79080128669738769531e+00) (6, -9.22713398933410644531e-01) (7, 1.74305319786071777344e+00) (8, -3.56243038177490234375e+00) (9, -6.97353839874267578125e+00) (10, -5.16076850891113281250e+00) (11, -3.17277002334594726562e+00) (12, 3.60870003700256347656e-01) (13, 9.19083833694458007812e-01) (14, 1.36773216724395751953e+00) (15, -5.98359778523445129395e-02) (16, 1.44980311393737792969e-01) (17, 3.07880234718322753906e+00) (18, -1.63154685497283935547e+00) (19, -3.00543904304504394531e-01) (20, 3.46285033226013183594e+00) (21, -9.05786812305450439453e-01) (22, -3.60354685783386230469e+00) (23, -3.94905591011047363281e+00) (24, 2.30101656913757324219e+00) (25, -7.68593215942382812500e+00) (26, 1.47480979561805725098e-01) (27, -1.03345024585723876953e+00) (28, -1.27884864807128906250e+00) (29, -1.66553092002868652344e+00) (30, 3.25432181358337402344e-01) (31, -9.15608882904052734375e-01) (32, -1.05821526050567626953e+00) (33, -1.99338769912719726562e+00) (34, -1.44586706161499023438e+00) (0, -6.13707423210144042969e-01) (1, 7.47405230998992919922e-01) (2, 1.22651946544647216797e+00) (3, -2.51349258422851562500e+00) (4, -2.73471206426620483398e-01) (5, -9.74817574024200439453e-01) (6, -8.66172134876251220703e-01) (7, -3.39167237281799316406e+00) (8, -3.93432050943374633789e-01) (9, -5.04298496246337890625e+00) (10, 2.33937397599220275879e-01) (11, -8.93521785736083984375e-01) (12, 3.63837242126464843750e-01) (13, 1.09957189559936523438e+01) (14, -6.42828881740570068359e-01) (15, 4.52369809150695800781e-01) (16, -1.07450687885284423828e+00) (17, 1.83585870265960693359e+00) (18, -7.94527828693389892578e-01) (19, 1.33944988250732421875e+00) (20, 4.53079843521118164062e+00) (21, -5.88243782520294189453e-01) (22, 2.12831592559814453125e+00) (23, -3.28197985887527465820e-01) (24, -2.01297974586486816406e+00) (25, 5.01337170600891113281e-01) (26, -5.78657209873199462891e-01) (27, 7.24364161491394042969e-01) (28, -1.06791853904724121094e+00) (29, -7.69157886505126953125e-01) (30, -1.56131640076637268066e-01) (31, 5.07981121540069580078e-01) (32, -1.92049396038055419922e+00) (33, 1.46891164779663085938e+00) (34, -2.64170312881469726562e+00) (0, -1.76299273967742919922e+00) (1, 1.19169914722442626953e+00) (2, 1.55724883079528808594e+00) (3, -1.30910909175872802734e+00) (4, -1.53202605247497558594e+00) (5, -9.24334675073623657227e-02) (6, 1.64973258972167968750e+00) (7, -2.05327406525611877441e-01) (8, -1.93828725814819335938e+00) (9, -3.08544826507568359375e+00) (10, -9.75624263286590576172e-01) (11, 2.64919066429138183594e+00) (12, -3.19332265853881835938e+00) (13, 7.34647214412689208984e-01) (14, -1.26918995380401611328e+00) (15, 3.29806137084960937500e+00) (16, -6.33861720561981201172e-01) (17, 3.15949654579162597656e+00) (18, 4.05360507965087890625e+00) (19, -1.00744247436523437500e+00) (20, -1.89498686790466308594e+00) (21, 5.70495426654815673828e-01) (22, 2.39891099929809570312e+00) (23, 8.68298053741455078125e-01) (24, 2.14834642410278320312e+00) (25, -2.09168767929077148438e+00) (26, 1.02246987819671630859e+00) (27, -1.84024959802627563477e-01) (28, -3.53695559501647949219e+00) (29, -1.20205640792846679688e+00) (30, -3.18823814392089843750e-01) (31, 2.05043506622314453125e+00) (32, -2.47818851470947265625e+00) (33, 6.43281817436218261719e-01) (34, 9.53652620315551757812e-01) (0, -3.26402282714843750000e+00) (1, 2.35129451751708984375e+00) (2, -3.68112659454345703125e+00) (3, -5.54203867912292480469e-01) (4, -4.39164370298385620117e-01) (5, -4.01053667068481445312e+00) (6, 2.28327989578247070312e+00) (7, -8.49843144416809082031e-01) (8, -1.01570987701416015625e+00) (9, -6.28666222095489501953e-01) (10, -1.43877613544464111328e+00) (11, -1.16791892051696777344e+00) (12, -1.18730342388153076172e+00) (13, 3.13952469825744628906e+00) (14, -2.26944255828857421875e+00) (15, 1.98429453372955322266e+00) (16, 2.16248154640197753906e+00) (17, 2.69191598892211914062e+00) (18, -4.67826414108276367188e+00) (19, -1.36518931388854980469e+00) (20, -8.85373532772064208984e-01) (21, 3.62944722175598144531e-01) (22, -3.87650460004806518555e-01) (23, 1.83335053920745849609e+00) (24, 5.77057301998138427734e-01) (25, -3.92710149288177490234e-01) (26, -2.49766182899475097656e+00) (27, -4.70898866653442382812e-01) (28, 5.01505899429321289062e+00) (29, 6.28298595547676086426e-02) (30, 1.01122009754180908203e+00) (31, -1.15847170352935791016e+00) (32, 2.98739266395568847656e+00) (33, 2.03188037872314453125e+00) (34, 1.36780198663473129272e-02) (0, -1.41292703151702880859e+00) (1, 6.21085107326507568359e-01) (2, 1.23057985305786132812e+00) (3, 1.58252501487731933594e+00) (4, 3.40209889411926269531e+00) (5, -8.02094876766204833984e-01) (6, -1.58326673507690429688e+00) (7, -7.57044851779937744141e-01) (8, -5.08653342723846435547e-01) (9, 1.47505271434783935547e+00) (10, 1.52260529994964599609e+00) (11, -1.64484822750091552734e+00) (12, 6.88081622123718261719e-01) (13, 2.90743851661682128906e+00) (14, -2.78110891580581665039e-01) (15, -4.76208627223968505859e-01) (16, -8.16550850868225097656e-02) (17, 9.93312656879425048828e-01) (18, 3.21496653556823730469e+00) (19, 2.70488679409027099609e-01) (20, -7.49927833676338195801e-02) (21, 4.20838922262191772461e-01) (22, 5.64172124862670898438e+00) (23, 4.46151924133300781250e+00) (24, -5.51946878433227539062e-01) (25, -3.03966188430786132812e+00) (26, -2.70172178745269775391e-01) (27, -3.35046601295471191406e+00) (28, -2.53650236129760742188e+00) (29, -2.10251379013061523438e+00) (30, 1.00927615165710449219e+00) (31, 3.06578278541564941406e+00) (32, 2.01257705688476562500e+00) (33, -1.09554386138916015625e+00) (34, -1.26860332489013671875e+00) (0, 1.88708293437957763672e+00) (1, -3.06467413902282714844e+00) (2, 2.75783628225326538086e-01) (3, -2.95154392719268798828e-01) (4, -9.27453219890594482422e-01) (5, -2.42526388168334960938e+00) (6, 4.67276382446289062500e+00) (7, 1.92573881149291992188e+00) (8, -4.93689346313476562500e+00) (9, -9.83651638031005859375e+00) (10, -2.47817587852478027344e+00) (11, -1.37109696865081787109e+00) (12, 3.91777920722961425781e+00) (13, 2.92376470565795898438e+00) (14, 3.68168115615844726562e+00) (15, -3.73396500945091247559e-02) (16, 1.42559516429901123047e+00) (17, -1.40846872329711914062e+00) (18, 1.84058248996734619141e+00) (19, -8.41178417205810546875e+00) (20, 3.09525476768612861633e-03) (21, 4.11428898572921752930e-01) (22, -1.61060082912445068359e+00) (23, -9.97891128063201904297e-01) (24, 2.24426889419555664062e+00) (25, -8.18948745727539062500e-01) (26, -5.69353103637695312500e-01) (27, -3.01711052656173706055e-01) (28, 4.74381160736083984375e+00) (29, 2.45161101222038269043e-01) (30, 2.56824231147766113281e+00) (31, -3.35436511039733886719e+00) (32, -1.00481438636779785156e+00) (33, 1.65014159679412841797e+00) (34, -2.96533894538879394531e+00) (0, 5.92574548721313476562e+00) (1, 1.19656848907470703125e+00) (2, -2.40750670433044433594e-01) (3, 2.94555568695068359375e+00) (4, 1.60487914085388183594e+00) (5, 2.99625897407531738281e+00) (6, -4.07736253738403320312e+00) (7, 1.61828780174255371094e+00) (8, -6.78310915827751159668e-02) (9, -5.31789302825927734375e-01) (10, 2.10566234588623046875e+00) (11, 5.21481943130493164062e+00) (12, 2.87691092491149902344e+00) (13, 5.17793059349060058594e-01) (14, 1.34638333320617675781e+00) (15, 5.45724332332611083984e-01) (16, -3.78625535964965820312e+00) (17, 2.69539904594421386719e+00) (18, -9.51589941978454589844e-01) (19, -5.02053320407867431641e-01) (20, -9.49073076248168945312e-01) (21, 2.29881167411804199219e+00) (22, 3.32726202905178070068e-02) (23, -1.21953463554382324219e+00) (24, -1.73453152179718017578e+00) (25, -1.53992235660552978516e+00) (26, -1.39584207534790039062e+00) (27, 3.88130068778991699219e+00) (28, 1.74601495265960693359e+00) (29, 1.98051080107688903809e-01) (30, -1.83313834667205810547e+00) (31, 3.54801177978515625000e+00) (32, 1.64114439487457275391e+00) (33, 2.96005129814147949219e+00) (34, -3.09891510009765625000e+00) (0, 1.15374289453029632568e-01) (1, -2.98554539680480957031e-01) (2, -5.43207347393035888672e-01) (3, 1.25651013851165771484e+00) (4, -1.48448014259338378906e+00) (5, 2.03047275543212890625e+00) (6, -1.63503408432006835938e+00) (7, 1.85786342620849609375e+00) (8, -7.13571190834045410156e-01) (9, 1.81465542316436767578e+00) (10, 3.22618985176086425781e+00) (11, 4.39448070526123046875e+00) (12, 1.36034655570983886719e+00) (13, 5.23845481872558593750e+00) (14, 7.61329269409179687500e+00) (15, 2.63369584083557128906e+00) (16, 1.40453588962554931641e+00) (17, 7.75093972682952880859e-01) (18, 5.49191236495971679688e+00) (19, 9.44883823394775390625e-01) (20, -8.94992828369140625000e-01) (21, 9.44141924381256103516e-01) (22, 1.38099801540374755859e+00) (23, -5.80612301826477050781e-01) (24, -4.66274881362915039062e+00) (25, -7.25567936897277832031e-01) (26, -3.02660435438156127930e-01) (27, -8.53567123413085937500e-01) (28, 3.49583983421325683594e-01) (29, -2.09717988967895507812e+00) (30, -5.61228692531585693359e-01) (31, 1.71166852116584777832e-01) (32, 1.01892435550689697266e+00) (33, 1.95062863826751708984e+00) (34, -1.88208734989166259766e+00) (0, 1.15731382369995117188e+00) (1, 2.01000142842531204224e-02) (2, 5.79743720591068267822e-02) (3, 9.77808892726898193359e-01) (4, 3.39887976646423339844e+00) (5, -1.53855752944946289062e+00) (6, -7.42180794477462768555e-02) (7, 4.45494365692138671875e+00) (8, -1.65625202655792236328e+00) (9, -9.60425555706024169922e-01) (10, -2.38535523414611816406e-01) (11, -1.06085710525512695312e+01) (12, 2.60553884506225585938e+00) (13, -2.84976863861083984375e+00) (14, -2.15551704168319702148e-01) (15, 2.39557099342346191406e+00) (16, 1.33420526981353759766e+00) (17, -4.01780080795288085938e+00) (18, 2.62381315231323242188e+00) (19, -6.30612611770629882812e-01) (20, 1.65819048881530761719e+00) (21, -3.34757804870605468750e+00) (22, -2.84469366073608398438e+00) (23, 1.90187245607376098633e-02) (24, -2.47608110308647155762e-01) (25, 1.50461542606353759766e+00) (26, -1.14203536510467529297e+00) (27, -5.18841326236724853516e-01) (28, 4.62812572717666625977e-01) (29, -3.37437450885772705078e-01) (30, -6.25230610370635986328e-01) (31, 9.94554102420806884766e-01) (32, -3.13953794538974761963e-02) (33, -4.91995382308959960938e+00) (34, 1.41588163375854492188e+00) (0, 3.15433216094970703125e+00) (1, 8.94285678863525390625e-01) (2, -3.25837135314941406250e+00) (3, -6.85319453477859497070e-02) (4, -1.13585031032562255859e+00) (5, 1.67556917667388916016e+00) (6, 1.69621706008911132812e-01) (7, 1.44748044013977050781e+00) (8, 3.04153060913085937500e+00) (9, 4.31532192230224609375e+00) (10, 7.60349817574024200439e-03) (11, 3.51618552207946777344e+00) (12, -2.22016739845275878906e+00) (13, -6.10506951808929443359e-01) (14, 7.31585741043090820312e+00) (15, 4.00967687368392944336e-01) (16, 3.52466082572937011719e+00) (17, -1.35918009281158447266e+00) (18, 2.27170991897583007812e+00) (19, -8.82628858089447021484e-01) (20, 1.65783774852752685547e+00) (21, 9.25515145063400268555e-02) (22, -1.23273789882659912109e+00) (23, -2.75683045387268066406e-01) (24, -2.35170555114746093750e+00) (25, -2.10707736015319824219e+00) (26, -5.40476369857788085938e+00) (27, 1.82187989354133605957e-01) (28, -2.56191396713256835938e+00) (29, 3.87320899963378906250e+00) (30, -3.15190148353576660156e+00) (31, -1.01089596748352050781e+00) (32, 1.11641466617584228516e+00) (33, -4.45777511596679687500e+00) (34, 2.69275069236755371094e+00) (0, 2.93840742111206054688e+00) (1, 6.06410801410675048828e-01) (2, 1.40073442459106445312e+00) (3, 6.29524648189544677734e-01) (4, -5.65362262725830078125e+00) (5, -2.86553931236267089844e+00) (6, 2.87494927644729614258e-01) (7, 9.58280324935913085938e-01) (8, 2.07419112324714660645e-01) (9, -7.44234085083007812500e+00) (10, -3.87590169906616210938e+00) (11, 2.20691466331481933594e+00) (12, -1.95054006576538085938e+00) (13, 2.57207369804382324219e+00) (14, 1.36246174573898315430e-01) (15, 2.09105908870697021484e-02) (16, -1.40908145904541015625e+00) (17, 3.38465166091918945312e+00) (18, 5.79294800758361816406e-01) (19, -4.27575498819351196289e-01) (20, 4.03499484062194824219e-01) (21, 2.29870772361755371094e+00) (22, 2.09946081042289733887e-01) (23, 3.61869893968105316162e-02) (24, -4.36131149530410766602e-01) (25, -1.12525999546051025391e+00) (26, -4.26876872777938842773e-01) (27, -8.29396903514862060547e-01) (28, -1.99364411830902099609e+00) (29, 2.46800065040588378906e+00) (30, 4.94372397661209106445e-01) (31, -4.13027137517929077148e-01) (32, -4.78773206472396850586e-01) (33, -3.32559871673583984375e+00) (34, -3.51733493804931640625e+00) (0, -2.55716371536254882812e+00) (1, 5.43176507949829101562e+00) (2, -4.54228591918945312500e+00) (3, -5.85630714893341064453e-01) (4, 2.75396251678466796875e+00) (5, 1.23712074756622314453e+00) (6, 3.49887704849243164062e+00) (7, 9.99714285135269165039e-02) (8, 1.26111483573913574219e+00) (9, 1.54043149948120117188e+00) (10, 4.18187284469604492188e+00) (11, 1.23591732978820800781e+00) (12, -2.00917887687683105469e+00) (13, 3.45253872871398925781e+00) (14, -1.17714011669158935547e+00) (15, -1.12225711345672607422e+00) (16, 1.07845747470855712891e+00) (17, 2.63364148139953613281e+00) (18, 1.51268792152404785156e+00) (19, 7.09074437618255615234e-02) (20, 9.64068174362182617188e-01) (21, -6.46397590637207031250e-01) (22, -9.30770039558410644531e-01) (23, -1.74355411529541015625e+00) (24, -2.61936998367309570312e+00) (25, 1.74730336666107177734e+00) (26, -8.23518693447113037109e-01) (27, 3.19780081510543823242e-01) (28, 2.78178787231445312500e+00) (29, -2.62384152412414550781e+00) (30, 1.42433631420135498047e+00) (31, 7.18473613262176513672e-01) (32, 3.13041597604751586914e-01) (33, -1.23508918285369873047e+00) (34, -9.07465875148773193359e-01) (0, 2.04223528504371643066e-01) (1, 1.67503011226654052734e+00) (2, 2.03645181655883789062e+00) (3, -6.80713236331939697266e-01) (4, 1.35302495956420898438e+00) (5, -9.29777801036834716797e-01) (6, -1.11400723457336425781e+00) (7, -3.42907160520553588867e-01) (8, 5.90677857398986816406e-01) (9, 5.24545073509216308594e-01) (10, 7.55544053390622138977e-03) (11, 9.70549955964088439941e-02) (12, 1.62099003791809082031e-01) (13, 3.24002861976623535156e-01) (14, -4.81804698705673217773e-01) (15, 9.34353828430175781250e-01) (16, 3.19793105125427246094e+00) (17, 3.93338608741760253906e+00) (18, 1.55452270507812500000e+01) (19, 4.90119084715843200684e-02) (20, -3.01642298698425292969e-01) (21, 1.54682433605194091797e+00) (22, 6.22557973861694335938e+00) (23, 2.66237306594848632812e+00) (24, -4.94793844223022460938e+00) (25, 5.65753221511840820312e-01) (26, -1.28686809539794921875e+00) (27, -7.72583305835723876953e-01) (28, -3.48805338144302368164e-01) (29, -4.81048673391342163086e-01) (30, 7.03849124908447265625e+00) (31, -2.21657299995422363281e+00) (32, 8.16806221008300781250e+00) (33, 1.34698581695556640625e+00) (34, 4.23383951187133789062e-01) (0, -2.04859495162963867188e+00) (1, 4.07288455963134765625e+00) (2, 1.46855604648590087891e+00) (3, 9.70916390419006347656e-01) (4, 6.79542589187622070312e+00) (5, 2.44744110107421875000e+00) (6, -1.21252000331878662109e+00) (7, -6.61382019519805908203e-01) (8, -8.74900877475738525391e-01) (9, 4.71810102462768554688e+00) (10, 1.86671185493469238281e+00) (11, 8.29657435417175292969e-01) (12, 8.50823462009429931641e-01) (13, -1.08929085731506347656e+00) (14, 6.20579862594604492188e+00) (15, -4.29051208496093750000e+00) (16, -3.01150751113891601562e+00) (17, -1.40437805652618408203e+00) (18, 8.58028471469879150391e-01) (19, -1.44492363929748535156e+00) (20, 2.12285089492797851562e+00) (21, 2.16681003570556640625e+00) (22, 2.49118757247924804688e+00) (23, -5.84342181682586669922e-01) (24, -2.59459352493286132812e+00) (25, 2.37993404269218444824e-01) (26, -4.38898086547851562500e-01) (27, -9.84224319458007812500e-01) (28, 4.91495192050933837891e-01) (29, 3.81211042404174804688e+00) (30, -3.07655215263366699219e+00) (31, 1.24900519847869873047e+00) (32, -2.51855444908142089844e+00) (33, 6.30806398391723632812e+00) (34, 2.65953516960144042969e+00) (35, 4.13554573059082031250e+00) (36, 2.57487773895263671875e+00) (37, -1.65383601188659667969e+00) (38, 7.25388097763061523438e+00) (39, -5.44875049591064453125e+00) (40, -6.32595205307006835938e+00) (41, 2.04932951927185058594e+00) (42, 5.37499809265136718750e+00) (43, -5.72718024253845214844e-01) (44, -5.07258462905883789062e+00) (45, -3.52609872817993164062e+00) (46, 3.38688206672668457031e+00) (47, -6.30617952346801757812e+00) (48, -5.60862779617309570312e+00) (49, 4.46219682693481445312e+00) (50, -3.12446379661560058594e+00) (51, -1.35495960712432861328e+00) (52, 2.63852095603942871094e+00) (53, 2.52446365356445312500e+00) (54, -6.08882141113281250000e+00) (55, 6.30498006939888000488e-02) (56, 1.27335131168365478516e+00) (57, 5.07955121994018554688e+00) (58, 5.05253219604492187500e+00) (59, 2.17864656448364257812e+00) (60, -5.08426904678344726562e-01) (61, -6.13064575195312500000e+00) (62, 6.13475561141967773438e+00) (63, -3.76895737648010253906e+00) (64, -4.58994179964065551758e-01) (65, 1.48300313949584960938e+00) (66, -2.72634053230285644531e+00) (67, -1.54415696859359741211e-01) (35, 4.49652576446533203125e+00) (36, 5.59961938858032226562e+00) (37, 1.07491862773895263672e+00) (38, 2.05866113305091857910e-01) (39, 1.19561147689819335938e+00) (40, 1.34152400493621826172e+00) (41, -4.82832860946655273438e+00) (42, -2.70952439308166503906e+00) (43, 2.01834201812744140625e+00) (44, 5.46361398696899414062e+00) (45, -2.58684366941452026367e-01) (46, -6.74639940261840820312e+00) (47, 2.68976593017578125000e+00) (48, 3.71232557296752929688e+00) (49, -4.82154750823974609375e+00) (50, 5.08761358261108398438e+00) (51, -3.20593214035034179688e+00) (52, 9.94168341159820556641e-01) (53, -2.47581824660301208496e-01) (54, 5.73551058769226074219e-01) (55, -7.93891000747680664062e+00) (56, -3.82325828075408935547e-01) (57, -7.85407871007919311523e-02) (58, -2.08380341529846191406e+00) (59, -5.17269134521484375000e+00) (60, -2.88597774505615234375e+00) (61, 1.90693974494934082031e-01) (62, -1.06044280529022216797e+00) (63, 6.87976789474487304688e+00) (64, 3.95728421211242675781e+00) (65, -5.92617273330688476562e+00) (66, 5.82836568355560302734e-01) (67, -3.02315335720777511597e-02) (35, -8.10758686065673828125e+00) (36, -6.21842050552368164062e+00) (37, -4.94380617141723632812e+00) (38, 2.02880978584289550781e-01) (39, -3.23450475931167602539e-01) (40, 1.81558692455291748047e+00) (41, 3.95902442932128906250e+00) (42, -7.33973836898803710938e+00) (43, -1.46287098526954650879e-01) (44, 1.01026225090026855469e+00) (45, -2.85691285133361816406e+00) (46, 1.83377432823181152344e+00) (47, 3.26768970489501953125e+00) (48, 5.33861160278320312500e+00) (49, 7.72287964820861816406e-01) (50, -3.50829434394836425781e+00) (51, 3.20844411849975585938e+00) (52, -6.60172510147094726562e+00) (53, 3.89390498399734497070e-01) (54, 3.66387128829956054688e+00) (55, 3.02619791030883789062e+00) (56, 4.02037429809570312500e+00) (57, -6.29975366592407226562e+00) (58, -3.75513410568237304688e+00) (59, -1.54060459136962890625e+00) (60, 4.57857179641723632812e+00) (61, -5.09461052715778350830e-02) (62, -4.47455835342407226562e+00) (63, 1.48511856794357299805e-01) (64, 2.20389342308044433594e+00) (65, 5.00941658020019531250e+00) (66, -4.77085256576538085938e+00) (67, -2.66872160136699676514e-02) (35, -5.93998622894287109375e+00) (36, -2.70943999290466308594e+00) (37, 5.73592758178710937500e+00) (38, -9.58538341522216796875e+00) (39, 4.53846645355224609375e+00) (40, 4.13068628311157226562e+00) (41, -2.76630830764770507812e+00) (42, 4.06052589416503906250e+00) (43, -4.77166938781738281250e+00) (44, -1.28176035359501838684e-02) (45, 9.61911010742187500000e+00) (46, -1.32375314831733703613e-01) (47, -1.42136752605438232422e+00) (48, -2.99791407585144042969e+00) (49, -2.16409802436828613281e+00) (50, 2.69979089498519897461e-01) (51, 1.07265189290046691895e-01) (52, 2.45332551002502441406e+00) (53, -4.06430816650390625000e+00) (54, -8.41803029179573059082e-02) (55, 2.30793380737304687500e+00) (56, -7.87131738662719726562e+00) (57, -9.30800661444664001465e-02) (58, -3.32864046096801757812e-01) (59, 2.41971516609191894531e+00) (60, 2.49044224619865417480e-01) (61, 3.70284652709960937500e+00) (62, -3.07110381126403808594e+00) (63, -2.39411950111389160156e+00) (64, -7.31684637069702148438e+00) (65, 3.55905413627624511719e-01) (66, 4.60893964767456054688e+00) (67, 6.27385258674621582031e-01) 
